
\data\
ngram 1=5530
ngram 2=19704
ngram 3=8095


\1-grams:
-1.0159 </s> 0.0000
-99.0000 <s> -0.8310
-1.6735 A -0.5323
-4.3853 ABANDONED -0.2127
-4.0843 ABANDONMENT -0.6350
-4.6864 ABIES -0.2587
-4.6864 ABILITIES -0.2147
-3.5724 ABLE -1.1370
-3.9874 ABNORMAL -0.5301
-3.9874 ABNORMALLY -0.3141
-4.6864 ABOUND -0.2525
-4.6864 ABOUNDING -0.2580
-4.6864 ABOUNDS -0.2585
-2.7833 ABOUT -0.4042
-3.6864 ABOVE -0.5687
-4.6864 ABRADING -0.2348
-4.6864 ABRAM'S -0.2586
-4.2093 ABROAD -0.6913
-4.6864 ABRUPTLY -0.2525
-4.3853 ABSENT -0.2557
-4.2093 ABSOLUTE -0.2583
-4.3853 ABSOLUTELY -0.2585
-4.6864 ABSORPTION -0.2472
-4.6864 ABSTRACTIONS -0.2584
-4.2093 ABSURDITY -0.6998
-4.6864 ABSURDLY -0.2586
-4.6864 ABUSE -0.2537
-3.9082 ACCELERATED -0.7069
-4.6864 ACCENTUATED -0.2147
-4.0843 ACCEPT -0.5260
-4.0843 ACCEPTED -0.6415
-4.6864 ACCESS -0.2495
-4.3853 ACCESSORIES -0.4331
-4.6864 ACCIDENT -0.2147
-4.2093 ACCIDENTAL -0.6412
-4.6864 ACCLIVITIES -0.2472
-4.3853 ACCOMPANIED -0.4756
-4.3853 ACCOMPANY -0.4532
-4.6864 ACCOMPLISHED -0.2558
-4.6864 ACCOMPLISHMENTS -0.2586
-4.3853 ACCORDANCE -0.4738
-4.0843 ACCORDING -0.6373
-4.0843 ACCORDINGLY -0.4453
-4.0843 ACCOUNT -0.1986
-4.6864 ACCOUNTED -0.2558
-4.3853 ACCOUNTING -0.4331
-4.6864 ACCRUED -0.2495
-4.6864 ACCURATE -0.2478
-4.6864 ACCURATELY -0.2147
-4.6864 ACHIEVE -0.2581
-4.6864 ACHIEVED -0.2147
-4.2093 ACHIEVEMENTS -0.7262
-4.6864 ACIDS -0.2147
-4.6864 ACKNOWLEDGE -0.2581
-4.6864 ACKNOWLEDGED -0.2587
-4.6864 ACOUSTIC -0.2586
-4.2093 ACQUAINTANCE -0.2108
-4.0843 ACQUAINTED -0.5454
-3.9874 ACQUIESCENCE -0.2702
-4.3853 ACQUIRED -0.2523
-3.6450 ACROSS -0.4704
-3.6864 ACT -0.5976
-4.3853 ACTED -0.2525
-4.0843 ACTION -0.2013
-4.6864 ACTIVITY -0.2147
-4.2093 ACTS -0.7330
-4.0843 ACTUAL -0.5596
-4.6864 ACTUALLY -0.2587
-4.6864 ACTUATED -0.2586
-4.6864 ACUTE -0.2147
-4.2093 ADAPTABLE -0.6520
-4.6864 ADD -0.2549
-3.6450 ADDED -0.5561
-4.6864 ADDRESS -0.2348
-4.6864 ADJACENT -0.2147
-4.6864 ADJECTIVE -0.2568
-4.0843 ADMINISTERED -0.6464
-4.6864 ADMIRATION -0.2567
-4.6864 ADMIRED -0.2577
-4.0843 ADMITTED -0.2438
-4.3853 ADOPTED -0.2570
-4.3853 ADRIFT -0.4331
-4.0843 ADVANCE -0.1999
-4.3853 ADVANCED -0.2432
-4.6864 ADVANCEMENT -0.2472
-3.9082 ADVANTAGE -0.6356
-4.0843 ADVANTAGES -0.5119
-3.9082 ADVENTURE -0.6080
-4.6864 ADVENTURES -0.2147
-4.6864 ADVENTURETH -0.2551
-4.6864 ADVERSE -0.2587
-3.7321 ADVICE -1.1568
-4.2093 ADVISEDLY -0.6081
-4.6864 AEROBIC -0.2587
-4.0843 AFFAIR -0.4784
-4.6864 AFFAIRS -0.2472
-4.2093 AFFECTED -0.7338
-4.6864 AFFIRMED -0.2348
-4.6864 AFFLICT -0.2478
-4.6864 AFFLICTIONS -0.2538
-4.6864 AFFORD -0.2537
-4.6864 AFFORDS -0.2494
-4.6864 AFOOT -0.2580
-4.3853 AFRAID -0.4657
-4.6864 AFRICA -0.2526
-3.2093 AFTER -0.6422
-4.0843 AFTER-ROOM -0.6024
-3.7321 AFTERNOON -1.1647
-4.0843 AFTERWARD -0.2492
-3.0332 AGAIN -0.4558
-3.6864 AGAINST -0.4404
-3.7321 AGE -0.4415
-4.3853 AGED -0.2585
-4.6864 AGENCY -0.2585
-4.6864 AGENT -0.2147
-4.0843 AGENTS -0.5473
-4.6864 AGITATION -0.2147
-3.6450 AGO -0.4011
-4.6864 AGONY -0.2472
-4.3853 AGREE -0.4738
-4.6864 AGREEABLE -0.2587
-4.3853 AGREED -0.4331
-3.8413 AH -0.3766
-3.6864 AHEAD -0.9315
-4.3853 AID -0.2462
-4.6864 AIDS -0.2495
-4.3853 AILS -0.4760
-4.6864 AIN'T -0.2571
-3.6450 AIR -0.4683
-4.2093 AJAR -0.6081
-4.6864 AL -0.2587
-4.6864 ALAN -0.2587
-4.3853 ALARM -0.2020
-4.6864 ALARMED -0.2587
-4.6864 ALBERTA -0.2147
-4.6864 ALCHEMY -0.2147
-4.2093 ALCOHOL -0.6081
-4.3853 ALCOHOL-DRENCHED -0.4771
-4.6864 ALKALINE -0.2587
-2.3941 ALL -0.5468
-4.6864 ALLENTOWN -0.2147
-4.6864 ALLER -0.2586
-4.6864 ALLIANCE -0.2572
-4.0843 ALLOW -0.5566
-4.6864 ALLOWANCE -0.2558
-3.8413 ALLOWED -0.5583
-4.0843 ALLOWS -0.6226
-4.6864 ALLOY -0.2495
-4.6864 ALLUDED -0.2495
-4.0843 ALLY -0.6024
-3.2550 ALMOST -0.4465
-3.7833 ALONE -0.3850
-3.2392 ALONG -0.7622
-3.9874 ALOUD -0.2702
-3.0236 ALREADY -0.4474
-4.6864 ALRIGHT -0.2587
-3.0143 ALSO -0.7109
-4.3853 ALTHOUGH -0.2316
-4.2093 ALTRUISM -0.6081
-4.6864 ALTRUISTIC -0.2586
-3.3642 ALWAYS -0.4235
-3.1423 AM -0.3970
-4.6864 AMATEURISH -0.2478
-3.8413 AMBITION -0.4043
-4.2093 AMBUSH -0.6406
-4.6864 AMENDED -0.2147
-3.9874 AMERICA -0.4198
-4.0843 AMERICAN -0.2584
-4.6864 AMNESIA -0.2587
-3.4823 AMONG -1.1359
-4.2093 AMONGST -0.7117
-3.8413 AMOUNT -0.3307
-4.0843 AMPHIBIAN -0.6356
-4.6864 AMPHIBIOUS -0.2587
-4.6864 AMUSED -0.2568
-2.4960 AN -0.4669
-4.6864 ANAGAZANDERS -0.2587
-4.6864 ANALOGY -0.2478
-4.3853 ANALYSIS -0.2133
-4.3853 ANARCHY -0.2477
-4.6864 ANATOMY -0.2147
-4.6864 ANCHOR -0.2572
-3.9874 ANCIENT -0.2467
-1.6065 AND -0.3202
-4.6864 ANEMONE -0.2587
-4.6864 ANGEL -0.2147
-4.2093 ANGRY -0.2067
-3.8413 ANIMAL -0.5521
-3.3440 ANIMALS -0.2633
-3.7833 ANNE -0.3471
-4.6864 ANNOUNCE -0.2561
-3.9082 ANNOUNCED -0.7476
-4.3853 ANNOY -0.4760
-4.2093 ANNOYING -0.6081
-4.6864 ANNUAL -0.2587
-3.3440 ANOTHER -0.4024
-3.3853 ANSWER -0.3269
-4.0843 ANSWERED -0.2077
-4.6864 ANSWERING -0.2147
-3.9082 ANTAGONIST -0.3037
-4.3853 ANTICIPATE -0.4532
-4.6864 ANTICIPATED -0.2584
-4.6864 ANTITHESIS -0.2472
-4.6864 ANXIETY -0.2478
-4.3853 ANXIOUS -0.2495
-3.0236 ANY -0.3875
-4.3853 ANYBODY -0.2566
-4.3853 ANYMORE -0.4331
-4.0843 ANYONE -0.5107
-3.2714 ANYTHING -0.6505
-4.6864 ANYWHERE -0.2147
-4.2093 APART -0.6916
-4.6864 APOLOGIZE -0.2578
-3.9874 APOLOGIZED -0.3141
-4.6864 APOTHECARY -0.2495
-4.3853 APPARENTLY -0.2584
-4.3853 APPEALED -0.4680
-4.3853 APPEAR -0.2484
-3.6864 APPEARANCE -0.4145
-4.6864 APPEARANCES -0.2472
-4.6864 APPEARED -0.2525
-4.3853 APPEARS -0.2494
-4.6864 APPLAUDED -0.2478
-4.6864 APPLIANCES -0.2566
-4.3853 APPLICATION -0.4657
-4.6864 APPLIED -0.2525
-4.6864 APPLY -0.2147
-4.2093 APPRECIATE -0.2483
-4.2093 APPRECIATED -0.6520
-4.2093 APPREHENSION -0.6406
-4.6864 APPREHENSIONS -0.2567
-4.3853 APPROACHED -0.4771
-4.6864 APPROACHING -0.2348
-4.3853 APPROPRIATE -0.2045
-4.6864 APPROVED -0.2572
-4.6864 APRIL -0.2586
-3.9874 APRON -0.3142
-4.6864 APT -0.2495
-3.9874 ARCH -0.3109
-3.9874 ARCHIBALD -0.3138
-4.6864 ARCHIVES -0.2147
-4.2093 ARCTIC -0.2586
-2.2534 ARE -0.3988
-4.3853 AREA -0.2078
-4.6864 AREN'T -0.2587
-4.6864 ARENA -0.2478
-4.0843 ARGENTINE -0.6024
-3.9082 ARGUE -0.6487
-4.2093 ARGUED -0.6081
-4.6864 ARGUING -0.2478
-3.9082 ARGUMENT -0.6044
-4.0843 ARGUMENTS -0.6404
-3.9082 ARISTOTLE -0.7507
-3.3440 ARM -0.4965
-4.6864 ARMOR -0.2525
-4.2093 ARMS -0.2019
-4.6864 ARMY -0.2147
-4.6864 AROMATIC -0.2587
-4.0843 AROSE -0.6985
-3.5724 AROUND -0.4074
-3.9082 AROUSED -0.6827
-4.3853 ARRANGED -0.2525
-4.6864 ARRANGEMENT -0.2472
-4.2093 ARRAY -0.6406
-4.6864 ARRIVAL -0.2472
-4.0843 ARRIVE -0.5096
-4.0843 ARRIVED -0.6444
-3.9874 ARROW -0.4239
-4.0843 ARROWS -0.5155
-4.6864 ARTHRITIS -0.2586
-3.4559 ARTHUR -0.4349
-4.6864 ARTICLE -0.2472
-4.6864 ARTICLES -0.2568
-4.3853 ARTICULATE -0.4331
-4.6864 ARTIST -0.2495
-4.2093 ARTISTIC -0.6412
-4.6864 ARTISTS -0.2564
-4.6864 ARTS -0.2147
-2.3642 AS -0.5170
-4.6864 ASCERTAINED -0.2572
-4.3853 ASHES -0.2575
-4.2093 ASHORE -0.6520
-4.6864 ASIA -0.2587
-4.2093 ASIATIC -0.6918
-3.7833 ASIDE -0.3853
-4.2093 ASK -0.7297
-3.7833 ASKED -0.2443
-4.2093 ASKING -0.2540
-3.8413 ASLEEP -0.6040
-4.2093 ASPECT -0.6896
-4.6864 ASPECTS -0.2586
-4.6864 ASPIRE -0.2585
-4.6864 ASSEMBLIES -0.2568
-4.0843 ASSEMBLY -0.1986
-4.2093 ASSIGNED -0.7265
-4.0843 ASSISTANCE -0.6024
-4.2093 ASSISTANTS -0.6412
-4.6864 ASSOCIATED -0.2554
-4.6864 ASSOCIATION -0.2147
-4.6864 ASSOCIATIONS -0.2587
-4.3853 ASSUMED -0.2477
-4.6864 ASSUMING -0.2348
-4.6864 ASSUMPTION -0.2549
-4.6864 ASSUREDLY -0.2147
-4.6864 ASTONISHED -0.2586
-4.6864 ASTONISHING -0.2587
-4.6864 ASTONISHMENT -0.2478
-4.6864 ASTRONOMER -0.2147
-4.6864 ASTRONOMICAL -0.2586
-4.6864 ASTRONOMY -0.2147
-4.6864 ASUNDER -0.2583
-2.3580 AT -0.6948
-3.4823 ATE -0.6663
-4.3853 ATHLETE -0.4662
-4.3853 ATHLETIC -0.4771
-4.6864 ATLANTIC -0.2586
-4.0843 ATMOSPHERE -0.4854
-4.3853 ATOLL -0.4710
-4.3853 ATOMIC -0.2585
-4.6864 ATOMISM -0.2537
-4.6864 ATTACH -0.2573
-4.2093 ATTACK -0.6510
-4.6864 ATTACKER -0.2147
-4.6864 ATTACKING -0.2587
-4.6864 ATTAINS -0.2579
-4.0843 ATTEMPT -0.5004
-3.9874 ATTEMPTED -0.8198
-4.6864 ATTEND -0.2554
-4.0843 ATTENTION -0.5049
-4.3853 ATTITUDE -0.4760
-4.6864 ATTRACTION -0.2478
-4.0843 ATTRACTIVE -0.5140
-4.3853 AUDACIOUS -0.4769
-3.9874 AUDIO -0.5363
-4.6864 AUGUST -0.2147
-3.9082 AUNT -0.4758
-4.0843 AURORA -0.6987
-4.3853 AUSPICIOUS -0.4331
-3.7833 AUSTERE -0.3308
-3.9874 AUSTRALIA -0.8288
-4.6864 AUTHENTICATION -0.2147
-4.3853 AUTHOR -0.2377
-4.0843 AUTHORITY -0.1998
-4.3853 AUTOMATIC -0.2587
-4.6864 AUTOMATICALLY -0.2587
-4.0843 AUTOMATON -0.6024
-3.9082 AVAILABLE -0.3043
-3.7833 AVERAGE -0.8756
-4.6864 AVERSION -0.2587
-4.6864 AWAITED -0.2348
-4.6864 AWAKE -0.2566
-4.3853 AWAKEN -0.4752
-4.3853 AWARE -0.2468
-3.0843 AWAY -0.7654
-3.9874 AWE -0.3028
-4.6864 AWFUL -0.2586
-4.6864 AWKWARDNESS -0.2147
-4.3853 AX -0.4662
-4.6864 AXIOMS -0.2472
-4.6864 AXIS -0.2587
-4.0843 B -0.5158
-4.2093 BABBLING -0.6412
-4.3853 BABOON -0.2130
-3.9082 BABY -0.2026
-4.2093 BACHELOR -0.6521
-2.9704 BACK -0.7204
-4.3853 BACKGROUND -0.2141
-4.6864 BACKGROUNDS -0.2578
-4.6864 BACKING -0.2576
-4.6864 BACKS -0.2495
-4.6864 BACONIAN -0.2587
-3.8413 BAD -0.2145
-4.6864 BADE -0.2577
-4.3853 BAG -0.2145
-3.9082 BAIRD -0.7508
-4.3853 BAKER -0.4662
-4.3853 BALANCE -0.2444
-4.3853 BALL -0.2572
-4.6864 BALLROOM -0.2147
-4.2093 BALLS -0.6412
-4.6864 BALSAM -0.2549
-4.3853 BALTIC -0.2534
-4.6864 BANALITY -0.2525
-4.3853 BANANAS -0.2078
-4.0843 BANCROFT -0.6464
-3.7833 BAND -0.3686
-4.3853 BANDS -0.2139
-4.6864 BANDWIDTH -0.2587
-4.6864 BANEFUL -0.2587
-4.6864 BANISHETH -0.2587
-4.2093 BANK -0.6917
-4.6864 BANKRUPTCY -0.2147
-4.0843 BANKS -0.5002
-4.2093 BAPTIZED -0.6081
-4.6864 BARBARA -0.2587
-4.6864 BARDS -0.2585
-4.6864 BARE -0.2586
-3.7321 BARED -0.4278
-4.0843 BARELY -0.6464
-4.6864 BARGAINS -0.2583
-4.2093 BARKED -0.6081
-4.6864 BARKING -0.2587
-3.7321 BARN -0.4005
-4.0843 BARNETT -0.5113
-4.3853 BASED -0.2562
-4.3853 BASES -0.2110
-4.2093 BASIC -0.2586
-4.3853 BASINS -0.2577
-4.6864 BASSET -0.2147
-4.0843 BASSETT -0.6403
-4.2093 BATH -0.6815
-4.3853 BATHE -0.4532
-4.3853 BATHING -0.2587
-4.6864 BATTLE -0.2554
-4.3853 BAVIAAN -0.2347
-4.2093 BAY -0.7265
-2.3420 BE -0.3412
-3.7833 BEACH -0.8966
-4.6864 BEADY -0.2586
-4.6864 BEAMS -0.2472
-3.7321 BEAR -0.7500
-4.3853 BEARS -0.2586
-4.6864 BEASTS -0.2478
-4.6864 BEAT -0.2582
-4.2093 BEATING -0.6412
-4.6864 BEATRICE -0.2147
-4.6864 BEATS -0.2585
-3.9082 BEAU -0.6054
-3.5103 BEAUTIFUL -0.5500
-3.9874 BEAUTY -0.4663
-4.3853 BEAVER -0.4770
-3.6072 BECAME -0.3605
-3.5402 BECAUSE -0.3291
-3.6450 BECOME -0.8222
-3.9874 BECOMING -0.3125
-3.9082 BED -0.2604
-4.6864 BEDROOM -0.2586
-4.6864 BEDS -0.2147
-4.3853 BEEF -0.2348
-2.6333 BEEN -0.4344
-4.2093 BEER -0.7358
-4.6864 BEERS -0.2147
-3.1182 BEFORE -0.4966
-4.2093 BEG -0.7347
-3.1950 BEGAN -1.0974
-4.2093 BEGIN -0.7289
-3.9082 BEGINNING -0.3409
-3.6864 BEGUN -0.3829
-4.6864 BEHAVED -0.2147
-4.6864 BEHAVIOR -0.2147
-3.3853 BEHIND -0.3970
-4.6864 BEHOLD -0.2348
-4.6864 BEIGE -0.2587
-4.6864 BEIJING -0.2147
-3.3853 BEING -0.2406
-3.2392 BELIEVE -0.5694
-4.6864 BELIZE -0.2586
-4.6864 BELL -0.2586
-4.3853 BELLS -0.2020
-4.6864 BELONGED -0.2495
-4.6864 BELOVED -0.2556
-3.8413 BELOW -0.3192
-3.8413 BELT -0.3360
-4.6864 BELTS -0.2586
-4.6864 BENCH -0.2569
-4.6864 BENCHES -0.2147
-4.6864 BEND -0.2587
-4.6864 BENEATH -0.2348
-4.6864 BENEFICIAL -0.2586
-4.6864 BENEFIT -0.2581
-3.9082 BENT -0.6803
-4.6864 BEQUEATHED -0.2572
-4.6864 BESET -0.2577
-4.3853 BESETTING -0.4771
-4.3853 BESIDE -0.2554
-3.7833 BESIDES -0.4969
-3.6864 BEST -0.3326
-4.6864 BETAKEN -0.2554
-4.3853 BETRAYAL -0.4657
-3.6450 BETTER -0.6237
-3.2240 BETWEEN -0.5317
-3.2392 BEYOND -0.6428
-4.3853 BI -0.4771
-3.2550 BIG -0.5728
-4.2093 BIG-EYED -0.6521
-4.3853 BIG-FACE -0.4770
-4.6864 BILL -0.2584
-4.2093 BILLINGER -0.6516
-4.3853 BILLY -0.4331
-4.3853 BINARY -0.2586
-4.0843 BIOLOGISTS -0.4717
-4.2093 BIRD -0.6081
-4.6864 BIRDS -0.2147
-4.6864 BISCUITS -0.2147
-4.6864 BISHOPS -0.2567
-4.3853 BISQUE -0.2146
-3.6072 BIT -0.2883
-4.3853 BITE -0.2537
-4.6864 BITTEN -0.2587
-4.6864 BITTEREST -0.2586
-4.0843 BIZARRE -0.6356
-3.5402 BLACK -0.4600
-4.6864 BLACKENED -0.2587
-3.9874 BLADE -0.3028
-3.7833 BLAME -0.9500
-4.6864 BLATANT -0.2587
-4.6864 BLAZING -0.2586
-4.6864 BLESS -0.2538
-4.6864 BLESSING -0.2478
-4.3853 BLEW -0.4767
-3.9874 BLIND -0.3109
-4.6864 BLINDED -0.2554
-4.6864 BLOCK -0.2537
-4.6864 BLOCKED -0.2579
-3.7321 BLOOD -0.4082
-4.6864 BLOOMING -0.2478
-4.2093 BLOT -0.6519
-4.6864 BLOTCHY -0.2478
-3.9874 BLUE -0.3947
-4.6864 BLUNDER -0.2147
-4.3853 BOARD -0.4662
-4.0843 BOAT -0.5158
-4.3853 BOATS -0.2026
-3.6864 BOB -0.3297
-4.6864 BODICE -0.2581
-4.6864 BODIED -0.2586
-3.9874 BODIES -0.4227
-3.4823 BODY -0.4818
-4.0843 BOHEMIAN -0.6463
-4.2093 BOILED -0.6514
-4.2093 BOILING -0.6520
-4.6864 BOLES -0.2147
-4.3853 BOLING -0.2143
-4.6864 BOMBARDMENT -0.2572
-4.3853 BONDS -0.4733
-4.6864 BONE -0.2525
-4.6864 BONES -0.2586
-4.6864 BONNY -0.2587
-4.6864 BONTE -0.2587
-3.6864 BOOK -0.4130
-4.2093 BOOKKEEPER -0.6521
-4.6864 BOOKS -0.2566
-4.6864 BOOTS -0.2147
-4.6864 BORE -0.2571
-4.3853 BOREALIS -0.4331
-3.5724 BORN -1.1106
-4.6864 BORNE -0.2579
-4.6864 BORROW -0.2537
-4.3853 BORROWED -0.2147
-4.6864 BORROWING -0.2576
-3.9874 BOSOM -0.3033
-4.3853 BOSTON -0.4331
-4.6864 BOTANIQUE -0.2587
-4.6864 BOTANIST -0.2478
-3.4559 BOTH -0.4947
-4.3853 BOTTOM -0.4657
-3.9874 BOUGHT -0.8720
-4.6864 BOULDERS -0.2478
-4.6864 BOUND -0.2538
-4.2093 BOUNDARIES -0.7218
-4.6864 BOUNDING -0.2582
-4.6864 BOUNDS -0.2568
-3.5103 BOW -0.5413
-3.9874 BOWED -0.8292
-4.0843 BOWL -0.6350
-4.6864 BOWLS -0.2587
-4.0843 BOWS -0.4709
-4.0843 BOX -0.4591
-3.2093 BOY -0.5999
-3.9874 BOYS -0.4243
-4.6864 BRACKENED -0.2587
-4.6864 BRAID -0.2537
-3.8413 BRAIN -0.4142
-3.7833 BRANCH -0.5890
-3.7321 BRANCHES -0.3178
-4.6864 BRANCHLETS -0.2549
-4.0843 BRAND -0.5046
-4.6864 BRAVELY -0.2583
-4.6864 BRAVING -0.2348
-4.3853 BREAD -0.2471
-3.5103 BREAK -0.6057
-4.3853 BREAKING -0.2340
-4.0843 BREAST -0.6024
-4.6864 BREATH -0.2348
-4.0843 BREATHE -0.5489
-4.6864 BREECHES -0.2147
-4.3853 BREED -0.4331
-3.9874 BRENTWOOD -0.3140
-4.3853 BRIBERY -0.4771
-4.6864 BRIDAL -0.2587
-3.9874 BRIDGE -0.8231
-4.6864 BRIEFING -0.2147
-4.0843 BRIGHT -0.5581
-4.6864 BRIGHTEN -0.2587
-4.6864 BRIGHTENING -0.2583
-4.2093 BRIGHTNESS -0.6081
-4.3853 BRILLIANT -0.2587
-4.0843 BRING -0.2545
-4.2093 BRINGING -0.6521
-4.6864 BRINGS -0.2569
-4.2093 BRINKER -0.6514
-4.6864 BRITAIN -0.2147
-4.6864 BRITTLE -0.2587
-4.3853 BROACH -0.4722
-4.3853 BROAD -0.2587
-4.6864 BROCADE -0.2147
-4.6864 BRODIE'S -0.2586
-4.6864 BROILED -0.2587
-4.6864 BROKE -0.2580
-4.3853 BROKEN -0.2566
-4.6864 BROKEN-TOOTH -0.2587
-4.0843 BROODED -0.6024
-4.6864 BROODING -0.2586
-4.2093 BROTHER -0.2497
-3.2714 BROUGHT -0.6875
-4.3853 BROWN -0.2144
-3.7321 BROWSER -0.7066
-4.3853 BROWSING -0.4532
-4.6864 BRYAN -0.2587
-4.3853 BUBBLES -0.2517
-4.6864 BUCK -0.2584
-4.3853 BUCOLIC -0.4771
-4.2093 BUGGY -0.6520
-4.6864 BUILD -0.2583
-4.2093 BUILDING -0.6081
-3.9874 BUILT -0.3142
-4.3853 BUILT-IN -0.2587
-3.8413 BULKHEADS -0.2982
-4.3853 BURGESS -0.2146
-4.0843 BURIED -0.5075
-4.6864 BURKE -0.2580
-3.9082 BURN -0.7069
-3.8413 BURNED -0.9654
-4.3853 BURNERS -0.4331
-4.0843 BURNING -0.5042
-3.9874 BURNT -0.3132
-3.6864 BURST -0.4968
-4.6864 BURSTING -0.2554
-4.6864 BUSBOYS -0.2586
-3.7321 BUSH -0.7470
-3.4076 BUSINESS -0.4652
-4.2093 BUSTLE -0.6517
-4.6864 BUSY -0.2147
-2.3683 BUT -0.5098
-4.3853 BUTCHER -0.4662
-4.6864 BUTCHERS -0.2478
-4.6864 BUTTER -0.2587
-4.6864 BUTTON -0.2586
-4.3853 BUY -0.4331
-2.4689 BY -0.4937
-4.6864 BYTE -0.2587
-4.2093 C'S -0.6081
-3.5103 CABIN -1.3784
-4.3853 CAKE -0.2585
-4.6864 CAKES -0.2579
-4.6864 CALCULATE -0.2583
-4.3853 CALCULATED -0.4331
-3.9874 CALF -0.3033
-3.9082 CALIFORNIA -0.7730
-3.5103 CALL -0.5083
-3.7833 CALLED -0.3290
-4.3853 CALLING -0.2575
-4.2093 CALLS -0.7330
-4.0843 CALM -0.4932
-3.9874 CALMLY -0.3051
-3.1423 CAME -0.5568
-3.9874 CAMEL -0.2128
-4.6864 CAMERON -0.2585
-3.5402 CAMP -0.4630
-2.7621 CAN -0.3326
-3.3440 CAN'T -0.4410
-4.3853 CANADA -0.4771
-3.9082 CANADIAN -0.7508
-4.6864 CANAL -0.2147
-4.6864 CANALS -0.2472
-4.6864 CANDIDATE -0.2586
-4.3853 CANE-GRASS -0.4770
-4.3853 CANNIBAL -0.4771
-3.9874 CANNOT -0.4780
-3.6864 CANOE -0.3761
-4.6864 CANON -0.2147
-4.2093 CANVAS -0.7358
-4.3853 CANYONS -0.4769
-4.6864 CAPABLE -0.2472
-4.3853 CAPE -0.4771
-3.6864 CAPITAL -0.6409
-4.6864 CAPITALLY -0.2573
-4.6864 CAPS -0.2478
-3.2550 CAPTAIN -0.6841
-4.6864 CAPTURES -0.2348
-3.9082 CAR -0.7966
-4.6864 CARAVAN -0.2586
-3.9082 CARCASS -0.7069
-4.6864 CARDINAL -0.2147
-3.7321 CARE -0.6174
-4.6864 CARED -0.2585
-4.6864 CAREER -0.2472
-4.2093 CAREFUL -0.6791
-4.0843 CAREFULLY -0.5156
-4.6864 CARES -0.2572
-4.6864 CAREY -0.2478
-4.3853 CARGO -0.4767
-4.6864 CARNEGIE -0.2580
-4.6864 CARPENTER'S -0.2587
-4.3853 CARPET -0.2146
-3.9082 CARRIED -0.4643
-4.6864 CARROTS -0.2478
-3.9874 CARRY -0.9508
-4.2093 CARRYING -0.7339
-4.3853 CARTRIDGE -0.4771
-4.2093 CASCADES -0.6521
-3.2093 CASE -0.5428
-3.7321 CASES -0.4610
-4.2093 CASH -0.6501
-4.2093 CASHIER -0.6081
-4.2093 CASTOR -0.6519
-4.0843 CASUALTY -0.6463
-4.6864 CATASTROPHISM -0.2494
-3.9082 CATCH -0.4388
-3.7833 CAUGHT -0.5301
-3.8413 CAUSE -0.3272
-3.7321 CAUSED -1.2113
-4.2093 CAUSES -0.6282
-4.6864 CAUSING -0.2587
-4.0843 CAUTION -0.5101
-4.0843 CAUTIOUSLY -0.6024
-4.6864 CAVES -0.2147
-4.6864 CEASE -0.2576
-4.6864 CEDE -0.2569
-4.6864 CEILING -0.2147
-4.6864 CELEBRATED -0.2587
-4.6864 CELL -0.2587
-4.6864 CENTRAL -0.2587
-4.2093 CENTRE -0.6406
-4.6864 CENTURIES -0.2584
-3.7833 CENTURY -0.5267
-3.5103 CERTAIN -0.4940
-4.0843 CERTAINLY -0.2552
-4.2093 CERTITUDE -0.6406
-4.0843 CHAIN -0.6454
-4.0843 CHAIR -0.5049
-4.2093 CHAIRS -0.2494
-4.6864 CHALDEES -0.2478
-4.6864 CHALLENGE -0.2551
-3.9082 CHALLENGED -0.2339
-4.3853 CHAMBERS -0.2078
-4.3853 CHAMPAGNE -0.4331
-4.0843 CHAMPION -0.6024
-3.7321 CHANCE -0.4763
-4.0843 CHANCES -0.6024
-3.6450 CHANGE -0.3794
-4.0843 CHANGED -0.5449
-4.3853 CHANGES -0.2045
-4.6864 CHAOS -0.2495
-3.8413 CHAOTIC -0.6488
-4.6864 CHAPARRAL -0.2147
-3.9082 CHAPTER -0.7336
-4.6864 CHAPTERS -0.2472
-4.3853 CHARACTERS -0.4657
-4.3853 CHARCOAL -0.4331
-3.9082 CHARGE -0.7163
-4.0843 CHARGED -0.5048
-4.2093 CHARLES -0.2119
-4.6864 CHARLEY -0.2525
-4.6864 CHARMED -0.2478
-4.6864 CHARMING -0.2581
-4.6864 CHARMINGLY -0.2587
-4.6864 CHARRED -0.2587
-4.0843 CHASED -0.6450
-4.6864 CHASTISED -0.2551
-3.6450 CHATTERING -0.8007
-4.3853 CHAUFFEUR -0.4331
-4.2093 CHAUNCEY -0.6521
-4.6864 CHEAP -0.2587
-4.6864 CHEAPEST -0.2579
-4.3853 CHECK -0.2492
-4.0843 CHECKED -0.6464
-4.6864 CHECKING -0.2558
-4.6864 CHECKSUM -0.2583
-4.0843 CHEER -0.6457
-4.6864 CHEERIEST -0.2587
-3.7321 CHEMICAL -0.4848
-4.3853 CHEMISTRY -0.2580
-4.3853 CHEMISTS -0.2348
-4.6864 CHERISHED -0.2551
-3.9082 CHEROKEE -0.7509
-4.2093 CHEWING -0.6495
-4.6864 CHIC -0.2537
-4.6864 CHIDIOCK -0.2587
-4.0843 CHIEF -0.6964
-4.2093 CHIEFLY -0.7358
-4.3853 CHIEFS -0.4662
-3.5724 CHILD -0.2424
-4.6864 CHILD'S -0.2585
-4.6864 CHILDLESS -0.2563
-3.3642 CHILDREN -0.7272
-4.0843 CHILL -0.6461
-4.3853 CHILLY -0.4331
-4.6864 CHIMNEY -0.2525
-4.3853 CHIMPANZEE -0.4733
-4.6864 CHINA -0.2478
-4.6864 CHINE -0.2587
-3.9082 CHINESE -0.3044
-4.2093 CHINESE-ENGLISHMAN -0.6520
-4.2093 CHINOOK -0.6081
-4.6864 CHIPS -0.2582
-4.0843 CHIRP -0.6356
-4.2093 CHIVALRY -0.6506
-3.5402 CHOICE -0.4784
-4.3853 CHOKING -0.4771
-4.3853 CHOOSE -0.2586
-4.6864 CHOPPER -0.2147
-3.9874 CHOSEN -0.3926
-4.3853 CHUCKLED -0.4752
-4.6864 CHURCH -0.2561
-4.0843 CHURCHES -0.5049
-3.7833 CHURCHILL -0.5219
-4.6864 CHURCHYARD -0.2147
-4.3853 CIGARETTE -0.4331
-4.6864 CIGARETTES -0.2147
-4.2093 CIGARS -0.6412
-4.6864 CIRCLE -0.2585
-4.6864 CIRCUITS -0.2147
-4.3853 CIRCULATION -0.2020
-4.3853 CIRCUMFERENCE -0.4331
-4.6864 CIRCUMSTANCE -0.2147
-4.2093 CIRCUMSTANCES -0.6081
-4.2093 CITIES -0.6519
-4.6864 CITRON -0.2147
-3.9874 CITY -0.4236
-4.6864 CIVIL -0.2586
-4.6864 CIVILISED -0.2585
-4.6864 CIVILITIES -0.2472
-4.3853 CIVILIZATION -0.4742
-4.6864 CLAIMS -0.2472
-4.6864 CLAMBERED -0.2579
-3.9874 CLASS -0.4822
-4.6864 CLASSIFICATION -0.2472
-4.6864 CLAUDINE -0.2525
-4.3853 CLAW -0.4767
-3.7321 CLEAN -0.3473
-4.2093 CLEAR -0.2478
-4.6864 CLEARER -0.2587
-4.3853 CLEARING -0.2548
-4.6864 CLEARLY -0.2586
-4.6864 CLEVER -0.2587
-4.0843 CLICK -0.6024
-4.6864 CLIMATE -0.2566
-4.6864 CLIMBED -0.2348
-4.6864 CLIPPA -0.2580
-4.6864 CLOAK -0.2147
-4.0843 CLOSE -0.2348
-3.7833 CLOSED -0.5144
-4.0843 CLOSELY -0.5155
-3.8413 CLOSING -0.6485
-4.0843 CLOTH -0.5133
-4.6864 CLOTHED -0.2554
-3.6864 CLOTHES -0.4136
-4.6864 CLOUD -0.2472
-4.6864 CLOUDLESS -0.2586
-4.6864 CLOUDY -0.2147
-3.5724 CLUB -0.5989
-4.3853 CLUBBED -0.4760
-4.2093 CLUBS -0.6412
-4.2093 CLUCKING -0.6521
-4.0843 CLUSTERED -0.6457
-4.6864 CLUSTERS -0.2585
-4.6864 CLUTCHED -0.2587
-4.3853 CLUTCHING -0.4532
-3.7833 COAL -0.8746
-4.3853 COALS -0.2144
-4.6864 COARSE -0.2586
-3.9874 COARSELY -0.2702
-3.9874 COAST -0.5249
-3.9874 COAT -0.3033
-4.6864 COATS -0.2472
-4.6864 COBB -0.2577
-4.2093 COCKY -0.6518
-4.6864 COCOA -0.2572
-4.3853 COCOANUTS -0.4752
-3.9082 COD -0.7509
-4.0843 CODE -0.4833
-4.2093 COFFEE -0.6412
-4.6864 COFFIN -0.2587
-4.3853 COHEN -0.4331
-4.6864 COILS -0.2587
-4.6864 COIN -0.2147
-4.6864 COINCIDENCE -0.2147
-4.6864 COINCIDES -0.2554
-3.8413 COLD -0.3305
-4.6864 COLLECTION -0.2587
-4.6864 COLONEL -0.2587
-4.6864 COLONY -0.2587
-3.9874 COLOR -0.5363
-4.0843 COLORED -0.5157
-3.9874 COLORS -0.4881
-4.3853 COLOSSAL -0.2586
-4.6864 COLOUR -0.2147
-4.2093 COLOURED -0.7357
-4.0843 COLT -0.6024
-4.6864 COLUMBIA -0.2526
-4.6864 COLUMBINE -0.2587
-3.8413 COM -0.6368
-4.6864 COMB -0.2572
-3.7833 COMBINATION -0.3160
-4.6864 COMBINATIONS -0.2587
-4.6864 COMBINE -0.2348
-4.6864 COMBINING -0.2586
-2.9962 COME -0.3311
-4.0843 COMES -0.5232
-4.6864 COMFORT -0.2472
-4.6864 COMFORTABLE -0.2586
-4.6864 COMFORTABLY -0.2579
-4.6864 COMICAL -0.2573
-3.2884 COMING -0.2847
-3.6072 COMMA -0.4742
-3.8413 COMMAND -0.5324
-4.6864 COMMANDED -0.2147
-4.6864 COMMANDER -0.2525
-4.6864 COMMANDING -0.2586
-3.7321 COMMANDS -0.2768
-4.6864 COMMENCED -0.2147
-4.6864 COMMERCIAL -0.2585
-4.2093 COMMISSIONER -0.6471
-4.6864 COMMISSIONERS -0.2147
-4.2093 COMMITTED -0.7171
-4.6864 COMMITTING -0.2573
-3.4559 COMMON -0.2630
-4.6864 COMMONALTY -0.2587
-4.6864 COMMONEST -0.2584
-4.3853 COMMONLY -0.2562
-4.2093 COMMONWEALTH -0.6520
-4.6864 COMPANIES -0.2577
-4.6864 COMPANION -0.2472
-4.6864 COMPANION'S -0.2583
-4.6864 COMPANIONS -0.2147
-3.6072 COMPANY -0.2450
-4.6864 COMPARATIVE -0.2587
-4.2093 COMPARATIVELY -0.6506
-4.3853 COMPARE -0.2110
-4.6864 COMPARED -0.2554
-4.2093 COMPASS -0.6081
-4.3853 COMPELLED -0.2251
-4.6864 COMPETENT -0.2495
-3.9082 COMPETITION -0.2477
-4.6864 COMPILING -0.2348
-4.3853 COMPLAINED -0.2433
-4.3853 COMPLETE -0.2525
-4.0843 COMPLETED -0.4850
-4.2093 COMPLETELY -0.6520
-4.3853 COMPLEX -0.2587
-4.6864 COMPLEXIONS -0.2563
-4.0843 COMPLICATED -0.5129
-4.6864 COMPONENT -0.2586
-4.6864 COMPOSE -0.2348
-4.6864 COMPOSED -0.2580
-3.9082 COMPOUND -0.7784
-4.6864 COMPOUNDS -0.2472
-4.6864 COMPRISE -0.2348
-4.6864 COMPRISES -0.2348
-4.6864 COMPUTE -0.2348
-4.3853 COMPUTER -0.2586
-3.8413 COMPUTERS -0.3401
-3.7833 COMPUTING -0.9541
-4.6864 CONCEIVED -0.2537
-4.6864 CONCENTRATE -0.2566
-4.6864 CONCERN -0.2568
-3.9874 CONCERNED -0.3112
-4.6864 CONCERNMENT -0.2583
-4.6864 CONCLUSIONS -0.2576
-4.6864 CONCRETE -0.2585
-4.6864 CONDENSED -0.2587
-3.9874 CONDITION -0.4215
-4.6864 CONDITIONS -0.2472
-4.6864 CONDUCIVE -0.2495
-4.2093 CONDUCT -0.6918
-4.6864 CONDUCTED -0.2554
-4.3853 CONE -0.2575
-4.2093 CONES -0.2528
-4.2093 CONFERRING -0.6518
-4.6864 CONFESS -0.2549
-4.2093 CONFESSED -0.6483
-4.6864 CONFESSIONS -0.2549
-3.8413 CONFIDENCE -0.9622
-4.3853 CONFIGURATION -0.2477
-4.2093 CONFIRMED -0.6282
-4.6864 CONFLICT -0.2472
-4.6864 CONFLUX -0.2472
-4.3853 CONJUNCTION -0.2421
-4.3853 CONNECTED -0.2126
-4.6864 CONNEXION -0.2525
-4.3853 CONQUER -0.4761
-4.0843 CONSCIOUSNESS -0.4982
-4.3853 CONSEQUENCE -0.4657
-4.3853 CONSEQUENCES -0.2548
-3.9874 CONSEQUENT -0.3142
-4.6864 CONSERVATION -0.2472
-4.6864 CONSERVING -0.2495
-4.6864 CONSIDERABLE -0.2587
-3.9874 CONSIDERABLY -0.5298
-4.3853 CONSIDERATIONS -0.2576
-3.7833 CONSIDERED -0.7463
-4.2093 CONSIDERING -0.6282
-4.6864 CONSISTED -0.2472
-4.6864 CONSISTING -0.2472
-4.6864 CONSISTS -0.2472
-4.6864 CONSOLATION -0.2495
-4.6864 CONSPICUOUS -0.2147
-4.6864 CONSTANCY -0.2147
-4.2093 CONSTANT -0.6918
-4.6864 CONSTITUENTS -0.2472
-4.3853 CONSTITUTE -0.4756
-4.6864 CONSTITUTED -0.2586
-4.2093 CONSTITUTION -0.6406
-4.6864 CONSTITUTIONALLY -0.2494
-4.6864 CONSTRUCT -0.2348
-4.6864 CONSTRUCTED -0.2581
-4.6864 CONSTRUCTION -0.2472
-4.6864 CONSULT -0.2494
-4.3853 CONSUMED -0.4709
-3.9874 CONTACT -0.4026
-4.3853 CONTAIN -0.2494
-4.6864 CONTAINING -0.2586
-4.6864 CONTAINMENT -0.2147
-4.2093 CONTAINS -0.2568
-4.6864 CONTEMPLATED -0.2572
-4.3853 CONTEMPORARIES -0.2571
-4.3853 CONTENDED -0.4733
-4.6864 CONTENDING -0.2587
-4.6864 CONTENT -0.2577
-4.6864 CONTEXT -0.2587
-4.6864 CONTEXTS -0.2147
-4.6864 CONTIGUOUS -0.2587
-4.0843 CONTINUALLY -0.6464
-3.6072 CONTINUE -0.4395
-3.6072 CONTINUED -0.6662
-4.3853 CONTINUOUS -0.2586
-4.3853 CONTRACTED -0.2130
-4.6864 CONTRADICTORY -0.2147
-4.6864 CONTRADISTINCTION -0.2495
-4.6864 CONTRARY -0.2495
-4.6864 CONTRASTING -0.2554
-4.6864 CONTRIVANCES -0.2147
-3.8413 CONTROL -0.3875
-4.6864 CONTROVERTED -0.2585
-4.6864 CONVENTIONAL -0.2586
-4.6864 CONVENTIONS -0.2147
-3.9874 CONVERSATION -0.8298
-3.9874 CONVINCED -0.5297
-4.3853 CONVINCING -0.4770
-4.3853 COOK -0.4710
-4.2093 COOKING -0.7337
-4.6864 COOL -0.2586
-4.2093 COOLER -0.6521
-4.6864 COOLING -0.2472
-4.6864 COOPERATING -0.2147
-4.2093 COOPERATIVE -0.6521
-4.6864 COPESTONE -0.2537
-4.2093 COPPER-GREEN -0.6081
-4.3853 COPY -0.2020
-4.0843 COPYRIGHT -0.5590
-4.2093 CORDS -0.6406
-4.6864 CORN -0.2587
-3.9082 CORNER -0.2477
-4.6864 CORONA -0.2147
-3.9082 CORPORAL -0.3818
-4.6864 CORPULENT -0.2549
-4.0843 CORRECT -0.2575
-4.0843 CORRECTED -0.6024
-4.6864 CORRELATION -0.2472
-4.6864 CORRESPONDENCE -0.2584
-4.3853 CORRY -0.4771
-4.6864 COST -0.2147
-4.2093 COSTUME -0.6915
-4.6864 COSTUMES -0.2147
-4.6864 COTTAGES -0.2585
-4.6864 COTTON -0.2586
-4.0843 COTTONWOODS -0.6024
-4.6864 COUCH -0.2147
-2.8802 COULD -0.6473
-4.6864 COUNCIL -0.2562
-3.9874 COUNT -0.4855
-3.9874 COUNTING -0.8500
-3.9874 COUNTRIES -0.4061
-3.5402 COUNTRY -1.0525
-4.3853 COUNTRYMEN -0.2587
-3.8413 COUPLE -0.5800
-4.6864 COURAGE -0.2579
-4.6864 COURIER -0.2472
-3.4311 COURSE -0.5415
-4.3853 COURT -0.2525
-4.6864 COUSIN -0.2587
-4.6864 COUSINS -0.2147
-4.6864 COVERAGE -0.2147
-4.3853 COVERED -0.4738
-4.6864 COVERS -0.2587
-3.9874 COW -0.3049
-4.6864 CPU -0.2587
-4.0843 CRACK -0.6464
-4.6864 CRACKED -0.2147
-3.9874 CRASH -0.4063
-4.6864 CRASHED -0.2582
-3.9874 CRATER -0.3028
-4.6864 CRAVENTY -0.2147
-4.3853 CRAVENTY'S -0.2585
-4.6864 CRAWL -0.2585
-3.9082 CRAWLED -0.8214
-4.6864 CRAZY -0.2147
-4.6864 CREAK -0.2495
-4.6864 CREAMY -0.2554
-4.3853 CREATE -0.2043
-4.2093 CREATED -0.6889
-4.6864 CREATION -0.2580
-4.2093 CREATIVE -0.6519
-4.6864 CREDIT -0.2495
-4.6864 CREDITABLE -0.2495
-4.6864 CREDITOR -0.2537
-4.6864 CREEPING -0.2582
-4.6864 CREPE -0.2587
-4.6864 CREPT -0.2576
-4.6864 CRESCENT -0.2472
-4.6864 CRESS -0.2587
-4.2093 CREST -0.7249
-4.3853 CREW -0.4331
-4.6864 CRIB -0.2348
-4.0843 CRICKETS -0.6462
-3.4823 CRIED -0.5428
-4.6864 CRIES -0.2567
-4.6864 CRITERIA -0.2583
-4.6864 CRITICISM -0.2537
-4.6864 CRITICIZED -0.2537
-4.6864 CROCODILE -0.2586
-4.6864 CROFTS -0.2495
-4.2093 CROOKED-LEG -0.7281
-4.0843 CROPS -0.6024
-4.0843 CROSS -0.5343
-4.6864 CROSSING -0.2348
-3.9082 CROUCHED -0.7400
-4.6864 CROWDS -0.2472
-4.6864 CRUELLY -0.2587
-4.6864 CRUISING -0.2586
-4.6864 CRUMBS -0.2556
-4.6864 CRUSH -0.2586
-4.3853 CRUSHED -0.4762
-4.6864 CRUSHING -0.2549
-4.6864 CRUST -0.2472
-3.6864 CRY -0.6515
-4.6864 CRYPTIC -0.2586
-4.6864 CRYSTAL -0.2587
-4.6864 CRYSTALLINE -0.2586
-4.3853 CULTURE -0.4532
-4.2093 CUNNING -0.6519
-4.6864 CUNNINGLY -0.2587
-3.7833 CURE -0.3700
-4.2093 CURIOUS -0.2572
-4.3853 CURIOUSLY -0.4331
-3.6072 CURLY -0.7507
-4.6864 CURRENT -0.2586
-4.2093 CURRENTS -0.6081
-4.2093 CURRY -0.6501
-4.3853 CURSE -0.4532
-3.9874 CURSED -0.3136
-4.6864 CURTAINS -0.2478
-4.6864 CURTIOSITY -0.2147
-4.6864 CURVES -0.2587
-4.6864 CUSTOM -0.2147
-4.0843 CUT -0.5062
-4.6864 CUTTERS -0.2587
-4.2093 CUTTING -0.2537
-4.6864 CYNTHIA -0.2587
-4.6864 DABCHICKS -0.2587
-4.3853 DADDY -0.4331
-3.9874 DAILY -0.9448
-4.6864 DANE -0.2478
-4.6864 DANFORTH -0.2587
-4.3853 DANGER -0.2472
-4.6864 DANTE -0.2584
-4.6864 DARE -0.2575
-4.6864 DARED -0.2538
-4.6864 DARING -0.2147
-3.9874 DARK -0.4244
-4.6864 DARKER -0.2147
-4.6864 DARKLY -0.2587
-4.6864 DARKNESS -0.2587
-4.2093 DARNED -0.6081
-3.9874 DARTED -0.3080
-4.6864 DASHBOARD -0.2587
-4.2093 DASHED -0.6500
-4.2093 DATA -0.2084
-4.3853 DATABASE -0.4331
-3.9874 DATE -0.5302
-4.0843 DAUGHTER -0.5042
-4.2093 DAUGHTRY -0.6521
-4.3853 DAUGHTRY'S -0.4769
-4.0843 DAVE -0.6464
-4.0843 DAVID -0.5144
-4.6864 DAWN -0.2472
-2.9788 DAY -0.4671
-3.5724 DAYLIGHT -0.4066
-3.9874 DAYLIGHT'S -0.3141
-3.4311 DAYS -0.3027
-4.6864 DAYTIME -0.2586
-4.3853 DE -0.2587
-3.7321 DEAD -0.6609
-4.2093 DEAF -0.6081
-3.9082 DEAL -0.6540
-4.6864 DEALING -0.2554
-4.2093 DEAR -0.7356
-4.2093 DEAREST -0.6412
-3.4559 DEATH -0.6877
-4.6864 DEBT -0.2537
-4.6864 DEBTER -0.2558
-4.6864 DEBTS -0.2587
-3.9874 DEBUTANTE -0.2702
-4.6864 DECADES -0.2568
-4.6864 DECAYING -0.2586
-4.3853 DECEITFUL -0.4771
-4.6864 DECENT -0.2587
-4.0843 DECISION -0.5102
-4.6864 DECK -0.2147
-3.7833 DECLINE -0.2741
-4.6864 DECORATE -0.2537
-4.6864 DECORATED -0.2578
-4.3853 DECREASE -0.2227
-4.6864 DECREASES -0.2147
-4.6864 DECREASING -0.2147
-4.6864 DEDUCTED -0.2576
-4.3853 DEED -0.4331
-4.0843 DEEP -0.5486
-4.6864 DEEPENED -0.2147
-4.2093 DEEPER -0.7289
-4.3853 DEEPLY -0.2522
-4.3853 DEER -0.2586
-4.6864 DEFACED -0.2554
-4.6864 DEFEAT -0.2587
-4.0843 DEFECT -0.6457
-4.6864 DEFECTIVE -0.2587
-4.3853 DEFEND -0.2542
-4.6864 DEFENDED -0.2572
-4.6864 DEFINED -0.2568
-4.6864 DEFINITE -0.2587
-4.6864 DEFINITELY -0.2348
-4.6864 DEFINITIONS -0.2563
-3.9874 DEGREE -0.4335
-4.2093 DEGREES -0.7354
-4.6864 DEL -0.2587
-4.6864 DELAY -0.2147
-4.3853 DELIBAB -0.4331
-4.3853 DELIBERATELY -0.4771
-4.6864 DELIBERATIONS -0.2478
-3.9082 DELICATE -0.4651
-4.3853 DELIGHTED -0.4738
-4.6864 DELIGHTFUL -0.2587
-4.6864 DELIVERED -0.2568
-4.6864 DELLS -0.2478
-4.2093 DELUGED -0.6510
-4.6864 DEMANDING -0.2494
-4.6864 DEMOCRITIC -0.2587
-4.6864 DEMONSTRATES -0.2495
-4.0843 DENIAL -0.6350
-4.3853 DENNIN'S -0.4769
-4.6864 DEODAR -0.2587
-4.6864 DEPEND -0.2566
-4.6864 DEPENDENCIES -0.2579
-4.6864 DEPENDENT -0.2586
-3.9874 DEPENDS -0.5360
-4.2093 DEPEW -0.6512
-4.6864 DEPOPULATION -0.2472
-4.6864 DEPORTATION -0.2147
-4.6864 DEPOSITED -0.2525
-4.3853 DEPOT -0.4331
-4.6864 DEPRECATED -0.2348
-4.6864 DEPRECIATE -0.2348
-4.6864 DEPRIVED -0.2472
-4.3853 DEPTH -0.2020
-4.2093 DERIVATIVE -0.7356
-4.2093 DERIVED -0.2079
-4.3853 DESCARTES -0.2525
-4.6864 DESCENDED -0.2348
-4.6864 DESCRIBE -0.2577
-4.0843 DESCRIBED -0.5096
-4.6864 DESCRIPTION -0.2472
-4.2093 DESERT -0.6521
-4.3853 DESERTED -0.4771
-4.6864 DESERVE -0.2537
-4.6864 DESERVED -0.2147
-4.3853 DESIGN -0.2020
-4.6864 DESIGNER -0.2147
-4.6864 DESIGNS -0.2147
-3.9082 DESIRE -0.4500
-4.6864 DESK -0.2572
-4.6864 DESPERATE -0.2587
-4.6864 DESSERT -0.2568
-4.6864 DESTINED -0.2558
-3.7321 DESTROY -0.4292
-4.0843 DESTROYED -0.2552
-4.6864 DESTROYER -0.2472
-3.9874 DESTROYING -0.4430
-4.0843 DETAIL -0.5097
-4.6864 DETAILED -0.2587
-4.3853 DETAILS -0.2146
-4.6864 DETAINED -0.2147
-4.3853 DETERMINE -0.4532
-4.0843 DETERMINED -0.5479
-4.6864 DETERRENT -0.2558
-4.3853 DEVELOP -0.2524
-4.3853 DEVELOPED -0.4678
-4.2093 DEVELOPMENT -0.6791
-3.9874 DEVELOPMENTS -0.2702
-4.6864 DEVIATED -0.2573
-4.2093 DEVICE -0.6914
-3.5103 DEVICES -0.8516
-3.9082 DEVIL -0.6079
-4.3853 DEVISED -0.4757
-4.2093 DEVOTED -0.2471
-4.0843 DEVOTION -0.6373
-4.6864 DEVOURED -0.2572
-4.6864 DEW -0.2587
-4.2093 DIAGNOSIS -0.6081
-4.6864 DIAGRAMS -0.2478
-4.2093 DIAL -0.7344
-4.0843 DIALING -0.6024
-3.6864 DIAMETER -0.3220
-4.3853 DICK -0.2457
-3.9874 DICTIONARY -0.4923
-2.7887 DID -0.8608
-3.4823 DIDN'T -0.4126
-3.4076 DIE -0.6450
-3.6450 DIED -0.4218
-4.6864 DIET -0.2147
-3.7833 DIFFERENCE -0.5497
-3.4823 DIFFERENT -0.2811
-4.6864 DIFFERENTIAL -0.2587
-4.6864 DIFFERENTLY -0.2537
-4.3853 DIFFICULT -0.2146
-4.6864 DIFFICULTIES -0.2147
-4.2093 DIFFICULTY -0.6917
-4.6864 DIFFUSION -0.2586
-3.6072 DIG -1.3309
-4.2093 DIGITAL -0.6521
-4.6864 DIGNIFIED -0.2587
-4.6864 DIM -0.2586
-4.3853 DIMENSIONS -0.2020
-4.3853 DINE -0.2125
-4.3853 DINING -0.4752
-3.6864 DINNER -0.6269
-3.9082 DIRECT -0.4311
-4.6864 DIRECTED -0.2551
-3.9874 DIRECTION -0.4797
-4.6864 DIRECTLY -0.2587
-4.2093 DIRECTORY -0.6917
-4.3853 DIRK -0.4771
-4.6864 DIRT -0.2147
-4.6864 DISADVANTAGEOUS -0.2495
-4.6864 DISAGREEABLE -0.2495
-4.6864 DISAPPOINT -0.2544
-4.0843 DISAPPOINTMENT -0.6403
-4.3853 DISCONCERTING -0.4771
-4.6864 DISCONTINUITY -0.2584
-4.2093 DISCOURAGED -0.6521
-4.6864 DISCOVER -0.2348
-4.6864 DISCOVERED -0.2525
-3.8413 DISCOVERY -0.6645
-4.6864 DISCRETION -0.2478
-4.6864 DISCUSSION -0.2472
-3.9082 DISEASE -0.4602
-4.6864 DISGUISES -0.2147
-4.3853 DISGUST -0.4331
-3.9082 DISGUSTED -0.6485
-4.6864 DISHEVELED -0.2586
-4.3853 DISINCLINED -0.4680
-4.6864 DISINTEGRATING -0.2587
-4.6864 DISK -0.2587
-4.6864 DISLOCATED -0.2147
-4.6864 DISMAL -0.2568
-4.6864 DISMAY -0.2549
-4.3853 DISPLAY -0.2347
-4.6864 DISPOSAL -0.2587
-4.6864 DISPOSED -0.2472
-4.6864 DISPOSITION -0.2587
-4.3853 DISPUTE -0.4771
-4.6864 DISPUTED -0.2348
-4.6864 DISSOCIATED -0.2147
-4.6864 DISSOCIATIVE -0.2586
-4.6864 DISSOLUTION -0.2580
-4.2093 DISTANCE -0.2450
-4.3853 DISTANT -0.2585
-4.6864 DISTINCTION -0.2584
-4.6864 DISTINGUISHES -0.2569
-4.3853 DISTRESS -0.2100
-4.6864 DISTRESSED -0.2572
-4.2093 DISTRIBUTION -0.2022
-4.2093 DISTRICT -0.6998
-4.2093 DISTRICTS -0.2091
-4.3853 DISTURB -0.4532
-4.6864 DITCHES -0.2478
-4.3853 DIVERGENCE -0.4657
-4.6864 DIVERSION -0.2147
-4.6864 DIVERSITY -0.2472
-4.3853 DIVIDED -0.2477
-4.3853 DIVINE -0.4771
-3.9082 DIVISION -0.7395
-4.6864 DJINN -0.2587
-2.6145 DO -0.8291
-4.6864 DOANE'S -0.2587
-3.8413 DOCTOR -0.5872
-4.3853 DOCTRINE -0.2468
-3.9082 DOCUMENT -0.6423
-3.9874 DOCUMENTS -0.4855
-4.6864 DOE -0.2537
-3.2884 DOES -0.5097
-3.6072 DOESN'T -0.4091
-3.4823 DOG -0.4610
-4.2093 DOGGONE -0.6478
-3.9874 DOGS -0.4682
-3.5103 DOING -0.4324
-4.6864 DOLITTLE -0.2587
-3.9874 DOLLAR -0.8723
-3.9082 DOLLARS -0.7682
-4.3853 DOLLS -0.2470
-3.8413 DOMAIN -0.5800
-3.9874 DOMESTIC -0.3140
-4.6864 DOMESTICATION -0.2525
-4.6864 DOMINGO -0.2147
-2.8802 DON'T -0.6981
-3.7321 DONE -0.2734
-4.2093 DONKEY -0.6517
-3.6072 DOOR -0.3875
-4.6864 DOSES -0.2472
-3.6450 DOT -0.3975
-4.6864 DOTTED -0.2478
-4.0843 DOUBLE -0.5054
-4.6864 DOUBLING -0.2478
-4.2093 DOUBLY -0.6521
-3.7321 DOUBT -0.4649
-4.2093 DOUBTLESS -0.2557
-4.6864 DOUGLAS -0.2587
-4.6864 DOWDY -0.2147
-2.9229 DOWN -0.6043
-4.0843 DOZEN -0.5154
-4.6864 DRAINING -0.2348
-4.6864 DRAKE -0.2576
-3.9874 DRANK -0.5186
-4.6864 DRAPED -0.2554
-4.6864 DRAPIEZ -0.2587
-4.2093 DRAW -0.7112
-4.0843 DRAWBACK -0.6373
-4.3853 DRAWBACKS -0.4331
-4.3853 DRAWLED -0.4331
-4.6864 DRAWN -0.2578
-4.6864 DREADFULLY -0.2587
-4.6864 DREAM -0.2147
-3.8413 DREAMS -0.6745
-4.6864 DREGS -0.2472
-3.9082 DRESS -0.3584
-3.9874 DRESSED -0.4001
-4.3853 DRESSES -0.4747
-4.6864 DRESSING -0.2587
-4.3853 DREW -0.4678
-4.6864 DRIER -0.2587
-4.6864 DRIFTS -0.2572
-4.3853 DRINKING -0.2483
-4.6864 DRINKS -0.2348
-4.3853 DRIPPING -0.4738
-4.3853 DRIVE -0.2532
-4.2093 DRIVER -0.6521
-4.6864 DRIVING -0.2582
-4.3853 DROOP -0.2432
-4.6864 DROP -0.2576
-3.5724 DROPPED -1.1248
-3.7833 DROPS -0.5318
-3.9082 DROUGHT -0.4747
-4.6864 DROWNED -0.2568
-4.6864 DROWNING -0.2147
-4.6864 DRUMMING -0.2494
-3.9874 DRY -0.5363
-4.3853 DUALITY -0.4331
-4.3853 DUCHESS -0.2472
-4.6864 DUCK -0.2580
-3.9874 DUCKS -0.5249
-4.6864 DUCT -0.2587
-4.6864 DUEL -0.2580
-4.6864 DUKE -0.2586
-4.3853 DULL -0.2537
-4.6864 DULLED -0.2577
-4.6864 DUMP -0.2575
-4.6864 DUMPED -0.2582
-4.6864 DUNGEON -0.2147
-4.6864 DUNHAM -0.2579
-4.3853 DUPLICITY -0.4331
-4.6864 DURATION -0.2472
-3.6864 DURING -0.4563
-4.3853 DUST -0.2126
-4.2093 DUTY -0.6797
-4.6864 DWELL -0.2583
-4.2093 DWELLER -0.6081
-4.3853 DWELLS -0.2078
-4.6864 DWINDLING -0.2586
-4.6864 DYING -0.2147
-3.1950 EACH -0.6009
-4.6864 EARLIEST -0.2587
-3.7833 EARLY -0.5956
-3.7321 EARNED -0.3970
-4.6864 EARNEST -0.2495
-3.9874 EARNINGS -0.3141
-4.2093 EARS -0.2414
-3.2392 EARTH -0.6045
-4.6864 EARTHLY -0.2587
-4.6864 EARTHS -0.2147
-4.6864 EARTHY -0.2587
-4.6864 EASE -0.2564
-3.6072 EASILY -0.3317
-4.0843 EASTERN -0.6464
-4.0843 EASY -0.5156
-3.9874 EAT -0.4150
-4.2093 EATEN -0.6863
-4.6864 EATERS -0.2147
-3.7833 EATING -0.4225
-4.6864 ECCENTRIC -0.2587
-4.6864 ECLIPSE -0.2581
-4.6864 EDEN -0.2147
-3.8413 EDGE -0.6251
-4.0843 EDGED -0.6431
-4.2093 EDGES -0.6406
-4.2093 EDINBURGH -0.6519
-4.6864 EDITION -0.2472
-4.6864 EDITOR -0.2472
-4.2093 EDITORIAL -0.6521
-3.9082 EFFECT -0.6343
-4.6864 EFFECTED -0.2147
-4.3853 EFFECTIVE -0.4770
-4.6864 EFFECTS -0.2472
-4.3853 EFFICIENTLY -0.4771
-3.9874 EFFORT -0.3051
-4.3853 EFFORTS -0.4752
-4.6864 EGG -0.2147
-4.6864 EGGS -0.2587
-4.2093 EGGSHELL -0.6863
-4.3853 EGO -0.4331
-3.4823 EIGHT -0.8574
-3.2714 EIGHTEEN -0.6038
-3.6864 EIGHTEENTH -0.5971
-4.0843 EIGHTY -0.5153
-3.9082 EILEEN -0.6288
-4.3853 EILEEN'S -0.4771
-3.7321 EITHER -0.4110
-4.6864 ELABORATE -0.2582
-4.2093 ELABORATED -0.6500
-4.2093 ELAM -0.6521
-4.0843 ELAPSED -0.6462
-4.3853 ELBOW -0.2587
-4.6864 ELDEST -0.2586
-3.9874 ELDORADO -0.3142
-4.6864 ELEANOR -0.2587
-4.3853 ELECTRIC -0.2587
-4.6864 ELECTRICAL -0.2554
-4.3853 ELECTRICITY -0.4768
-4.6864 ELEGANT -0.2147
-4.6864 ELEMENT -0.2525
-4.3853 ELEMENTARY -0.2145
-3.7321 ELEMENTS -0.2249
-3.9082 ELEPHANT'S -0.7508
-4.6864 ELEVATION -0.2566
-4.3853 ELEVEN -0.2146
-4.2093 ELI -0.6520
-3.9082 ELIJAH -0.7069
-3.9082 ELLIOT -0.4298
-3.9874 ELM -0.3141
-4.3853 ELONGATED -0.4771
-3.6864 ELSE -0.6380
-4.6864 ELSEWHERE -0.2572
-4.6864 ELUSIVE -0.2587
-4.6864 EMANCIPATED -0.2586
-4.6864 EMBODIED -0.2525
-4.6864 EMBROIDERED -0.2478
-4.6864 EMINENT -0.2587
-4.6864 EMITTED -0.2494
-3.8413 EMMA -0.4603
-4.3853 EMOTION -0.4761
-4.3853 EMPIRE -0.4331
-4.6864 EMPIRICAL -0.2586
-4.3853 EMPIRICIST -0.4331
-4.6864 EMPLOY -0.2561
-4.3853 EMPLOYED -0.2078
-3.8413 EMPLOYERS -0.2982
-3.9874 EMPLOYMENT -0.4797
-3.9874 EMPTIED -0.3135
-4.6864 EMPTY -0.2587
-4.6864 ENABLED -0.2568
-4.6864 ENACTED -0.2495
-4.6864 ENCHANTING -0.2586
-4.6864 ENCODES -0.2494
-3.9874 ENCOURAGE -0.3136
-4.6864 ENCOURAGED -0.2572
-4.3853 ENCRYPTED -0.4331
-4.6864 ENCUMBERED -0.2585
-3.2550 END -0.9331
-3.9082 ENDOWMENT -0.7069
-4.6864 ENDOWMENTS -0.2147
-4.6864 ENDS -0.2587
-3.5402 ENDURE -0.9601
-3.8413 ENDURED -0.6033
-4.6864 ENDURING -0.2147
-4.6864 ENEMIES -0.2147
-4.2093 ENERGY -0.2019
-4.6864 ENGAGE -0.2581
-3.9874 ENGAGED -0.9076
-4.0843 ENGAGEMENTS -0.6024
-4.6864 ENGENDERED -0.2572
-3.9082 ENGINEER -0.2536
-4.6864 ENGLAND'S -0.2587
-3.8413 ENGLISH -0.3936
-4.6864 ENGROSSED -0.2525
-3.7321 ENJOY -0.4979
-4.3853 ENJOYED -0.2558
-4.3853 ENLARGEMENT -0.4657
-3.5724 ENOUGH -0.3148
-4.6864 ENQUIRE -0.2584
-4.6864 ENRAGED -0.2568
-4.6864 ENRICHES -0.2348
-3.7321 ENTERED -0.7172
-4.3853 ENTERING -0.2341
-4.6864 ENTERPRISE -0.2587
-4.6864 ENTERPRISES -0.2147
-4.0843 ENTERS -0.6454
-4.6864 ENTERTAINED -0.2478
-4.6864 ENTHUSIASM -0.2525
-4.2093 ENTHUSIAST -0.6412
-4.6864 ENTHUSIASTIC -0.2587
-4.6864 ENTIRELY -0.2587
-4.6864 ENTRIES -0.2577
-4.6864 ENVIED -0.2348
-4.6864 ENVIRONMENT -0.2558
-4.6864 EPICS -0.2569
-4.6864 EPICYCLES -0.2525
-4.2093 EPOCH -0.6881
-4.2093 EQUAL -0.2444
-3.9874 EQUALLY -0.5363
-4.0843 EQUATION -0.4684
-4.3853 EQUATIONS -0.4331
-3.5402 ERNEST -0.9752
-4.6864 ERNEST'S -0.2586
-4.6864 ERRAND -0.2147
-4.2093 ERRATIC -0.6081
-4.6864 ERRORS -0.2147
-3.8413 ESCAPE -0.6048
-4.3853 ESCAPED -0.2344
-4.6864 ESCORT -0.2472
-3.8413 ESPECIALLY -0.4008
-4.3853 ESQUIMAUX -0.2478
-4.6864 ESSENTIAL -0.2478
-4.6864 ESSENTIALLY -0.2348
-4.3853 ESTABLISHED -0.4756
-4.2093 ESTABLISHMENT -0.6081
-4.6864 ESTATE -0.2147
-4.6864 ESTEEMED -0.2585
-4.6864 ESTIMATION -0.2472
-4.3853 ETC -0.4331
-4.6864 ETERNAL -0.2587
-4.6864 ETERNITY -0.2587
-3.9082 ETHEL -0.7509
-3.9874 ETHER -0.4869
-4.6864 ETHICAL -0.2478
-4.0843 ETHIOPIAN -0.5147
-4.2093 EURASIAN -0.6521
-4.0843 EUROPE -0.5032
-4.6864 EUROPEAN -0.2587
-3.1679 EVEN -0.4202
-3.5103 EVENING -0.5078
-4.3853 EVENTS -0.2078
-4.6864 EVENTUALITY -0.2495
-3.1549 EVER -0.4525
-4.6864 EVERLASTING -0.2587
-3.1423 EVERY -0.5415
-4.6864 EVERYDAY -0.2587
-3.6072 EVERYTHING -0.3770
-3.9082 EVERYWHERE -0.7764
-4.3853 EVIDENCES -0.4657
-4.6864 EVIDENT -0.2582
-4.0843 EVIL -0.2510
-4.0843 EVOLUTION -0.4591
-4.2093 EXACT -0.2585
-4.3853 EXACTLY -0.2479
-4.6864 EXCEEDING -0.2586
-4.2093 EXCEPT -0.6428
-4.2093 EXCEPTION -0.6081
-4.6864 EXCEPTIONS -0.2147
-4.6864 EXCESS -0.2537
-4.6864 EXCHANGE -0.2586
-3.8413 EXCHANGED -0.3415
-4.3853 EXCHANGES -0.4752
-4.6864 EXCITE -0.2576
-3.8413 EXCITED -0.9951
-3.9874 EXCITING -0.4461
-3.7321 EXCLAIMED -0.9560
-4.0843 EXCLAMATIONS -0.6464
-4.6864 EXCLUSIVE -0.2587
-4.0843 EXCREMENTS -0.1972
-4.0843 EXCUSE -0.5087
-4.6864 EXERTION -0.2525
-4.3853 EXHAUSTED -0.4532
-4.6864 EXHIBIT -0.2573
-4.6864 EXILE -0.2478
-3.6864 EXISTENCE -0.3707
-4.3853 EXISTS -0.4331
-4.6864 EXPECT -0.2495
-4.2093 EXPECTANCY -0.6081
-4.3853 EXPECTED -0.2134
-4.6864 EXPECTING -0.2568
-4.3853 EXPEDITION -0.2524
-4.6864 EXPENDITURE -0.2558
-3.9874 EXPENSIVE -0.4803
-3.8413 EXPERIENCE -0.2498
-4.6864 EXPERIMENT -0.2563
-4.3853 EXPERIMENTAL -0.2586
-3.5724 EXPLAIN -0.9969
-3.9082 EXPLAINED -0.6213
-3.8413 EXPLANATION -0.6241
-4.6864 EXPLORATION -0.2472
-4.6864 EXPLORE -0.2348
-4.6864 EXPLORERS -0.2566
-4.2093 EXPLOSION -0.7242
-4.6864 EXPOSE -0.2544
-4.6864 EXPRESS -0.2573
-4.3853 EXPRESSIONS -0.2026
-4.6864 EXQUISITE -0.2147
-4.6864 EXTENDED -0.2587
-4.6864 EXTENSION -0.2586
-4.2093 EXTENT -0.2453
-4.3853 EXTERNAL -0.2585
-4.6864 EXTINCT -0.2586
-4.6864 EXTINGUISH -0.2586
-4.6864 EXTRACT -0.2348
-4.6864 EXTRAORDINARY -0.2587
-4.6864 EXTRAVAGANCE -0.2147
-4.0843 EXTREME -0.5156
-4.6864 EXTREMELY -0.2585
-4.6864 EXTREMEST -0.2586
-4.6864 EXUBERANT -0.2587
-4.3853 EXUVIAE -0.2472
-3.7833 EYE -0.4567
-4.6864 EYED -0.2568
-3.1182 EYES -0.5380
-4.6864 FABRIC -0.2583
-3.0332 FACE -0.7404
-3.9082 FACED -0.6499
-4.2093 FACES -0.6412
-4.3853 FACING -0.4752
-3.7321 FACT -0.2802
-4.6864 FACTIONS -0.2525
-4.3853 FACTOR -0.4331
-4.3853 FACTOR'S -0.4771
-4.6864 FACTORY -0.2147
-4.0843 FACTS -0.4718
-3.8413 FAILED -0.4493
-4.3853 FAILURE -0.2453
-4.0843 FAINTLY -0.6464
-3.9082 FAIR -0.2603
-4.2093 FAIRLY -0.7358
-4.2093 FAITH -0.2041
-4.6864 FAITHFULLY -0.2147
-4.0843 FALL -0.6463
-3.9874 FALLEN -0.4784
-4.3853 FALLING -0.2141
-4.0843 FALLS -0.6461
-4.6864 FALSE -0.2587
-4.2093 FALTER -0.6492
-4.6864 FALTERED -0.2348
-4.3853 FAMILIES -0.2554
-4.0843 FAMILY -0.2134
-4.3853 FAMINE -0.4747
-4.6864 FANG -0.2147
-4.6864 FANGS -0.2472
-3.1549 FAR -0.6629
-4.2093 FARMER -0.6520
-4.0843 FARMING -0.6403
-3.9874 FARTHER -0.5250
-4.6864 FARTHEST -0.2147
-4.6864 FASCINATE -0.2568
-4.6864 FASCINATING -0.2587
-4.0843 FASHION -0.2313
-4.6864 FASHIONABLE -0.2585
-4.6864 FASHIONED -0.2586
-4.2093 FAST -0.6502
-4.0843 FASTIDIOUS -0.6459
-3.9874 FAT -0.4897
-4.2093 FATE -0.7265
-3.4823 FATHER -0.3391
-3.7833 FATHER'S -0.5149
-4.3853 FATHOM -0.4753
-4.2093 FAULT -0.6881
-4.6864 FAVOR -0.2147
-4.3853 FAVORITE -0.2586
-4.6864 FAVORS -0.2572
-4.6864 FAVOUR -0.2472
-3.9874 FEAR -0.4803
-4.6864 FEARED -0.2549
-4.6864 FEARFUL -0.2586
-3.9874 FEARING -0.3104
-3.9874 FEATHERED -0.3142
-4.2093 FEATHERS -0.2546
-4.6864 FEATHERY -0.2587
-4.6864 FEATURE -0.2580
-4.3853 FEATURES -0.4331
-4.2093 FEEBLY -0.6081
-4.6864 FEED -0.2147
-3.6072 FEEL -0.5149
-4.3853 FEELING -0.2146
-3.9874 FEELINGS -0.4042
-3.9874 FEELS -0.3133
-3.2550 FEET -0.4404
-3.8413 FELL -0.3243
-3.6864 FELLOW -0.6632
-4.6864 FELLOWS -0.2525
-3.6072 FELT -0.5382
-4.6864 FEMALE -0.2472
-3.7833 FENCE -0.9201
-4.3853 FERGUSON -0.4331
-4.6864 FERNS -0.2478
-4.6864 FERNY -0.2587
-4.6864 FERRY -0.2587
-4.3853 FERTILITY -0.2457
-4.6864 FETCH -0.2348
-4.6864 FETCHED -0.2582
-3.2392 FEW -0.4076
-4.6864 FIDGIT -0.2586
-4.6864 FIDGIT'S -0.2586
-4.0843 FIELD -0.1972
-4.3853 FIELDS -0.2020
-3.9874 FIFTEEN -0.8738
-3.5724 FIFTH -0.5274
-3.6450 FIFTY -0.5354
-3.5724 FIGHT -1.2184
-4.0843 FIGHTER -0.6403
-3.7833 FIGHTING -0.9336
-3.9082 FIGURE -0.3797
-4.6864 FIGURING -0.2525
-3.7321 FILE -0.3487
-3.7321 FILL -0.4222
-4.6864 FILLED -0.2554
-4.3853 FILLING -0.4722
-4.2093 FINAL -0.2146
-3.7321 FINALITY -0.9560
-3.9874 FINALLY -0.5306
-3.2550 FIND -0.4659
-4.6864 FINDING -0.2583
-4.2093 FINDS -0.6471
-3.9082 FINE -0.6902
-4.6864 FINELY -0.2587
-4.3853 FINEST -0.2586
-4.0843 FINGER -0.4663
-3.7833 FINGERS -0.4754
-3.7833 FINISH -0.5012
-4.0843 FINISHED -0.1810
-4.6864 FIR -0.2566
-3.3440 FIRE -0.5446
-4.6864 FIRE-MEN -0.2587
-4.2093 FIRED -0.6510
-4.6864 FIRMLY -0.2578
-4.6864 FIRS -0.2478
-2.9621 FIRST -0.3586
-3.8413 FISH -0.2115
-4.3853 FISHED -0.4771
-4.3853 FISHER -0.4771
-4.6864 FIST -0.2147
-4.3853 FISTS -0.4331
-4.2093 FIT -0.6282
-4.3853 FITTED -0.2568
-4.6864 FITTINGLY -0.2581
-4.0843 FITZHUGH -0.6415
-3.4823 FIVE -0.4031
-4.6864 FIVES -0.2585
-4.6864 FIX -0.2561
-3.8413 FIXED -0.4140
-3.9874 FLAGS -0.3123
-4.6864 FLAILSOME -0.2586
-4.6864 FLAME -0.2586
-4.3853 FLAMED -0.4769
-3.9874 FLAMING -0.2702
-3.6864 FLASH -0.4078
-4.6864 FLASHED -0.2580
-4.3853 FLASHES -0.4657
-4.6864 FLASHING -0.2478
-4.2093 FLAT -0.7249
-4.6864 FLED -0.2576
-4.6864 FLEE -0.2584
-4.6864 FLEET -0.2583
-4.6864 FLESH -0.2537
-4.3853 FLESH-POTS -0.4331
-4.0843 FLEW -0.6464
-4.3853 FLICK -0.2462
-4.6864 FLIPPING -0.2575
-4.0843 FLOODS -0.4617
-3.8413 FLOOR -0.5318
-4.3853 FLOP -0.2555
-4.0843 FLOWER -0.5043
-3.9874 FLOWERS -0.2032
-4.0843 FLUFFS -0.6350
-4.3853 FLUID -0.2478
-4.6864 FLUNG -0.2495
-3.9082 FLUSH -0.2983
-4.0843 FLUTTERED -0.6226
-4.6864 FLY -0.2584
-4.3853 FLYING -0.4771
-4.6864 FOE -0.2583
-3.9874 FOGGY -0.8298
-4.2093 FOILED -0.6459
-3.8413 FOLDER -0.5655
-4.3853 FOLK -0.4752
-3.6450 FOLLOW -0.4036
-3.6450 FOLLOWED -0.4922
-3.7833 FOLLOWING -0.5132
-4.6864 FOLLOWS -0.2147
-4.3853 FOND -0.4657
-3.9082 FOOD -0.3805
-4.3853 FOOL -0.4711
-4.0843 FOOLISH -0.4718
-4.3853 FOOLISHLY -0.4771
-4.2093 FOOLISHNESS -0.6081
-3.7321 FOOT -0.4211
-4.6864 FOOTING -0.2147
-4.2093 FOOTPRINTS -0.6406
-4.6864 FOOTSTEPS -0.2147
-2.1772 FOR -0.5754
-4.0843 FORBIDDEN -0.6455
-3.7321 FORCE -0.7031
-3.8413 FORCES -0.3602
-4.6864 FORCIBLY -0.2472
-4.6864 FORD -0.2348
-3.9874 FORECASTING -0.3116
-4.6864 FOREFATHERS -0.2147
-4.6864 FOREFINGER -0.2147
-4.2093 FOREGO -0.6520
-4.6864 FOREHEAD -0.2587
-4.3853 FOREIGNERS -0.2045
-4.3853 FOREMAN -0.4662
-4.6864 FOREMOST -0.2580
-4.6864 FOREPAWS -0.2478
-4.6864 FORERUNNER -0.2472
-4.6864 FORESAW -0.2478
-3.7321 FOREST -0.4793
-4.2093 FORESTS -0.1949
-3.8413 FORETELL -0.3421
-3.9082 FOREVER -0.7069
-3.7321 FORGET -0.3162
-4.6864 FORGIVEN -0.2586
-4.3853 FORGOT -0.2142
-3.9082 FORGOTTEN -0.3605
-3.9874 FORK -0.2446
-4.3853 FORKS -0.2470
-3.3440 FORM -0.3954
-3.9082 FORMAT -0.8113
-4.6864 FORMATIONS -0.2472
-4.0843 FORMED -0.4591
-4.6864 FORMERLY -0.2582
-4.6864 FORMLESS -0.2587
-3.9082 FORMS -0.3549
-4.6864 FORMULA -0.2147
-3.6450 FORT -0.3208
-3.7321 FORTH -0.5082
-4.3853 FORTUNE -0.2078
-3.7833 FORTY -0.8158
-4.2093 FORWARD -0.2251
-3.3642 FOUND -0.3019
-3.9082 FOUNDATION -0.4192
-3.9874 FOUNDATIONS -0.4659
-4.6864 FOUNTAIN -0.2147
-3.3853 FOUR -0.2219
-4.6864 FOURTEEN -0.2147
-3.6450 FOURTH -0.2972
-4.6864 FOWL -0.2579
-4.3853 FOX -0.2136
-4.6864 FOXES -0.2587
-4.3853 FRAGMENT -0.4760
-3.9874 FRAGMENTS -0.3142
-4.0843 FRANCISCO -0.6446
-4.6864 FRANCOIS -0.2478
-4.6864 FRANTIC -0.2554
-4.3853 FRAUD -0.4331
-4.2093 FREE -0.2045
-3.9874 FREED -0.3131
-4.6864 FREEDOM -0.2495
-4.3853 FREELY -0.4742
-4.6864 FREEZING -0.2525
-4.3853 FREIGHT -0.4678
-4.6864 FRENCH -0.2587
-4.6864 FREQUENT -0.2525
-4.6864 FREQUENTED -0.2572
-3.3440 FRESH -0.4344
-4.6864 FRESHLY -0.2586
-4.6864 FRESNEL -0.2584
-4.6864 FRESNO -0.2587
-4.6864 FRICTION -0.2147
-3.5402 FRIEND -0.4776
-3.8413 FRIENDS -0.5397
-4.6864 FRIENDSHIP -0.2558
-4.6864 FRIGHT -0.2478
-4.6864 FRIGHTENED -0.2576
-4.6864 FRIGID -0.2587
-4.6864 FRISKING -0.2478
-2.5895 FROM -0.6430
-4.3853 FROST -0.2421
-4.6864 FROW -0.2563
-4.6864 FROWNED -0.2147
-4.6864 FROWST -0.2554
-4.6864 FROZEN -0.2586
-4.2093 FRUITS -0.7132
-4.6864 FUEL -0.2586
-4.3853 FULFILLED -0.4736
-3.4076 FULL -0.5348
-4.6864 FULL-BLOWN -0.2587
-4.6864 FUN -0.2147
-4.3853 FUNCTION -0.2553
-4.6864 FUNDAMENTAL -0.2586
-4.6864 FUNK -0.2147
-3.9082 FUR -0.4237
-4.6864 FURNISH -0.2573
-4.3853 FURNISHED -0.2492
-4.3853 FURNITURE -0.2377
-4.3853 FURS -0.2515
-3.6864 FURTHER -0.3164
-4.3853 FUTILE -0.4709
-4.3853 FUTURE -0.4657
-4.6864 GABRIEL -0.2585
-4.3853 GAD -0.4761
-4.6864 GAIN -0.2348
-3.9874 GAINED -0.4855
-4.6864 GAINING -0.2566
-4.6864 GALLANT -0.2586
-4.6864 GALLANTRY -0.2525
-4.0843 GALLINA -0.6464
-3.4823 GAME -0.8384
-4.6864 GAMES -0.2554
-4.6864 GANG -0.2586
-4.6864 GAPS -0.2587
-3.8413 GARB -0.3307
-4.3853 GARBAGE -0.2138
-3.7321 GARDEN -0.2279
-4.6864 GARFISH -0.2478
-4.6864 GARRISON -0.2478
-4.6864 GARRY -0.2576
-4.6864 GASP -0.2147
-4.6864 GASPED -0.2147
-4.6864 GATES -0.2472
-4.6864 GATH -0.2147
-4.2093 GAUNT -0.6521
-3.4559 GAVE -0.4899
-4.6864 GAY -0.2585
-4.2093 GAZED -0.6520
-4.6864 GEAR -0.2538
-4.0843 GEESE -0.6356
-3.6450 GENERAL -0.4412
-4.6864 GENERALISE -0.2348
-4.6864 GENERALLY -0.2525
-4.3853 GENERATE -0.2250
-3.9874 GENERATED -0.4319
-4.3853 GENERATION -0.2348
-4.6864 GENERATIONS -0.2549
-4.2093 GENIUS -0.6081
-4.6864 GENTLEMAN -0.2495
-4.3853 GENTLEMEN -0.4331
-4.3853 GENTLY -0.4771
-4.2093 GENUINE -0.7358
-4.6864 GEOFFREY -0.2525
-4.2093 GEOLOGICAL -0.2585
-4.6864 GEOLOGY -0.2584
-4.6864 GERANIUM -0.2587
-4.6864 GERMAN -0.2578
-3.1950 GET -0.5141
-4.3853 GETS -0.4678
-3.9082 GETTING -0.3838
-4.6864 GHERKINS -0.2587
-4.6864 GHOST -0.2147
-4.2093 GIANT -0.6797
-4.6864 GIANTS -0.2472
-4.6864 GIESELER -0.2587
-4.3853 GIFTS -0.2020
-3.8413 GIGANTIC -0.6366
-4.6864 GILDING -0.2348
-4.6864 GIN -0.2572
-4.6864 GINGER -0.2587
-4.3853 GIRAFFE -0.2563
-3.9874 GIRL -0.8299
-3.8413 GIRL'S -0.4603
-3.7321 GIRLS -0.4005
-3.1182 GIVE -0.8283
-4.3853 GIVEN -0.2360
-4.3853 GIVES -0.2493
-4.3853 GIVETH -0.4678
-4.3853 GIVING -0.2569
-4.3853 GLACIAL -0.2582
-4.6864 GLACIER -0.2549
-4.3853 GLACIERS -0.4752
-4.0843 GLAD -0.5424
-4.6864 GLADE -0.2581
-4.3853 GLANCED -0.4752
-4.6864 GLANCING -0.2585
-4.3853 GLASS -0.2146
-4.6864 GLASSES -0.2472
-4.6864 GLEAMED -0.2348
-3.9874 GLIMMER -0.3028
-4.0843 GLIMPSED -0.6431
-4.3853 GLOBE -0.4331
-4.2093 GLOOM -0.6081
-4.6864 GLOOMY -0.2586
-4.6864 GLORIES -0.2472
-4.0843 GLORIOUS -0.6989
-4.6864 GLORY -0.2572
-3.9082 GLOW -0.4519
-4.6864 GNAWING -0.2478
-2.8668 GO -0.4577
-4.6864 GOAL -0.2537
-4.6864 GOAT -0.2147
-4.2093 GOD -0.2474
-4.6864 GOD'S -0.2587
-3.6450 GODS -0.3851
-4.6864 GODSEND -0.2495
-4.6864 GOES -0.2580
-2.8539 GOING -0.9274
-3.8413 GOLD -0.2908
-4.2093 GOLD-GREEN -0.6412
-4.6864 GOMORRAH -0.2147
-3.1950 GONE -0.8318
-2.9962 GOOD -0.4687
-4.2093 GOODBYE -0.6519
-4.3853 GOODS -0.4760
-3.6450 GOOSE -0.4773
-4.2093 GOOSE'S -0.7357
-4.6864 GORGE -0.2584
-4.2093 GOSH -0.6521
-3.0332 GOT -0.5635
-4.3853 GOUGED -0.4662
-4.2093 GOVERNED -0.1864
-4.2093 GOVERNMENT -0.6406
-4.6864 GOWN -0.2478
-4.3853 GRAB -0.2575
-4.3853 GRACE -0.4768
-4.6864 GRACEFUL -0.2147
-4.3853 GRADUALLY -0.2586
-4.2093 GRADUATED -0.6518
-4.2093 GRAIN -0.6081
-4.6864 GRAINS -0.2147
-4.6864 GRAMMARS -0.2147
-4.6864 GRAND -0.2586
-4.6864 GRANDEUR -0.2472
-4.6864 GRANITE -0.2587
-4.6864 GRANT -0.2582
-4.3853 GRANTED -0.2518
-4.6864 GRASPED -0.2147
-3.9082 GRASS -0.2477
-4.6864 GRASSES -0.2478
-4.3853 GRAVE -0.2115
-3.8413 GRAVEL -0.3420
-4.6864 GRAVELLY -0.2586
-4.2093 GRAY -0.7317
-3.0051 GREAT -0.3635
-4.0843 GREATER -0.2559
-3.9874 GREATEST -0.2470
-4.3853 GREATLY -0.4771
-4.6864 GREEDILY -0.2494
-4.3853 GREEK -0.2144
-3.9874 GREEKS -0.5355
-3.5402 GREEN -0.5429
-3.9874 GREETING -0.2702
-3.1066 GREGSON -0.5082
-3.4311 GREW -0.4404
-4.6864 GRIEF -0.2147
-4.6864 GRIM -0.2580
-4.2093 GRIMLY -0.6412
-4.0843 GRIPPED -0.4919
-4.6864 GROOMED -0.2551
-3.5724 GROUND -0.2052
-4.6864 GROUP -0.2147
-4.6864 GROVE -0.2586
-4.3853 GROVES -0.2453
-4.0843 GROW -0.6453
-3.3853 GROWING -0.4303
-4.0843 GROWLED -0.6024
-4.3853 GROWN -0.2488
-4.6864 GROWS -0.2566
-4.2093 GROWTH -0.1963
-3.7833 GRUB -0.7261
-4.2093 GRUB-THIEF -0.6517
-4.6864 GRUDGES -0.2478
-3.9874 GRUMBLING -0.5343
-4.6864 GUAM -0.2147
-4.6864 GUARANTEE -0.2587
-4.6864 GUARDS -0.2567
-4.0843 GUESS -0.5100
-4.2093 GUESSED -0.6460
-4.6864 GUESTS -0.2147
-4.3853 GUIDANCE -0.2131
-4.3853 GUIDED -0.4752
-4.0843 GUILT -0.6226
-4.6864 GULLIBY -0.2587
-4.6864 GUN -0.2147
-4.6864 GURGLING -0.2587
-4.2093 GUY -0.2565
-4.6864 GWYNN -0.2147
-4.0843 GYMNASTICS -0.6464
-4.3853 H -0.2586
-4.6864 HA -0.2587
-4.6864 HABITS -0.2585
-2.2518 HAD -0.6875
-4.6864 HAGAR -0.2578
-3.9082 HAIR -0.3504
-4.6864 HAIRS -0.2525
-4.3853 HAIRY -0.2587
-3.3642 HALF -0.4597
-4.2093 HALF-COCK -0.6483
-4.0843 HALFWAY -0.5152
-4.6864 HALL -0.2585
-4.3853 HALLUCINATION -0.4771
-4.6864 HALT -0.2568
-4.6864 HAM -0.2586
-3.3642 HAND -0.5663
-3.6072 HAND-HELD -1.1138
-4.6864 HANDED -0.2537
-3.8413 HANDKERCHIEF -0.4150
-4.3853 HANDLE -0.2550
-3.3853 HANDS -0.7538
-4.6864 HANDSOME -0.2587
-4.6864 HANDSOMEST -0.2587
-4.2093 HANDWRITING -0.6081
-4.3853 HANGERS -0.4771
-4.6864 HANRAHAN'S -0.2587
-4.3853 HANS -0.4771
-4.2093 HAPPEN -0.6916
-3.3062 HAPPENED -1.0198
-4.3853 HAPPENING -0.2110
-4.3853 HAPPENS -0.2045
-4.3853 HAPPINESS -0.2469
-3.6864 HAPPY -0.3569
-4.6864 HARBOR -0.2147
-4.0843 HARD -0.2462
-4.6864 HARDER -0.2579
-4.3853 HARDEST -0.2045
-4.0843 HARDING -0.6464
-4.2093 HARDLY -0.7335
-4.6864 HARDWARE -0.2348
-4.6864 HARMONIES -0.2472
-4.2093 HARNISH -0.6507
-4.3853 HARPOON -0.4331
-3.9874 HARRISON -0.9482
-4.2093 HARRY -0.6520
-4.3853 HARSH -0.4769
-2.8413 HAS -0.6175
-4.6864 HASN'T -0.2587
-4.0843 HASTENED -0.6877
-4.3853 HATCHED -0.2444
-4.2093 HATCHET -0.6412
-4.3853 HATE -0.2544
-3.9082 HATRED -0.7400
-4.6864 HATS -0.2147
-4.6864 HAULED -0.2579
-4.6864 HAUNTED -0.2576
-2.3209 HAVE -0.5840
-4.3853 HAVEN'T -0.2562
-3.9874 HAVING -0.4692
-3.7833 HAWAII -0.4159
-4.0843 HAWK -0.6464
-4.6864 HAY -0.2587
-1.8597 HE -0.7528
-3.9874 HE'LL -0.9552
-3.9874 HE'S -0.9573
-3.2714 HEAD -0.5273
-4.6864 HEADED -0.2587
-4.3853 HEADQUARTERS -0.2020
-3.9874 HEADS -0.3141
-4.6864 HEALTH -0.2579
-4.3853 HEALTHY -0.2584
-3.7833 HEAR -0.4641
-3.3642 HEARD -0.3359
-4.6864 HEARING -0.2587
-3.9082 HEART -0.3441
-4.6864 HEART'S -0.2587
-4.6864 HEARTS -0.2478
-4.6864 HEARTY -0.2586
-3.5724 HEAT -0.5875
-4.6864 HEATHER -0.2472
-4.6864 HEATHERY -0.2587
-4.3853 HEAVEN -0.2091
-4.0843 HEAVENS -0.6445
-3.8413 HEAVY -0.3421
-4.3853 HEBREWS -0.4722
-3.9874 HEEL -0.5357
-4.6864 HEGEMONY -0.2472
-4.6864 HEIR -0.2147
-4.2093 HELD -0.7346
-4.0843 HELEN -0.6456
-4.6864 HELL -0.2585
-3.4311 HELP -0.4671
-4.6864 HELPED -0.2576
-4.6864 HELPING -0.2568
-4.6864 HENCE -0.2348
-4.6864 HENRIETTA -0.2586
-2.3875 HER -0.5069
-4.6864 HERCULEAN -0.2587
-2.8940 HERE -0.4935
-4.2093 HERE'S -0.6519
-4.6864 HERMAN -0.2587
-4.6864 HEROES -0.2568
-4.6864 HEROISM -0.2587
-4.2093 HERS -0.2123
-3.6864 HERSELF -0.6145
-4.6864 HESITATE -0.2495
-4.3853 HESITATED -0.2140
-4.6864 HID -0.2568
-3.9874 HIDE -0.2702
-4.0843 HIDING -0.4649
-3.4823 HIGH -0.2720
-4.6864 HIGHER -0.2579
-4.6864 HIGHLAND -0.2587
-3.9082 HIGHLY -0.4346
-4.3853 HILL -0.4331
-4.6864 HILLS -0.2472
-4.6864 HILLSIDES -0.2587
-2.3662 HIM -0.8149
-4.6864 HIMALAYA -0.2348
-2.8290 HIMSELF -0.4833
-4.6864 HINT -0.2147
-4.3853 HIP -0.4331
-4.6864 HIPPOPOTAMUS -0.2147
-4.6864 HIRE -0.2568
-2.0887 HIS -0.4771
-4.6864 HISTORIC -0.2587
-3.6864 HISTORY -0.6202
-4.3853 HITCH -0.4769
-4.3853 HITHERTO -0.2586
-4.6864 HITTING -0.2568
-3.8413 HOBSON -0.3409
-4.2093 HOIST -0.7357
-3.7321 HOLD -0.4868
-4.2093 HOLE -0.6849
-4.6864 HOLES -0.2525
-4.6864 HOLLAND -0.2576
-4.3853 HOLMES -0.4331
-3.3246 HOME -0.7781
-4.2093 HOMESICK -0.6492
-3.9874 HONOLULU -0.4923
-4.6864 HONOROF -0.2587
-4.6864 HONOUR -0.2472
-4.6864 HONOURABLE -0.2587
-4.3853 HOP -0.2587
-3.6864 HOPE -0.4854
-4.3853 HOPED -0.2483
-4.6864 HOPEFUL -0.2587
-4.6864 HORIZON -0.2147
-4.6864 HORIZONTAL -0.2587
-4.3853 HORRIBLE -0.2146
-4.6864 HORRIFIED -0.2586
-4.2093 HORROR -0.6797
-3.9082 HORSE -0.3038
-4.6864 HORSES -0.2478
-4.6864 HOSPITABLY -0.2587
-4.6864 HOSTAGE -0.2147
-4.6864 HOSTILE -0.2587
-3.9874 HOSTILITIES -0.2702
-4.0843 HOT -0.2457
-4.0843 HOTEL -0.6024
-3.9874 HOTLY -0.2702
-3.5103 HOUR -0.4626
-4.6864 HOURLY -0.2586
-3.6450 HOURS -0.7691
-3.4311 HOUSE -0.6366
-4.3853 HOUSES -0.4662
-2.9788 HOW -0.4493
-3.5724 HOWEVER -0.3310
-4.3853 HOWISON -0.4762
-4.6864 HOWSOEVER -0.2537
-4.3853 HUDSON'S -0.4771
-4.0843 HUGE -0.5144
-3.7833 HUGHIE -0.5904
-3.9874 HUMAN -0.4061
-4.3853 HUMANITY -0.4331
-4.6864 HUMBLE -0.2147
-4.6864 HUMBLY -0.2587
-4.6864 HUMBOLDT -0.2525
-4.6864 HUMOURS -0.2584
-4.3853 HUMP -0.2145
-4.3853 HUMPH -0.4331
-3.3440 HUNDRED -0.6189
-4.6864 HUNDREDTH -0.2584
-4.6864 HUNGER -0.2147
-4.3853 HUNGRY -0.4662
-4.0843 HUNT -0.6873
-4.0843 HUNTED -0.6462
-4.3853 HUNTERS -0.2125
-3.9874 HUNTING -0.4785
-4.3853 HURLED -0.4765
-4.2093 HURRAH -0.6492
-4.3853 HURRIED -0.2579
-3.8413 HURRY -0.5240
-4.0843 HURT -0.5564
-4.3853 HUSBAND -0.2556
-4.3853 HUSH -0.4662
-4.6864 HUTCHINGS -0.2147
-4.3853 HUTCHINSON -0.4747
-4.6864 HUXLEY -0.2584
-4.6864 HYDROPHOBIA -0.2554
-4.2093 HYENA -0.6918
-4.6864 HYMN -0.2147
-4.6864 HYPOCRITE -0.2147
-4.6864 HYPOS -0.2584
-4.6864 HYPOTHESES -0.2147
-3.7321 HYPOTHESIS -0.4763
-4.0843 HYSTERIA -0.6024
-1.9524 I -0.7469
-3.9082 I'D -0.8221
-3.1950 I'LL -0.6704
-3.1066 I'M -0.5669
-3.9874 ICE -0.2702
-4.6864 ICEBERGS -0.2147
-3.1950 IDEA -0.7034
-4.2093 IDEAL -0.6081
-4.6864 IDEALISM -0.2586
-4.2093 IDEALS -0.6081
-3.7321 IDEAS -0.6491
-4.3853 IDENTICAL -0.2495
-3.9082 IDENTIFIED -0.7503
-2.7370 IF -0.6236
-4.2093 IGNORANCE -0.2115
-4.6864 IGNORANT -0.2478
-4.3853 IGNORING -0.4761
-4.2093 ILL -0.6863
-4.6864 ILLEGAL -0.2147
-4.6864 ILLEGALLY -0.2587
-3.9874 ILLUMINATING -0.3141
-3.9082 ILLUSION -0.7447
-4.6864 ILLUSTRATE -0.2348
-4.6864 ILLUSTRATED -0.2572
-4.6864 ILLUSTRATION -0.2587
-4.6864 ILLUSTRIOUS -0.2587
-4.6864 IMAGE -0.2526
-4.6864 IMAGES -0.2147
-3.6864 IMAGINE -0.6233
-4.3853 IMAGINING -0.4331
-3.9874 IMMACULATE -0.3141
-4.3853 IMMEDIATE -0.2586
-3.8413 IMMEDIATELY -0.3604
-4.6864 IMMENSE -0.2587
-4.3853 IMMENSELY -0.2587
-4.2093 IMMORTAL -0.6472
-4.6864 IMPACT -0.2537
-4.6864 IMPALE -0.2348
-4.6864 IMPARTED -0.2572
-4.6864 IMPARTIALITY -0.2472
-4.6864 IMPEDED -0.2348
-4.6864 IMPLEMENT -0.2494
-4.2093 IMPLIED -0.7301
-4.3853 IMPORT -0.4331
-4.2093 IMPORTANCE -0.2424
-3.7321 IMPORTANT -0.3585
-3.6450 IMPOSSIBLE -1.2458
-4.6864 IMPRESSING -0.2586
-4.3853 IMPRESSION -0.2104
-4.6864 IMPRESSIVELY -0.2585
-4.6864 IMPRESSIVENESS -0.2495
-4.6864 IMPROVED -0.2587
-3.9082 IMPROVEMENT -0.4191
-4.6864 IMPROVEMENTS -0.2147
-4.3853 IMPULSE -0.2043
-1.8482 IN -0.7114
-4.6864 INADEQUACY -0.2147
-4.6864 INAPPROPRIATE -0.2584
-4.3853 INCALCULABLE -0.2584
-4.0843 INCH -0.6450
-4.6864 INCHES -0.2582
-4.2093 INCIDENT -0.7334
-4.2093 INCIDENTAL -0.6521
-4.6864 INCLINED -0.2495
-4.3853 INCLUDE -0.4532
-3.8413 INCOME -0.3412
-4.6864 INCONSOLABLE -0.2579
-4.6864 INCONSPICUOUS -0.2587
-4.6864 INCONVENIENT -0.2147
-4.6864 INCORPORATING -0.2537
-4.3853 INCREASE -0.2457
-3.9082 INCREASES -0.6060
-3.6864 INCREASING -0.4912
-4.2093 INCUBATION -0.6081
-3.6864 INDEED -0.1603
-4.6864 INDEFATIGABLE -0.2587
-4.6864 INDEFINITELY -0.2586
-4.3853 INDEPENDENT -0.2586
-4.6864 INDESTRUCTIBLE -0.2478
-4.6864 INDEX -0.2586
-3.9874 INDIAN -0.2142
-3.6450 INDIANS -0.3466
-4.6864 INDICATE -0.2348
-4.6864 INDICATION -0.2472
-4.6864 INDIFFERENTLY -0.2478
-3.9874 INDIGESTION -0.8245
-4.6864 INDIRECTLY -0.2587
-4.6864 INDISCRIMINATELY -0.2585
-4.6864 INDISPENSABLE -0.2587
-4.3853 INDIVIDUALLY -0.4771
-4.6864 INDIVIDUALS -0.2561
-4.3853 INDUCED -0.4768
-4.6864 INDUCTION -0.2568
-4.6864 INDUSTRY -0.2586
-4.6864 INEQUALITIES -0.2472
-4.6864 INERTIA -0.2525
-4.6864 INEXHAUSTIBLE -0.2525
-4.6864 INFANCY -0.2472
-4.6864 INFANT -0.2586
-4.3853 INFERIOR -0.2562
-3.9082 INFERNAL -0.7508
-4.2093 INFINITE -0.7358
-4.6864 INFINITESIMALLY -0.2586
-4.0843 INFLUENCE -0.5457
-4.6864 INFLUENCES -0.2577
-3.6864 INFORMATION -0.6056
-4.6864 INFORMED -0.2147
-4.6864 INGENERABLE -0.2478
-4.6864 INGRATIATING -0.2586
-4.6864 INHABITANTS -0.2472
-4.6864 INHERENT -0.2587
-4.6864 INHERITANCE -0.2587
-4.3853 INITIAL -0.2586
-4.6864 INITIATED -0.2586
-4.6864 INJURING -0.2585
-4.2093 INK -0.6521
-4.6864 INN -0.2147
-4.6864 INNER -0.2587
-4.6864 INNS -0.2147
-4.3853 INORGANIC -0.2586
-3.9082 INPUT -0.4319
-4.3853 INPUTTING -0.4771
-4.6864 INQUIRED -0.2586
-4.6864 INQUIRIES -0.2568
-4.6864 INSIDE -0.2551
-4.3853 INSIDIOUS -0.4771
-4.6864 INSIGHT -0.2580
-3.9874 INSINUATE -0.3142
-4.2093 INSOLUBLE -0.2562
-4.6864 INSTANCE -0.2537
-3.9082 INSTANT -0.4240
-3.9082 INSTEAD -0.8049
-3.9082 INSTINCT -0.7069
-4.2093 INSTITUTED -0.6428
-4.6864 INSTRUCTIONS -0.2584
-4.6864 INSTRUMENT -0.2472
-4.6864 INSURMOUNTABLE -0.2587
-4.6864 INTEGRAL -0.2147
-4.6864 INTEGRATED -0.2587
-4.2093 INTEGRATING -0.7358
-4.2093 INTELLECTUAL -0.6519
-3.9874 INTELLIGENT -0.3139
-4.6864 INTELLIGIBLE -0.2147
-4.6864 INTENDED -0.2558
-4.6864 INTENSE -0.2586
-4.6864 INTENTION -0.2495
-4.2093 INTEREST -0.2038
-4.6864 INTERESTED -0.2525
-4.6864 INTERESTING -0.2495
-4.6864 INTERESTS -0.2147
-3.9082 INTERFACE -0.6505
-4.6864 INTERFERE -0.2554
-4.6864 INTERFERES -0.2554
-4.6864 INTERMEDIATE -0.2586
-4.3853 INTERMITTENT -0.4331
-4.6864 INTERPRETATION -0.2525
-4.6864 INTERPRETER -0.2147
-4.3853 INTERURBAN -0.4331
-3.9874 INTERVALS -0.3082
-4.6864 INTESTINAL -0.2587
-2.7999 INTO -0.6407
-4.0843 INTOXICATED -0.6450
-4.3853 INTRODUCED -0.2571
-4.2093 INVADERS -0.6081
-4.6864 INVASION -0.2472
-4.6864 INVENTED -0.2478
-4.6864 INVENTION -0.2472
-4.6864 INVESTIGATED -0.2572
-4.3853 INVESTIGATION -0.2147
-4.6864 INVESTIGATIONS -0.2147
-4.6864 INVESTIGATOR -0.2147
-4.6864 INVESTING -0.2525
-4.6864 INVESTMENT -0.2147
-4.6864 INVITE -0.2577
-4.6864 INVOLUNTARILY -0.2587
-4.6864 INVOLVE -0.2583
-4.3853 INVOLVED -0.2078
-4.3853 INWARDLY -0.4331
-4.6864 IOTA -0.2472
-4.2093 IRATE -0.6521
-4.6864 IRON -0.2586
-4.6864 IRONIES -0.2538
-4.6864 IRONY -0.2472
-4.2093 IRRELEVANT -0.6081
-4.2093 IRRITATION -0.6520
-4.6864 IRVINE -0.2525
-1.9429 IS -0.5178
-4.6864 ISAAC -0.2587
-4.6864 ISHMAEL -0.2587
-4.3853 ISLAND -0.2020
-4.3853 ISLANDS -0.4747
-4.3853 ISLE -0.4662
-4.6864 ISLES -0.2583
-4.3853 ISN'T -0.2586
-4.6864 ISRAEL -0.2147
-4.6864 ISRAELITES -0.2567
-3.9082 ISSUE -0.6365
-4.3853 ISSUED -0.4678
-1.9452 IT -0.6880
-3.2240 IT'S -0.5590
-3.9082 ITALIAN -0.7509
-4.6864 ITCH -0.2558
-4.2093 ITCHY -0.6520
-2.7673 ITS -0.4226
-3.9874 ITSELF -0.4060
-4.0843 IVORY -0.6464
-3.9874 JACK -0.5363
-4.2093 JACOB -0.6521
-3.7833 JACQUES -0.4123
-4.3853 JAGGED -0.4331
-4.6864 JAIL -0.2147
-4.6864 JAMES -0.2587
-4.3853 JANE -0.2576
-4.2093 JAPANESE -0.7357
-4.3853 JARGON -0.4657
-3.9874 JASPAR -0.3142
-4.2093 JAWS -0.6519
-4.3853 JAYS -0.4752
-4.3853 JEALOUSY -0.2020
-3.1950 JEANNE -0.6270
-4.6864 JEANNE'S -0.2586
-4.2093 JERK -0.6906
-4.6864 JERSEY -0.2147
-4.2093 JERUSALEM -0.6081
-4.6864 JESSE -0.2147
-4.3853 JEWELRY -0.2499
-4.6864 JIG -0.2525
-4.6864 JILL -0.2587
-3.6450 JOAN -0.8022
-3.6864 JOB -0.4875
-4.0843 JOCK -0.6431
-4.6864 JOE -0.2586
-4.0843 JOHANNES -0.6459
-4.3853 JOHN -0.2586
-4.2093 JOHNNY -0.6412
-4.3853 JOIN -0.2572
-4.3853 JOINED -0.2584
-4.3853 JOISTS -0.4770
-4.6864 JOKING -0.2576
-4.0843 JOLIFFE -0.5155
-4.6864 JOLLY -0.2568
-4.3853 JONES -0.4771
-4.3853 JOSE -0.4771
-4.3853 JOSHUA -0.4711
-4.3853 JOURNEY -0.2581
-4.6864 JOURNEYED -0.2554
-3.4823 JOY -0.5261
-4.6864 JOY-THRILL -0.2147
-4.6864 JOYFUL -0.2587
-4.3853 JOYOUS -0.4770
-4.2093 JOYRIDE -0.6512
-4.6864 JOYS -0.2472
-4.2093 JUDGE -0.6412
-4.6864 JUDGED -0.2147
-4.2093 JUDGMENT -0.6521
-4.6864 JULES -0.2587
-4.6864 JUNE -0.2147
-4.0843 JUNK -0.6024
-4.6864 JUNO -0.2525
-3.9874 JUNTA -0.8299
-3.9874 JURISDICTION -0.2702
-4.2093 JURY -0.6081
-2.9010 JUST -0.4362
-4.6864 JUSTICE -0.2495
-4.6864 KANT -0.2585
-4.6864 KARA -0.2587
-4.6864 KAWEAH -0.2568
-3.9874 KEENLY -0.3142
-3.5724 KEEP -0.6360
-4.3853 KEEPING -0.2586
-4.3853 KELLYNCH -0.4331
-4.2093 KEPT -0.2560
-4.3853 KERNEL -0.4771
-3.9082 KEY -0.4216
-3.8413 KEYBOARD -0.5647
-4.6864 KEYBOARDS -0.2563
-4.6864 KEYS -0.2147
-4.6864 KICKING -0.2478
-4.6864 KIDS -0.2147
-4.3853 KILL -0.2581
-4.3853 KILLED -0.4754
-4.2093 KILLS -0.6507
-4.3853 KILTARTAN -0.4771
-4.6864 KILTARTAN'S -0.2586
-4.6864 KILTARTAN\342\200\231S -0.2586
-3.9874 KIND -0.1954
-3.9874 KINDLY -0.3142
-3.8413 KINDS -0.6158
-4.6864 KINETIC -0.2587
-3.6864 KING -0.4470
-4.6864 KING'S -0.2586
-4.6864 KINGFISHERS -0.2587
-4.6864 KINGS' -0.2586
-4.6864 KIPLING -0.2348
-4.6864 KISSED -0.2569
-4.6864 KITCHEN -0.2147
-3.1950 KNEW -0.5088
-4.2093 KNIFE -0.2571
-4.6864 KNOB -0.2525
-4.2093 KNOCK -0.7315
-4.3853 KNOCKED -0.4752
-2.7226 KNOW -0.6869
-4.3853 KNOWING -0.2530
-4.0843 KNOWLEDGE -0.4718
-3.7833 KNOWN -0.7605
-3.6864 KNOWS -0.4310
-4.6864 KOLOKOLO -0.2587
-4.3853 L -0.4771
-4.2093 LABOR -0.7295
-4.3853 LABOUR -0.4331
-4.0843 LACE -0.6403
-4.6864 LACK -0.2472
-4.6864 LADEN -0.2554
-4.2093 LADY -0.2472
-4.3853 LAGER -0.4771
-3.9082 LAID -0.6893
-3.6864 LAKE -0.6346
-4.6864 LAMBERTIANA -0.2147
-4.6864 LAMP -0.2478
-4.2093 LAMPS -0.6502
-3.3440 LAND -0.6503
-4.6864 LANDED -0.2586
-4.6864 LANDSCAPE -0.2525
-4.6864 LANE -0.2568
-3.8413 LANGUAGE -0.5770
-4.6864 LAPTOP -0.2147
-3.6864 LARGE -0.4622
-4.6864 LARGELY -0.2566
-4.6864 LARGER -0.2587
-4.6864 LARGEST -0.2538
-4.6864 LARKSPURS -0.2478
-4.0843 LARSEN -0.6989
-3.1423 LAST -0.3819
-4.6864 LASTED -0.2568
-4.6864 LASTLY -0.2495
-4.6864 LATE -0.2147
-3.8413 LATER -0.5162
-4.3853 LATITUDE -0.4331
-4.6864 LATITUDES -0.2584
-3.9874 LATTER -0.2471
-4.6864 LAUGHABLE -0.2147
-3.6072 LAUGHED -0.3692
-4.6864 LAUGHING -0.2478
-4.0843 LAUGHTER -0.6481
-3.9874 LAUNCHED -0.3136
-4.6864 LAVA -0.2587
-3.5402 LAW -0.9937
-4.6864 LAWFUL -0.2563
-4.6864 LAWN -0.2587
-4.0843 LAWS -0.5024
-4.3853 LAWYER -0.4331
-3.6072 LAY -0.5869
-3.9082 LE -0.7509
-4.2093 LEAD -0.7257
-4.2093 LEADER -0.6412
-4.6864 LEADERS -0.2525
-4.6864 LEADERSHIP -0.2147
-4.3853 LEADS -0.4680
-4.6864 LEAGUE -0.2472
-4.3853 LEANING -0.4767
-3.9082 LEAPED -0.7508
-4.6864 LEAPT -0.2583
-4.6864 LEARN -0.2582
-4.0843 LEARNED -0.5063
-4.6864 LEARNING -0.2147
-4.6864 LEARNS -0.2549
-3.9082 LEAST -0.6788
-3.8413 LEAVE -1.0221
-4.0843 LEAVES -0.2287
-4.0843 LEAVING -0.2574
-4.6864 LECTURE -0.2577
-3.6864 LED -0.9466
-4.6864 LEDGE -0.2525
-3.5402 LEFT -0.4352
-4.6864 LEG -0.2147
-4.6864 LEGAL -0.2584
-4.6864 LEGALLY -0.2586
-4.2093 LEGEND -0.6428
-4.3853 LEISURE -0.2478
-4.6864 LEMONADE -0.2587
-3.9874 LENGTH -0.3028
-4.6864 LENS -0.2147
-4.3853 LEOPARD -0.2467
-3.4076 LESS -0.4928
-4.6864 LESSENING -0.2551
-3.9874 LESSER -0.3140
-3.5103 LET -0.7299
-3.8413 LET'S -0.6358
-3.9874 LETTER -0.9457
-4.3853 LETTERS -0.2078
-4.6864 LIBERTY -0.2572
-4.6864 LIBRARIAN -0.2578
-4.6864 LIBRARY -0.2576
-3.9082 LIBRIVOX -0.6520
-3.9874 LIE -0.4631
-3.9874 LIED -0.4822
-3.9874 LIES -0.9508
-4.6864 LIEU -0.2472
-3.8413 LIEUTENANT -0.3380
-3.0332 LIFE -0.6860
-4.2093 LIFE'S -0.6519
-4.6864 LIFE-CONSERVING -0.2587
-4.6864 LIFE-GIVING -0.2587
-4.6864 LIFETIME -0.2147
-4.6864 LIFT -0.2587
-4.0843 LIFTED -0.6953
-3.4311 LIGHT -0.5517
-4.3853 LIGHTLY -0.4657
-4.6864 LIGHTNING -0.2587
-4.2093 LIGHTS -0.2443
-2.6735 LIKE -0.6772
-4.3853 LIKELY -0.4680
-4.3853 LIKES -0.2421
-4.3853 LIKEWISE -0.4747
-4.6864 LIKING -0.2147
-4.6864 LILAC -0.2587
-4.6864 LILIES -0.2563
-3.9874 LIMIT -0.8623
-4.3853 LIMITED -0.2585
-4.3853 LIMITS -0.4657
-4.3853 LINDERMAN -0.4722
-3.9874 LINE -0.8172
-4.2093 LINES -0.6501
-3.9874 LINGO -0.3135
-4.6864 LIP -0.2147
-4.3853 LIPPERTY -0.2587
-3.5724 LIPS -1.3264
-4.6864 LIST -0.2147
-4.3853 LISTEN -0.2481
-3.6864 LISTENED -0.6616
-4.6864 LITERATURE -0.2478
-4.6864 LITHELY -0.2587
-2.8870 LITTLE -0.4763
-3.6450 LIVE -0.9943
-3.5402 LIVED -0.5015
-4.3853 LIVELY -0.2477
-3.9082 LIVER -0.7507
-4.2093 LIVES -0.2128
-3.7833 LIVING -0.5151
-4.2093 LOADED -0.6412
-4.2093 LOCKED -0.6517
-4.6864 LOCUSTS -0.2478
-4.6864 LODGE -0.2586
-4.0843 LOFT -0.6024
-4.6864 LOFTY -0.2587
-4.2093 LOG -0.7337
-4.6864 LOGIC -0.2577
-4.3853 LOGICAL -0.2586
-4.3853 LOINCLOTH -0.4771
-3.9874 LONDON -0.4923
-4.6864 LONES -0.2584
-2.9788 LONG -0.3165
-3.5402 LONGER -0.3840
-4.6864 LONGFELLOW -0.2147
-4.6864 LONGHURST -0.2478
-3.2240 LOOK -0.3707
-3.4823 LOOKED -0.5123
-4.6864 LOOKEST -0.2576
-3.6450 LOOKING -0.4584
-3.6450 LOOKS -0.3050
-4.0843 LOOMED -0.6464
-4.2093 LOOSE -0.6081
-4.6864 LOOSELY -0.2573
-3.8413 LOP-EAR -0.4431
-3.7833 LORD -0.5282
-4.6864 LORDS -0.2147
-4.6864 LOSE -0.2586
-4.0843 LOSING -0.6463
-3.7833 LOST -0.5239
-3.9082 LOT -0.2836
-4.2093 LOTS -0.6406
-4.6864 LOTTERY -0.2147
-4.6864 LOUIS -0.2478
-3.9874 LOUISA -0.2702
-3.7321 LOVE -0.4273
-4.0843 LOVED -0.2457
-4.2093 LOVER -0.7243
-3.6864 LOW -0.5917
-3.9082 LOWER -0.6790
-4.6864 LOWEST -0.2587
-4.6864 LOWLANDS -0.2584
-4.6864 LOWLY -0.2581
-4.6864 LOYALLY -0.2572
-4.6864 LUMBER -0.2584
-4.3853 LUMINOUS -0.2587
-4.2093 LUNATIC -0.6081
-4.6864 LUNCH -0.2576
-4.6864 LUNCHING -0.2572
-4.6864 LUNGS -0.2478
-4.6864 LUPINES -0.2587
-4.6864 LUSH -0.2587
-3.9874 LUST -0.3113
-4.6864 LUSTER -0.2147
-4.2093 LUXURIANT -0.7357
-3.9874 LUXURY -0.8179
-4.2093 LYING -0.7333
-4.3853 M -0.4771
-4.6864 MA'AM -0.2147
-3.8413 MAB -0.6026
-4.3853 MABEL -0.4771
-3.7833 MACDOUGALL -0.5945
-4.6864 MACKENZIE -0.2147
-4.6864 MAD -0.2147
-4.2093 MADAM -0.2023
-4.2093 MADAME -0.2119
-4.3853 MADDENING -0.4770
-2.9460 MADE -0.4964
-4.3853 MADGE -0.2147
-4.3853 MADLY -0.4738
-4.2093 MADNESS -0.6081
-4.6864 MAELSTROM -0.2147
-4.2093 MAGAZINE -0.6459
-4.3853 MAGIC -0.4709
-4.6864 MAGISTRATE -0.2587
-4.6864 MAGNIFICA -0.2561
-3.9082 MAGNIFICENT -0.3044
-4.6864 MAID -0.2586
-4.2093 MAIN -0.2584
-4.6864 MAINLY -0.2494
-4.6864 MAINTAIN -0.2494
-4.0843 MAINTAINED -0.5045
-4.3853 MAJESTIC -0.2565
-3.9082 MAJOR -0.4344
-3.3062 MAKE -0.6679
-3.6450 MAKES -0.3215
-4.6864 MAKETH -0.2494
-3.5402 MAKING -0.3928
-4.6864 MALL -0.2147
-3.8413 MALNUTRITION -0.3402
-4.3853 MALTREATED -0.4331
-2.9010 MAN -0.5112
-4.2093 MAN'S -0.6517
-4.3853 MANAGE -0.4680
-4.2093 MANAGED -0.6429
-4.0843 MANAGING -0.6462
-4.3853 MANIFESTATION -0.4657
-3.9874 MANIFESTED -0.5060
-4.6864 MANIFESTLY -0.2587
-3.9082 MANNER -0.4074
-4.0843 MANNERS -0.1935
-4.6864 MANTLE -0.2526
-4.3853 MANUEL -0.4747
-4.6864 MANURE -0.2147
-4.3853 MANUSCRIPT -0.4331
-3.0143 MANY -0.4246
-4.0843 MAP -0.4950
-4.6864 MAPS -0.2587
-4.6864 MAR -0.2586
-4.6864 MARBRE -0.2576
-3.7833 MARCH -0.2483
-4.6864 MARGINS -0.2554
-4.6864 MARINER -0.2580
-4.6864 MARIPOSA -0.2348
-4.6864 MARK -0.2573
-4.6864 MARKED -0.2584
-4.6864 MARKET -0.2147
-4.0843 MARRIED -0.5584
-4.0843 MARTHA -0.6024
-4.0843 MARTIN -0.6464
-4.6864 MARTYRDOMS -0.2579
-4.6864 MARVELLOUS -0.2586
-4.3853 MARY -0.2567
-4.6864 MASCULINE -0.2478
-3.8413 MASS -0.2840
-3.9874 MASSAGE -0.5329
-4.2093 MASSES -0.6791
-4.6864 MASSIVE -0.2587
-4.6864 MASSY -0.2586
-4.6864 MASTERED -0.2551
-4.2093 MATCH -0.2078
-4.2093 MATE -0.6459
-3.9082 MATERIAL -0.3900
-4.6864 MATHEMATICIAN -0.2478
-4.6864 MATHEMATICS -0.2147
-3.4311 MATTER -0.2071
-4.3853 MATTERS -0.4331
-4.2093 MATTHEWSON -0.6520
-4.3853 MATURE -0.4722
-4.2093 MAUI -0.6520
-4.3853 MAULED -0.4331
-2.9155 MAY -0.5224
-4.2093 MAYBE -0.2492
-4.6864 MAZARIN -0.2478
-4.6864 MCCLURE -0.2587
-4.0843 MCCOY -0.5156
-4.6864 MCCULLOUGH -0.2478
-4.2093 MCFEE'S -0.6521
-4.2093 MCVEIGH -0.6519
-2.5860 ME -0.5316
-4.3853 MEADOW -0.2118
-4.6864 MEADOWS -0.2587
-4.3853 MEAL -0.4331
-3.4076 MEAN -0.4205
-3.9874 MEANING -0.3028
-4.6864 MEANINGFUL -0.2586
-4.6864 MEANINGS -0.2563
-4.0843 MEANS -0.5010
-4.3853 MEANT -0.2495
-4.2093 MEANWHILE -0.6915
-4.6864 MEAR -0.2587
-4.2093 MEASURE -0.1881
-4.3853 MEASURED -0.4532
-4.6864 MEASURES -0.2567
-4.6864 MEASURING -0.2348
-3.6864 MEAT -0.2791
-4.3853 MECHANICAL -0.2584
-4.6864 MEDIA -0.2587
-4.2093 MEDICAL -0.2586
-4.2093 MEET -0.7298
-4.6864 MEETING -0.2569
-4.6864 MELANCHOLY -0.2586
-4.3853 MELONS -0.4662
-4.6864 MELVILLE -0.2585
-4.3853 MEMBER -0.2227
-4.6864 MEMBERS -0.2472
-4.2093 MEMORIES -0.6081
-4.6864 MEMORY -0.2147
-3.0236 MEN -0.5219
-4.3853 MENACE -0.4680
-4.6864 MENTAL -0.2586
-4.0843 MENTION -0.1987
-4.3853 MENTIONED -0.4756
-4.3853 MERCED -0.2146
-4.0843 MERCEDES -0.6464
-4.6864 MERCIFULLY -0.2587
-4.6864 MERCY -0.2147
-3.8413 MERE -0.5690
-3.7833 MERELY -0.5729
-4.6864 MERIT -0.2472
-4.6864 MERRILY -0.2147
-4.3853 MERRY -0.4771
-4.2093 MESS -0.6081
-4.3853 MESSAGE -0.2136
-4.6864 MESSING -0.2580
-3.8413 MET -0.6213
-4.6864 METAL -0.2581
-4.6864 METALS -0.2147
-4.6864 METEOROLOGY -0.2348
-4.6864 METEORS -0.2478
-3.9874 METHOD -0.5210
-4.2093 METHODS -0.6406
-4.6864 MICROPHONE -0.2147
-3.9874 MIDDLE -0.8513
-4.0843 MIDMORNING -0.6226
-4.6864 MIDST -0.2472
-4.2093 MIDSTREAM -0.6520
-3.1423 MIGHT -0.3577
-4.6864 MILD -0.2587
-4.6864 MILE -0.2537
-3.8413 MILES -0.5877
-4.6864 MILK -0.2478
-4.6864 MILLINERY -0.2478
-4.3853 MILLIONAIRE -0.4771
-3.2240 MIND -0.4802
-4.6864 MINDED -0.2572
-4.6864 MINDS -0.2472
-4.6864 MINERS -0.2567
-4.2093 MINIATURIZED -0.6520
-4.6864 MINING -0.2478
-4.6864 MINOR -0.2587
-4.6864 MINOS -0.2147
-4.6864 MINT -0.2478
-3.4311 MINUTE -0.5428
-3.6864 MINUTES -0.3643
-3.7321 MIRACLE -0.4208
-4.6864 MIRANDA -0.2580
-4.0843 MIRROR -0.6024
-4.6864 MIRTH -0.2587
-4.3853 MISDEMEANOR -0.4662
-3.9082 MISS -0.4337
-4.2093 MISSING -0.6510
-4.6864 MISSIONS -0.2478
-4.2093 MISTAKE -0.6791
-4.6864 MISTAKES -0.2147
-4.3853 MISTLETOE -0.2572
-3.8413 MIXED -0.6332
-4.3853 MIXTURE -0.2470
-4.6864 MOB -0.2584
-4.3853 MOBILE -0.4771
-4.6864 MOBY -0.2587
-4.3853 MOCKERY -0.4331
-4.2093 MODE -0.6406
-4.0843 MODEL -0.4718
-4.6864 MODELS -0.2566
-4.6864 MODERATION -0.2147
-3.6864 MODERN -0.3043
-4.6864 MODESTY -0.2495
-4.6864 MODIFICATION -0.2525
-4.6864 MODIFICATIONS -0.2472
-4.6864 MODIFYING -0.2494
-4.6864 MODULE -0.2579
-3.9874 MOIST -0.2702
-4.6864 MOISTURE -0.2572
-3.8413 MOJOMOVE -0.3420
-3.9874 MOLE -0.2423
-4.6864 MOLE'S -0.2585
-4.6864 MOLECULAR -0.2587
-4.6864 MOLECULES -0.2558
-4.0843 MOLOKAI -0.6024
-3.3853 MOMENT -0.7482
-4.6864 MOMENT'S -0.2587
-3.9874 MOMENTS -0.5302
-3.8413 MOMENTUM -0.6048
-4.3853 MONARCH -0.4771
-4.6864 MONDAY -0.2586
-4.2093 MONEY -0.2560
-4.6864 MONO -0.2478
-4.6864 MONOLOGUE -0.2587
-4.3853 MONOPOLY -0.2573
-4.3853 MONOTONOUS -0.2587
-4.6864 MONOTONY -0.2472
-4.3853 MONTH -0.4709
-4.3853 MONTHS -0.2562
-4.0843 MONTREAL -0.6356
-4.6864 MOOD -0.2147
-3.7321 MOON -0.3086
-4.6864 MOOR -0.2147
-4.6864 MOORHENS -0.2569
-4.2093 MOOSE-BIRDS -0.6501
-4.6864 MORAINE -0.2472
-4.3853 MORAINES -0.2147
-4.6864 MORAL -0.2587
-2.5691 MORE -0.5149
-4.6864 MOREOVER -0.2587
-3.6864 MORNING -0.5463
-4.6864 MORNINGS -0.2147
-4.3853 MORPHOLOGICAL -0.2587
-4.3853 MORPHOLOGY -0.2145
-4.6864 MORTIFICATION -0.2472
-4.6864 MORTON -0.2580
-4.6864 MORVEN -0.2587
-3.2093 MOST -0.4446
-3.4076 MOTHER -0.3984
-3.7833 MOTION -0.3490
-4.0843 MOTIVE -0.4591
-4.6864 MOTIVES -0.2525
-4.0843 MOUNTAINEER -0.6024
-4.2093 MOUNTAINS -0.2144
-3.4823 MOUTH -0.5218
-4.6864 MOUTHFUL -0.2572
-4.6864 MOVE -0.2147
-3.6072 MOVED -1.0322
-4.6864 MOVEMENT -0.2472
-3.6864 MOVEMENTS -0.6599
-4.0843 MOVING -0.5148
-3.5103 MR -0.4475
-3.6864 MRS -0.6339
-2.9229 MUCH -0.3820
-4.3853 MUG -0.2571
-4.6864 MULTIPLE -0.2472
-4.6864 MULTIPLICATION -0.2147
-4.2093 MULTIPLY -0.2205
-3.9874 MURDER -0.3033
-4.6864 MURDERED -0.2584
-4.2093 MURMURED -0.6081
-4.6864 MUSGROVE -0.2525
-4.6864 MUSGROVES -0.2586
-3.9874 MUSIC -0.5272
-4.6864 MUSK -0.2587
-4.6864 MUSLIN -0.2587
-3.1301 MUST -0.5596
-4.6864 MUSTARD -0.2587
-3.9874 MUTTER -0.2702
-4.6864 MUTTERED -0.2538
-4.2093 MUZZLE -0.6520
-2.4850 MY -0.5408
-4.6864 MYRIADS -0.2472
-3.5103 MYSELF -0.3461
-3.9874 MYSTERIOUS -0.5349
-4.6864 MYTHS -0.2554
-4.6864 N -0.2587
-4.6864 NAKATA -0.2567
-4.0843 NAKATA'S -0.6464
-3.5402 NAME -0.5052
-4.3853 NAME'S -0.4771
-3.6864 NAMED -0.3769
-4.6864 NANTUCKET -0.2537
-3.9874 NAOMI -0.2702
-4.6864 NAPKINS -0.2572
-4.2093 NARROW -0.2585
-4.6864 NARROWED -0.2478
-4.6864 NATE -0.2587
-4.0843 NATIVE -0.5124
-3.9082 NATIVES -0.6454
-3.7833 NATURAL -0.5532
-3.9874 NATURE -0.3913
-3.6864 NAUSEATING -0.6612
-4.6864 NAY -0.2587
-3.6450 NEAR -0.6047
-3.5724 NEARER -0.3863
-4.0843 NEAREST -0.6464
-3.7321 NEARLY -0.3883
-4.6864 NEAT -0.2587
-3.9082 NECESSARY -0.6816
-4.6864 NECESSITY -0.2586
-4.0843 NECK -0.4598
-3.2240 NEED -0.3991
-3.8413 NEEDED -0.4117
-4.6864 NEEDFUL -0.2587
-4.3853 NEEDLES -0.2453
-4.0843 NEEDS -0.2481
-4.6864 NEGOTIATED -0.2147
-4.6864 NEIGHBOR -0.2147
-4.6864 NEILSON'S -0.2147
-4.6864 NEITHER -0.2525
-3.9874 NELLY -0.3049
-4.6864 NEPHEW -0.2585
-4.6864 NERO -0.2586
-3.9082 NERVOUS -0.7509
-4.6864 NESTA -0.2580
-4.6864 NET -0.2147
-3.0236 NEVER -0.6460
-4.3853 NEVERTHELESS -0.2524
-3.1066 NEW -0.5197
-4.2093 NEWBORN -0.6521
-4.6864 NEWPORT -0.2575
-3.9082 NEWS -0.6080
-4.6864 NEWSPAPERS -0.2147
-3.4823 NEXT -0.3384
-3.9082 NICE -0.3914
-4.2093 NICER -0.6429
-4.0843 NICHOLAS -0.6463
-4.6864 NIECE -0.2472
-3.4823 NIGHT -0.5084
-4.3853 NIIHAU -0.4769
-4.3853 NIMROD -0.4769
-3.9874 NINE -0.2130
-3.8413 NINETEEN -0.3421
-4.6864 NINETEENTH -0.2586
-4.0843 NINTH -0.5152
-4.6864 NISUS -0.2147
-4.6864 NITROGEN -0.2478
-2.4534 NO -0.5223
-4.2093 NO-SIR-EE -0.6081
-4.0843 NOBLE -0.2565
-4.6864 NOBLEST -0.2585
-3.6864 NOBODY -0.4851
-3.6864 NODDED -0.5830
-3.7833 NOISE -0.5253
-4.6864 NOMINAL -0.2568
-4.2093 NONE -0.2113
-4.6864 NONENTITY -0.2147
-4.6864 NOON -0.2147
-4.2093 NOPE -0.6498
-3.6072 NOR -0.3908
-4.6864 NORMALLY -0.2544
-4.2093 NORSEMEN -0.6520
-3.5402 NORTH -0.5935
-3.9082 NORTHERN -0.4346
-4.2093 NOSE -0.2140
-2.2867 NOT -0.4301
-4.3853 NOTATION -0.2091
-4.6864 NOTATIONAL -0.2587
-3.9874 NOTED -0.3131
-4.6864 NOTES -0.2472
-3.0953 NOTHING -0.5786
-4.3853 NOTICE -0.2138
-4.2093 NOTICED -0.6459
-4.3853 NOTIFICATION -0.4771
-4.6864 NOTION -0.2472
-4.6864 NOTWITHSTANDING -0.2581
-4.6864 NOURISHMENT -0.2147
-4.6864 NOUVEAUX -0.2586
-4.2093 NOVEL -0.6428
-4.3853 NOVELTY -0.2463
-2.5965 NOW -0.4106
-4.3853 NOWHERE -0.2432
-3.5724 NUMBER -0.3051
-4.6864 NUMBERS -0.2147
-4.3853 NUMEROUS -0.2551
-4.3853 NURSERY -0.2091
-4.3853 O -0.2578
-3.4823 O'BRIEN -0.8684
-4.0843 OAHU -0.6024
-4.6864 OAK -0.2538
-4.0843 OAKLAND -0.6451
-3.9874 OATHS -0.3122
-4.0843 OBEDIENCE -0.6024
-4.0843 OBEDIENT -0.6464
-3.9082 OBEDIENTLY -0.8095
-4.3853 OBEY -0.4331
-3.6072 OBEYED -0.4259
-3.6864 OBJECT -0.4092
-4.3853 OBJECTION -0.2494
-4.6864 OBJECTS -0.2147
-4.6864 OBLIGATION -0.2587
-4.3853 OBLIGED -0.4680
-4.6864 OBSCURE -0.2478
-4.6864 OBSCURED -0.2572
-4.6864 OBSERVATION -0.2478
-4.6864 OBSERVATIONS -0.2583
-4.3853 OBSERVE -0.4761
-3.9874 OBSERVED -0.9269
-3.9082 OBTAIN -0.2501
-4.3853 OBVIOUS -0.2582
-4.2093 OBVIOUSLY -0.2524
-4.2093 OCCASION -0.7308
-4.6864 OCCASIONS -0.2579
-3.9874 OCCUPANTS -0.3135
-4.3853 OCCUPIED -0.2332
-4.6864 OCCUR -0.2525
-3.5402 OCCURRED -1.1216
-4.6864 OCCURRENCE -0.2472
-4.0843 OCCURRING -0.6024
-4.6864 OCCURS -0.2576
-4.6864 OCEAN -0.2147
-4.3853 OCEANSIDE -0.4771
-4.6864 OCTOBER -0.2587
-4.6864 ODD -0.2586
-4.6864 ODDLY -0.2587
-1.5843 OF -0.5935
-2.9788 OFF -0.6859
-4.6864 OFFENSE -0.2147
-3.9082 OFFER -0.4356
-4.6864 OFFERING -0.2581
-4.6864 OFFERS -0.2494
-3.9082 OFFICE -0.6468
-4.6864 OFFICER -0.2572
-4.2093 OFFICIAL -0.7354
-4.3853 OFFSET -0.4532
-3.6072 OFTEN -0.4110
-4.6864 OFTENTIMES -0.2567
-3.6072 OH -0.3818
-4.6864 OHIO -0.2147
-3.4076 OIL -0.7374
-4.0843 OILERS -0.6356
-4.3853 OK -0.4331
-3.0953 OLD -0.3799
-4.6864 OLDER -0.2585
-3.8413 OLIGARCHY -0.4593
-4.0843 OMINOUS -0.6464
-4.3853 OMISSIONS -0.4762
-2.3228 ON -0.6862
-4.0843 ON-SCREEN -0.5158
-3.2884 ONCE -0.4391
-2.4989 ONE -0.4327
-4.6864 ONE'S -0.2586
-4.0843 ONE-LEGGED -0.6462
-4.3853 ONES -0.2558
-4.3853 ONLINE -0.4770
-2.7779 ONLY -0.4349
-3.9874 ONTO -0.8720
-4.6864 ONTOLOGICAL -0.2587
-4.3853 OOLONG -0.4771
-4.6864 OONA -0.2478
-4.6864 OOZE -0.2147
-4.2093 OOZING -0.6520
-3.3062 OPEN -0.4010
-4.0843 OPENED -0.5336
-4.6864 OPENING -0.2584
-4.6864 OPERATED -0.2554
-4.6864 OPERATING -0.2583
-4.2093 OPERATION -0.2068
-3.9874 OPERATIONS -0.4901
-3.8413 OPINION -0.5803
-4.6864 OPIUM -0.2563
-4.3853 OPPONENTS -0.4770
-4.6864 OPPORTUNITY -0.2147
-3.8413 OPPOSITE -0.5617
-4.3853 OPPOSITION -0.4331
-3.9874 OPPRESSION -0.2702
-3.9082 OPPRESSIVE -0.6060
-4.3853 OPTION -0.2142
-4.6864 OPTIONAL -0.2147
-2.4823 OR -0.3691
-4.3853 ORANGE -0.2572
-4.2093 ORANGE-GREEN -0.6521
-4.6864 ORCHARD -0.2568
-4.6864 ORCHESTRA -0.2584
-4.3853 ORDAINED -0.4770
-3.7321 ORDER -0.7234
-3.8413 ORDERED -0.2882
-4.3853 ORDERS -0.2125
-4.6864 ORDINARY -0.2587
-4.6864 OREGON -0.2472
-4.2093 ORG -0.6917
-4.2093 ORGANIC -0.6520
-4.6864 ORGANISATION -0.2147
-4.6864 ORGANISED -0.2587
-4.3853 ORGANIZATIONS -0.2124
-3.9082 ORGANIZED -0.7400
-4.3853 ORIGIN -0.2378
-4.6864 ORIGINAL -0.2586
-4.3853 ORIGINATE -0.4738
-4.6864 ORNAMENT -0.2147
-4.6864 ORPHANS -0.2147
-4.6864 ORTHODOXY -0.2587
-2.8940 OTHER -0.3249
-4.0843 OTHER'S -0.5154
-3.5724 OTHERS -0.9777
-3.9874 OTHERWISE -0.4017
-4.3853 OTTER -0.4331
-4.3853 OTTERS -0.2587
-3.9082 OUGHT -0.7684
-2.9010 OUR -0.4903
-3.2884 OURSELVES -0.8623
-2.6145 OUT -0.7897
-4.0843 OUTBURSTS -0.6445
-4.0843 OUTER -0.6463
-4.6864 OUTLINE -0.2537
-4.3853 OUTPUT -0.2147
-4.2093 OUTRAGEOUS -0.7358
-4.3853 OUTRUN -0.4761
-4.6864 OUTSET -0.2568
-3.9874 OUTSIDE -0.4924
-4.2093 OUTSIDERS -0.6497
-3.8413 OUTSTRETCHED -0.3420
-4.6864 OUTWARD -0.2587
-4.3853 OUTWARDLY -0.4711
-2.9874 OVER -0.5089
-4.3853 OVERESTIMATED -0.4736
-3.9874 OVERFLOWING -0.2702
-4.0843 OVERHEAD -0.6024
-4.6864 OVERLAP -0.2554
-4.6864 OVERLAPPING -0.2584
-4.6864 OVERRATE -0.2348
-4.0843 OVERSEER -0.6024
-4.3853 OVERT -0.4771
-3.9874 OVERTURES -0.2702
-4.2093 OVERWHELMED -0.6510
-4.0843 OW -0.6371
-3.9874 OWE -0.3100
-4.6864 OWED -0.2577
-3.9082 OWL -0.2536
-3.9082 OWLS -0.7490
-3.2392 OWN -0.4511
-4.6864 OWNER -0.2587
-4.6864 OWNING -0.2537
-4.0843 OYSTER -0.6464
-3.9874 OYSTERS -0.4857
-4.6864 PACE -0.2147
-4.6864 PACKAGES -0.2563
-4.2093 PACKARD'S -0.6520
-4.2093 PADDLING -0.6081
-4.2093 PAGE -0.6081
-3.7833 PAID -0.5543
-3.9082 PAIN -0.4283
-4.3853 PAINS -0.4769
-4.6864 PAINT -0.2586
-3.9874 PAIR -0.8625
-3.9082 PALACE -0.7509
-4.6864 PALAEONTOLOGY -0.2577
-4.6864 PALISADES -0.2147
-4.6864 PALL -0.2587
-4.3853 PALM -0.4331
-4.3853 PALS -0.2120
-3.8413 PAN -0.2982
-4.6864 PANTING -0.2586
-4.2093 PAPER -0.6081
-4.6864 PARALLEL -0.2348
-4.6864 PARASITISM -0.2147
-4.0843 PARDON -0.6483
-4.6864 PARENTS -0.2147
-4.0843 PARIAH -0.6371
-4.6864 PARSEE'S -0.2587
-3.2550 PART -1.2811
-3.7321 PARTICULAR -0.2834
-4.3853 PARTICULARLY -0.2582
-4.3853 PARTIES -0.2572
-3.9874 PARTING -0.3142
-4.2093 PARTLY -0.6501
-3.9082 PARTNERS -0.2577
-4.3853 PARTNERSHIP -0.4738
-4.2093 PARTS -0.7243
-3.9082 PARTY -0.4147
-3.9874 PASCAL -0.4923
-4.6864 PASCAL'S -0.2587
-4.3853 PASQUINI -0.4331
-3.5724 PASS -0.4379
-3.9082 PASSAGE -0.7168
-3.2714 PASSED -0.6278
-4.6864 PASSER -0.2572
-4.6864 PASSES -0.2580
-4.2093 PASSIONATELY -0.6521
-4.3853 PAST -0.2147
-4.6864 PAT -0.2587
-3.9874 PATH -0.3141
-4.3853 PATHETIC -0.4709
-4.6864 PATHOS -0.2472
-4.6864 PATIENCE -0.2558
-4.0843 PATIENTLY -0.6464
-4.6864 PATROL -0.2147
-4.0843 PAULINA -0.5156
-3.7833 PAUSED -0.2836
-4.6864 PAUSING -0.2584
-4.6864 PAUTE -0.2587
-4.6864 PAVEMENT -0.2572
-3.6864 PAW -0.6598
-3.7833 PAY -0.5227
-4.6864 PAYBACK -0.2147
-4.3853 PAYING -0.4757
-4.0843 PC -0.5134
-3.9874 PEACE -0.8993
-4.6864 PEAKS -0.2147
-4.3853 PEARCE'S -0.4766
-4.6864 PEAS -0.2587
-4.3853 PECK -0.4771
-4.2093 PECULIAR -0.2587
-4.3853 PEELED -0.4767
-4.6864 PENCIL -0.2147
-4.6864 PENETRATING -0.2584
-4.2093 PENT -0.6519
-4.6864 PENURY -0.2147
-3.1812 PEOPLE -0.3559
-4.6864 PEOPLES -0.2579
-3.6450 PER -0.4792
-4.6864 PERENNIAL -0.2587
-4.6864 PERFECTLY -0.2585
-4.3853 PERFORM -0.2560
-4.6864 PERFORMANCE -0.2478
-4.0843 PERFORMED -0.4686
-4.0843 PERFUME -0.6464
-3.5402 PERHAPS -0.5250
-3.9874 PERIOD -0.8939
-4.6864 PERKINS -0.2580
-4.6864 PERMANENTLY -0.2147
-4.6864 PERMISSION -0.2587
-4.2093 PERPETUAL -0.6521
-4.6864 PERPETUATE -0.2348
-4.0843 PERRAULT -0.4716
-4.6864 PERRY -0.2549
-4.6864 PERSIAN -0.2584
-4.3853 PERSISTENT -0.4331
-3.7833 PERSON -0.2928
-3.9874 PERSONAL -0.4507
-4.3853 PERSONIFICATION -0.4657
-4.6864 PERSONS -0.2147
-4.6864 PERSUADE -0.2568
-4.6864 PERVADES -0.2348
-4.6864 PERVERSITY -0.2472
-4.6864 PETALS -0.2568
-4.2093 PETER -0.2585
-4.3853 PETERBOROUGH -0.4770
-3.9082 PETITIONED -0.7480
-4.6864 PHASE -0.2147
-4.0843 PHENOMENA -0.5043
-3.6864 PHENOMENON -1.2583
-3.9082 PHIL -0.2538
-2.9621 PHILIP -0.7097
-4.2093 PHILIP'S -0.6520
-4.6864 PHILISTINES -0.2478
-4.3853 PHILOSOPHIC -0.2586
-4.3853 PHILOSOPHY -0.2043
-3.8413 PHONE -0.4001
-3.9874 PHONES -0.4919
-4.6864 PHOSPHATES -0.2568
-4.3853 PHOTOGRAPHY -0.2421
-4.6864 PHRASES -0.2586
-4.6864 PHYLOGENY -0.2577
-3.4823 PHYSICAL -0.4005
-3.7321 PHYSICALLY -0.9560
-4.2093 PHYSICISTS -0.2339
-4.6864 PHYSICO -0.2586
-4.6864 PHYSICS -0.2478
-4.6864 PHYSIOLOGY -0.2472
-4.6864 PHYSIQUE -0.2147
-4.6864 PIANO -0.2569
-3.9082 PICKED -0.2999
-4.6864 PICKING -0.2579
-4.6864 PICKLED -0.2587
-3.6864 PICTURE -0.3640
-4.6864 PICTURESQUE -0.2586
-4.3853 PIECE -0.4657
-3.4076 PIERRE -0.4097
-4.0843 PIERRE'S -0.5154
-4.6864 PIGWEED -0.2478
-4.6864 PIKES -0.2147
-4.6864 PILLOW -0.2585
-4.6864 PINCERS -0.2478
-3.5402 PINE -0.3223
-4.3853 PINES -0.2120
-4.3853 PINUS -0.2587
-4.6864 PIOUS -0.2586
-4.3853 PIPE -0.4662
-4.6864 PIPER -0.2586
-4.0843 PIPES -0.6403
-4.0843 PIRATES -0.6464
-4.6864 PIS -0.2587
-4.6864 PITCHED -0.2584
-4.2093 PITS -0.6081
-4.6864 PITY -0.2558
-3.4311 PLACE -0.6913
-3.8413 PLACED -0.6310
-4.2093 PLACES -0.7296
-3.7321 PLAIN -0.2872
-4.6864 PLAINS -0.2567
-4.3853 PLAN -0.4331
-4.6864 PLANE -0.2147
-4.6864 PLANKS -0.2587
-4.2093 PLANS -0.7324
-4.6864 PLANTAIN -0.2478
-4.6864 PLANTED -0.2566
-4.2093 PLANTERS -0.6497
-4.3853 PLANTS -0.2453
-4.6864 PLASTER -0.2566
-4.3853 PLATE -0.2026
-4.3853 PLAUSIBLE -0.4680
-3.7321 PLAY -0.3036
-4.6864 PLAYED -0.2587
-4.0843 PLAYER -0.6226
-3.7833 PLAYING -0.3563
-4.6864 PLEASANTLY -0.2147
-3.5724 PLEASE -0.5338
-3.7833 PLEASURE -0.2741
-4.2093 PLENTIFUL -0.6797
-3.5724 PLENTY -1.3548
-4.3853 PLODDED -0.4751
-4.6864 PLOTTED -0.2586
-4.0843 PLUGGED -0.6461
-4.2093 PLUMB -0.6521
-4.3853 PLUMES -0.2146
-4.3853 PLUS -0.2587
-4.3853 PNEUMONIA -0.4331
-4.6864 POACHED -0.2587
-4.6864 POCKET -0.2587
-4.3853 POEM -0.4331
-4.3853 POET -0.2045
-4.6864 POETRY -0.2587
-3.9874 POINT -0.9071
-4.6864 POINTED -0.2576
-4.2093 POINTING -0.6488
-3.9874 POINTS -0.5155
-4.2093 POISE -0.6412
-4.2093 POISONOUS -0.6520
-4.6864 POKED -0.2551
-4.0843 POLAR -0.5157
-4.6864 POLARITY -0.2147
-4.3853 POLE -0.2146
-4.6864 POLITIC -0.2472
-4.3853 POLITICAL -0.2572
-4.6864 POND -0.2576
-4.6864 PONDEROSA -0.2147
-4.6864 POOHPOOH -0.2587
-4.6864 POOL -0.2472
-3.5402 POOR -0.4640
-4.6864 POPULAR -0.2587
-4.6864 POPULATION -0.2472
-4.0843 PORRIDGE -0.6464
-4.3853 PORTION -0.4657
-4.0843 PORTUGUESE -0.6462
-3.6864 POSITION -0.5842
-4.6864 POSITIONS -0.2472
-4.2093 POSITIVELY -0.6521
-4.3853 POSSESS -0.4768
-3.9874 POSSESSED -0.3051
-4.0843 POSSESSION -0.6350
-4.3853 POSSESSIONS -0.2045
-3.9082 POSSIBILITY -0.2866
-3.7321 POSSIBLE -0.4365
-4.3853 POST -0.4771
-4.6864 POSTULATE -0.2147
-4.6864 POSTULATES -0.2147
-3.9874 POT -0.3028
-4.6864 POTATOES -0.2147
-4.6864 POTENTIAL -0.2587
-4.6864 POTS -0.2566
-4.6864 POTTED -0.2586
-4.6864 POUNCED -0.2582
-3.9082 POUND -0.7395
-4.3853 POUNDED -0.4709
-3.6864 POUNDS -0.5347
-4.6864 POUR -0.2587
-4.3853 POURED -0.2575
-4.6864 POVERTY -0.2587
-4.6864 POWDER -0.2573
-3.5103 POWER -0.3658
-3.8413 POWERFUL -1.0200
-4.6864 POWERS -0.2472
-4.2093 PRACTICAL -0.2582
-4.6864 PRACTICALLY -0.2147
-4.0843 PRACTICE -0.6024
-4.6864 PRAIRIES -0.2525
-4.6864 PRAISE -0.2587
-4.6864 PRATTLE -0.2147
-3.9874 PRAYERS -0.3033
-4.2093 PREACHERS -0.6472
-4.0843 PRECEDING -0.5156
-4.6864 PRECIS -0.2472
-4.3853 PRECISION -0.2026
-4.2093 PREDISPOSITION -0.6520
-4.3853 PREFERRED -0.4678
-4.3853 PREFERRING -0.4680
-4.3853 PREJUDICES -0.4331
-4.6864 PREPARED -0.2558
-4.3853 PREPARING -0.2576
-4.2093 PREPOSTEROUS -0.6081
-4.6864 PREROGATIVE -0.2472
-4.0843 PRESAGE -0.6350
-4.6864 PRESCRIPTIONS -0.2558
-4.2093 PRESENCE -0.6791
-3.5724 PRESENT -0.2403
-4.6864 PRESENTED -0.2495
-4.2093 PRESIDENT -0.6406
-4.6864 PRESIDENTIAL -0.2586
-4.6864 PRESSING -0.2584
-4.0843 PRESSURE -0.6350
-4.6864 PRESTIGE -0.2586
-4.6864 PRESUMPTION -0.2579
-3.9082 PRETTY -0.7256
-4.2093 PREVAILED -0.6081
-4.6864 PREVENT -0.2549
-4.6864 PREVENTION -0.2147
-4.3853 PREVIOUS -0.4771
-3.6864 PRICE -0.3099
-4.6864 PRICES -0.2563
-3.8413 PRIDE -0.5928
-3.9082 PRIMARILY -0.2953
-3.9874 PRIMARY -0.4693
-4.6864 PRIMATE -0.2478
-4.3853 PRIME -0.2433
-4.6864 PRIMEVAL -0.2586
-4.3853 PRINCESS -0.4771
-4.6864 PRINCIPAL -0.2586
-4.6864 PRINCIPLE -0.2537
-4.6864 PRINCIPLES -0.2472
-3.8413 PRINT -0.6264
-4.6864 PRINTED -0.2587
-4.6864 PRIOR -0.2495
-4.2093 PRISM -0.6412
-4.3853 PRISON -0.4331
-4.6864 PRISONER -0.2525
-4.0843 PRIVATE -0.6464
-4.6864 PRIVILEGE -0.2472
-3.8413 PRIVILEGES -0.5806
-4.3853 PROBABLE -0.2488
-3.9874 PROBABLY -0.2461
-4.2093 PROBLEM -0.2134
-4.6864 PROBLEMS -0.2472
-4.6864 PROCEDURE -0.2537
-4.6864 PROCEED -0.2495
-4.3853 PROCEEDED -0.2494
-4.6864 PROCEEDING -0.2525
-4.3853 PROCESS -0.2020
-4.6864 PROCESSED -0.2147
-3.9082 PROCESSES -0.2594
-4.6864 PROCESSING -0.2587
-4.6864 PROCLAIMS -0.2348
-4.6864 PROCTOR -0.2585
-4.6864 PROCURATION -0.2147
-4.3853 PRODUCE -0.2568
-4.2093 PRODUCED -0.6428
-4.2093 PRODUCES -0.6521
-4.2093 PRODUCING -0.6521
-4.6864 PRODUCT -0.2472
-4.6864 PRODUCTION -0.2537
-4.3853 PRODUCTS -0.2146
-4.6864 PROFESSION -0.2525
-4.6864 PROFESSIONAL -0.2587
-4.6864 PROFILE -0.2558
-3.9874 PROFIT -0.2702
-4.6864 PROFOUNDLY -0.2587
-4.3853 PROGRAM -0.4331
-4.2093 PROGRAMMER -0.7119
-4.0843 PROGRAMS -0.6024
-4.0843 PROGRESS -0.5096
-4.6864 PROGRESSED -0.2147
-4.6864 PROGRESSIVE -0.2587
-4.6864 PROJECT -0.2147
-4.6864 PROJECTILES -0.2495
-4.6864 PROJECTS -0.2472
-4.6864 PROLIFIC -0.2147
-4.3853 PROMINENCE -0.4657
-4.6864 PROMINENCES -0.2472
-3.9874 PROMISE -0.9407
-4.2093 PROMISED -0.2141
-4.3853 PROMOTED -0.2146
-4.2093 PROMPTED -0.6081
-4.6864 PROMPTLY -0.2147
-4.2093 PRONGS -0.2133
-4.3853 PROOF -0.2415
-4.2093 PROPER -0.7356
-4.6864 PROPEREST -0.2586
-4.3853 PROPERLY -0.4331
-4.6864 PROPERTIES -0.2587
-4.0843 PROPERTY -0.4598
-4.3853 PROPHET -0.4768
-4.6864 PROPORTIONAL -0.2587
-4.3853 PROPOSED -0.4771
-4.3853 PROPOSITION -0.4733
-4.6864 PROPOSITIONAL -0.2587
-4.6864 PROPOSITIONS -0.2147
-4.6864 PROPPED -0.2566
-4.6864 PROSPECT -0.2472
-4.6864 PROSPECTS -0.2147
-4.0843 PROSPERED -0.6024
-3.9874 PROSTRATE -0.9569
-3.9082 PROSTRATION -0.7069
-4.2093 PROTECT -0.2143
-4.6864 PROTECTED -0.2572
-4.6864 PROTECTING -0.2147
-4.6864 PROTECTION -0.2568
-4.6864 PROTECTIVE -0.2587
-4.6864 PROTEGE -0.2147
-4.6864 PROUD -0.2583
-4.6864 PROUDLY -0.2587
-4.6864 PROVE -0.2549
-3.9874 PROVED -0.3905
-4.6864 PROVERB -0.2147
-4.2093 PROVIDED -0.1809
-4.6864 PROVIDENCE -0.2562
-4.3853 PROVINCE -0.2131
-4.3853 PROVOCATEURS -0.4680
-4.6864 PROVOCATIVE -0.2472
-3.9082 PSYCHOLOGY -0.8106
-3.7321 PUBLIC -0.7454
-4.6864 PUBLICATION -0.2472
-4.6864 PUBLICATIONS -0.2566
-4.6864 PUBLISHED -0.2525
-4.6864 PUDDING -0.2572
-3.7321 PULLED -0.6487
-4.6864 PULSE -0.2587
-4.0843 PUMP -0.6457
-4.3853 PUNISHED -0.4771
-4.2093 PURPOSE -0.6897
-4.6864 PURPOSES -0.2147
-4.0843 PURSUE -0.4905
-4.6864 PURSUED -0.2478
-4.6864 PURSUIT -0.2472
-3.5103 PUT -0.5266
-4.3853 PUTS -0.4678
-4.2093 PUTTING -0.2553
-4.0843 PUZZLED -0.6460
-4.3853 PYTHON -0.4770
-4.6864 QUADRUPLING -0.2583
-4.6864 QUALIFICATIONS -0.2147
-4.6864 QUANTITATIVE -0.2587
-4.6864 QUANTITIES -0.2472
-4.2093 QUANTITY -0.7241
-4.2093 QUARREL -0.6081
-3.9082 QUARTER -0.6406
-3.7833 QUESTION -0.2984
-3.9874 QUESTIONS -0.3137
-3.9874 QUICK -0.5297
-3.6450 QUICKLY -0.5752
-4.3853 QUIET -0.2547
-4.0843 QUIETLY -0.5136
-3.4823 QUITE -0.4657
-4.6864 QUIVER -0.2472
-4.2093 QUIVERING -0.6081
-4.2093 QUOTATIONS -0.6849
-4.6864 QUOTE -0.2147
-4.3853 QUOTING -0.4678
-4.2093 RABBIT -0.6911
-4.6864 RACE -0.2537
-4.6864 RADIOMETER -0.2147
-3.8413 RAFTERS -0.3402
-3.9082 RAGE -0.2983
-4.3853 RAIDED -0.4532
-4.3853 RAIL -0.4331
-4.0843 RAILROAD -0.5585
-3.9874 RAILWAY -0.3142
-3.6450 RAIN -1.0352
-3.2392 RAINBOW -0.5226
-4.2093 RAINBOWS -0.6081
-3.9082 RAINDROPS -0.6449
-4.0843 RAINY -0.6460
-4.0843 RAISED -0.5140
-4.6864 RAMBLING -0.2568
-4.6864 RAN -0.2348
-4.3853 RANCH -0.4764
-3.9082 RANCHO -0.6349
-4.3853 RANG -0.2576
-4.6864 RANGE -0.2587
-4.3853 RANGED -0.4532
-3.9082 RAOUL -0.8224
-4.6864 RAPACITY -0.2472
-4.6864 RAPID -0.2587
-4.2093 RAPIDLY -0.6797
-4.6864 RAPTURE -0.2147
-3.9874 RARE -0.4679
-4.6864 RARELY -0.2585
-3.4311 RAT -0.3806
-3.9874 RATE -0.5235
-3.6450 RATHER -0.4092
-4.6864 RATIONAL -0.2586
-3.8413 RATS -0.6803
-4.6864 RATS' -0.2586
-4.6864 RAW -0.2587
-3.8413 RAYS -0.6368
-4.0843 RE-ENTERED -0.6226
-3.6450 REACH -0.5562
-4.2093 REACHED -0.2534
-3.4076 READ -0.3417
-3.7321 READY -0.7006
-3.9874 REAL-ESTATE -0.2702
-4.6864 REALISED -0.2147
-3.7321 REALLY -0.3643
-3.8413 REASON -0.5149
-4.6864 REASONS -0.2558
-4.6864 REBECCA'S -0.2586
-4.6864 REBEL -0.2478
-3.9874 REBELLED -0.2702
-4.2093 REBELLIOUS -0.6081
-4.6864 RECEIVE -0.2568
-4.3853 RECEIVED -0.2531
-4.6864 RECEIVES -0.2573
-4.6864 RECENT -0.2587
-4.3853 RECEPTION -0.2510
-3.9082 RECOGNITION -0.7978
-4.6864 RECOGNIZE -0.2586
-4.3853 RECOGNIZING -0.4722
-4.6864 RECOLLECTION -0.2573
-4.6864 RECOMMEND -0.2569
-4.6864 RECONCILED -0.2580
-4.2093 RECORD -0.2007
-3.8413 RECORDING -0.6313
-4.2093 RECORDINGS -0.6497
-4.6864 RECORDS -0.2472
-4.6864 RECOVER -0.2580
-3.4311 RED -0.5171
-3.9082 RED-EYE -0.8220
-3.6864 RED-EYE'S -0.4134
-4.6864 REDDISH -0.2586
-4.6864 REDDY -0.2587
-4.6864 REDHEADED -0.2586
-4.6864 REDIRECTED -0.2495
-4.6864 REDUCES -0.2147
-4.6864 REDUCTION -0.2472
-4.6864 REDUCTIONS -0.2579
-4.6864 REEXTEND -0.2585
-4.2093 REFERENCE -0.7266
-4.3853 REFINEMENT -0.4331
-4.3853 REFLECTED -0.2528
-3.9874 REFLECTION -0.3939
-4.2093 REFRACTION -0.6506
-3.9874 REFUGE -0.4920
-4.2093 REFUGEE -0.6496
-4.6864 REFUSED -0.2495
-4.3853 REGARDED -0.4752
-4.6864 REGION -0.2147
-3.9082 REGIONS -0.3680
-3.9874 REGRET -0.4855
-3.6864 REGULAR -0.4087
-4.6864 REGULARITY -0.2147
-4.6864 REGULARLY -0.2586
-4.6864 REGULATING -0.2348
-4.6864 REIN -0.2587
-4.6864 RELATE -0.2147
-4.2093 RELATION -0.7264
-4.6864 RELATIONS -0.2478
-4.6864 RELATIONSHIP -0.2472
-4.3853 RELATIVE -0.2585
-4.2093 RELAXED -0.6503
-4.3853 RELAXING -0.4771
-4.6864 RELAYED -0.2572
-4.3853 RELEASED -0.4767
-3.9874 RELIANCE -0.3999
-4.6864 RELIEF -0.2584
-4.6864 RELIEVED -0.2348
-4.6864 REMAIN -0.2525
-3.4311 REMAINED -0.4509
-4.0843 REMARKABLE -0.2347
-3.4311 REMEMBER -0.8650
-3.9874 REMEMBERED -0.8486
-4.3853 REMINDS -0.4760
-4.3853 REMOTE -0.2146
-4.6864 REMOVABLE -0.2586
-4.6864 REMOVAL -0.2472
-4.2093 REMOVED -0.7328
-4.6864 REMOVING -0.2348
-4.6864 RENDER -0.2495
-4.3853 RENDERED -0.2348
-4.3853 RENDEZVOUS -0.4657
-4.6864 RENEWED -0.2587
-4.6864 RENTS -0.2587
-4.0843 REORGANIZATION -0.4591
-4.6864 REPEAT -0.2586
-4.6864 REPEATEDLY -0.2572
-4.6864 REPELLENT -0.2586
-4.6864 REPLACE -0.2586
-4.6864 REPLACED -0.2147
-3.2714 REPLIED -0.4953
-3.7833 REPLY -0.5200
-4.6864 REPORT -0.2147
-4.3853 REPORTS -0.4760
-4.6864 REPOSE -0.2147
-4.6864 REPREHENDED -0.2577
-4.3853 REPRESENT -0.4532
-4.6864 REPRESENTATIONS -0.2563
-4.0843 REPRESENTATIVE -0.2012
-4.6864 REPRESENTATIVES -0.2558
-4.6864 REPRESENTED -0.2572
-4.6864 REPRESENTING -0.2348
-4.6864 REPRESENTS -0.2348
-4.6864 REPRIMANDED -0.2147
-4.0843 REPRODUCED -0.6403
-4.3853 REPRODUCTION -0.2120
-4.6864 REPULSION -0.2563
-4.2093 REPULSIVE -0.2145
-4.6864 REPUTATION -0.2495
-4.2093 REQUIRE -0.6520
-4.3853 REQUIRED -0.2558
-4.6864 REQUIREMENTS -0.2147
-4.2093 REQUIRES -0.7311
-4.6864 RESEARCHES -0.2147
-3.7833 RESEMBLANCE -0.9102
-4.3853 RESEMBLED -0.4771
-4.3853 RESEMBLES -0.4771
-4.6864 RESERVE -0.2577
-4.2093 RESIDENT -0.6521
-4.6864 RESIDUAL -0.2587
-4.6864 RESISTANT -0.2147
-4.2093 RESISTED -0.6471
-4.3853 RESOLUTIONS -0.2470
-4.6864 RESOLVED -0.2586
-4.3853 RESOURCE -0.4662
-3.9874 RESOURCES -0.2702
-4.2093 RESPECT -0.2492
-4.2093 RESPECTFUL -0.6520
-4.6864 RESPECTFULLY -0.2564
-4.3853 RESPOND -0.4680
-4.6864 RESPONSIBLE -0.2147
-3.4559 REST -0.3447
-4.6864 RESTAURANTS -0.2147
-3.9874 RESTED -0.8648
-4.6864 RESTORATION -0.2472
-4.6864 RESTRAINS -0.2582
-4.2093 RESTRICTION -0.6471
-4.6864 RESTRICTIONS -0.2587
-4.3853 RESTS -0.4738
-3.8413 RESULT -0.2842
-4.3853 RESULTS -0.4657
-4.6864 RESUME -0.2576
-4.2093 RESUMED -0.6485
-4.6864 RETENTION -0.2472
-3.8413 RETORTED -0.5923
-4.6864 RETRANSMITTED -0.2586
-4.6864 RETREAT -0.2472
-4.0843 RETURN -0.5497
-4.6864 RETURNED -0.2478
-4.6864 REVEALED -0.2580
-4.3853 REVELATION -0.4331
-3.7833 REVENGE -0.4082
-4.6864 REVERENTIALLY -0.2472
-3.7833 REVIEW -0.5258
-4.6864 REVIVED -0.2478
-4.2093 REVOLUTION -0.6916
-4.2093 REVOLUTIONISTS -0.6081
-4.0843 REVOLVERS -0.6356
-4.2093 REWARD -0.6913
-4.6864 RHINOCEROS'S -0.2586
-4.0843 RHYTHM -0.6024
-4.6864 RICH -0.2586
-4.6864 RICHARD -0.2525
-4.6864 RICHARD'S -0.2587
-4.6864 RID -0.2472
-4.2093 RIDER -0.6081
-3.7833 RIDGE -0.5760
-4.6864 RIDGES -0.2478
-3.9874 RIDING -0.4923
-4.2093 RIFLE-SHOT -0.6518
-3.9874 RIFLES -0.4897
-4.6864 RIGGING -0.2587
-3.0236 RIGHT -0.4065
-4.6864 RIGHTFUL -0.2587
-4.3853 RIGHTS -0.2378
-4.3853 RIND -0.4764
-3.9082 RING -0.7395
-4.6864 RINGING -0.2472
-4.3853 RINGS -0.2110
-4.2093 RIPPING -0.6412
-4.6864 RIPPLING -0.2587
-4.6864 RISE -0.2586
-3.9874 RISING -0.5352
-4.6864 RISK -0.2147
-4.3853 RIVAL -0.2472
-4.6864 RIVALS -0.2568
-3.5402 RIVER -0.2687
-4.6864 RIVERBORO -0.2566
-3.9082 ROAD -0.4318
-4.2093 ROADMATE -0.6519
-4.3853 ROADS -0.4331
-4.2093 ROAR -0.6876
-4.6864 ROARED -0.2525
-4.6864 ROARING -0.2578
-4.0843 ROBBED -0.5145
-4.3853 ROBBERY -0.4771
-4.6864 ROBERT -0.2587
-4.3853 ROBERTS -0.4331
-3.8413 ROBES -0.3393
-4.3853 ROBUST -0.4771
-3.5103 ROCK -1.1601
-3.9082 ROCKS -0.7069
-4.6864 ROCKY -0.2587
-4.3853 RODE -0.4764
-4.6864 RODS -0.2478
-4.6864 ROE -0.2572
-4.2093 ROGERS -0.6081
-3.8413 ROLLED -0.5107
-3.7833 ROLLING -0.9316
-4.6864 ROLLS -0.2587
-4.6864 ROMANTIC -0.2587
-4.6864 ROME -0.2478
-3.9874 ROOF -0.3137
-3.6072 ROOM -0.3901
-4.6864 ROOT -0.2587
-4.3853 ROSCOE -0.4710
-4.3853 ROSE -0.4680
-4.6864 ROSETTED -0.2147
-4.2093 ROT -0.6081
-3.8413 ROTTEN -0.3408
-4.6864 ROUE -0.2587
-4.6864 ROUGH -0.2544
-3.6450 ROUND -0.3186
-4.6864 ROUTINE -0.2472
-4.6864 ROWER -0.2494
-4.6864 ROWS -0.2584
-4.6864 RUDYARD -0.2587
-4.3853 RUIN -0.4331
-4.3853 RULE -0.2472
-4.6864 RULES -0.2587
-4.3853 RUMORS -0.4766
-3.7833 RUN -0.7721
-4.6864 RUNNERS -0.2495
-4.2093 RUNNING -0.2042
-4.6864 RUNS -0.2572
-4.6864 RUPTURED -0.2147
-3.7833 RUSH -0.7589
-3.7833 RUSHED -0.8736
-4.6864 RUSSELL -0.2495
-4.6864 RUSSELL'S -0.2587
-3.9874 RUSSIA -0.4913
-3.9874 RUSSIAN -0.5255
-4.2093 RUST -0.6520
-4.6864 RUSTIC -0.2587
-4.3853 RUTH -0.4771
-4.6864 SABLE -0.2572
-4.6864 SABLES -0.2587
-4.6864 SACK -0.2472
-4.6864 SACO -0.2147
-4.3853 SAFETY -0.2461
-4.3853 SAGACITY -0.4331
-4.6864 SAGAS -0.2147
-2.7132 SAID -0.6974
-3.7833 SAIL -0.3720
-4.2093 SAILED -0.6520
-4.6864 SAILOR -0.2584
-4.0843 SAILORS -0.6024
-4.6864 SAINTS -0.2568
-4.6864 SAITH -0.2147
-4.6864 SALAD -0.2587
-4.6864 SALE -0.2147
-4.3853 SALTS -0.4662
-4.3853 SALVATION -0.4331
-3.1301 SAME -0.4513
-4.2093 SAMURAI -0.7339
-3.9082 SAN -0.8225
-4.6864 SANCTIFICATION -0.2478
-4.3853 SAND -0.2026
-4.0843 SANDEL -0.6455
-4.3853 SANDWICHES -0.2478
-4.6864 SANDY -0.2587
-4.6864 SANK -0.2586
-4.6864 SAPLINGS -0.2573
-3.5103 SARAH -0.5318
-4.2093 SARAI -0.6897
-4.6864 SARCASTIC -0.2147
-3.9082 SAT -0.6873
-4.6864 SATELLITE -0.2587
-4.3853 SATIABLE -0.2586
-4.6864 SATIN -0.2537
-4.6864 SATIRE -0.2587
-3.9874 SATISFACTION -0.3870
-4.6864 SATISFIED -0.2554
-4.2093 SAUL -0.2495
-4.2093 SAVAGE -0.2585
