
\data\
ngram 1=5530
ngram 2=19704
ngram 3=8095

\1-grams:
-1.015946	</s>
-99	<s>	-0.830971
-1.67354	A	-0.5322855
-4.385347	ABANDONED	-0.2126862
-4.084317	ABANDONMENT	-0.634995
-4.686377	ABIES	-0.2586723
-4.686377	ABILITIES	-0.2146599
-3.572434	ABLE	-1.136975
-3.987407	ABNORMAL	-0.5300896
-3.987407	ABNORMALLY	-0.3141143
-4.686377	ABOUND	-0.2524765
-4.686377	ABOUNDING	-0.2579653
-4.686377	ABOUNDS	-0.2585381
-2.783287	ABOUT	-0.4042125
-3.686377	ABOVE	-0.568652
-4.686377	ABRADING	-0.234807
-4.686377	ABRAM'S	-0.2585918
-4.209256	ABROAD	-0.6912861
-4.686377	ABRUPTLY	-0.2524765
-4.385347	ABSENT	-0.2557115
-4.209256	ABSOLUTE	-0.2582876
-4.385347	ABSOLUTELY	-0.2584934
-4.686377	ABSORPTION	-0.2472204
-4.686377	ABSTRACTIONS	-0.2583592
-4.209256	ABSURDITY	-0.6998107
-4.686377	ABSURDLY	-0.2586097
-4.686377	ABUSE	-0.2537263
-3.908226	ACCELERATED	-0.7068937
-4.686377	ACCENTUATED	-0.2146599
-4.084317	ACCEPT	-0.5259768
-4.084317	ACCEPTED	-0.641501
-4.686377	ACCESS	-0.2495278
-4.385347	ACCESSORIES	-0.4330999
-4.686377	ACCIDENT	-0.2146599
-4.209256	ACCIDENTAL	-0.6412011
-4.686377	ACCLIVITIES	-0.2472204
-4.385347	ACCOMPANIED	-0.4756434
-4.385347	ACCOMPANY	-0.4532471
-4.686377	ACCOMPLISHED	-0.2557835
-4.686377	ACCOMPLISHMENTS	-0.2586276
-4.385347	ACCORDANCE	-0.4738003
-4.084317	ACCORDING	-0.6373024
-4.084317	ACCORDINGLY	-0.4453161
-4.084317	ACCOUNT	-0.1986445
-4.686377	ACCOUNTED	-0.2557835
-4.385347	ACCOUNTING	-0.4330999
-4.686377	ACCRUED	-0.2495278
-4.686377	ACCURATE	-0.2477984
-4.686377	ACCURATELY	-0.2146599
-4.686377	ACHIEVE	-0.2581354
-4.686377	ACHIEVED	-0.2146599
-4.209256	ACHIEVEMENTS	-0.7262287
-4.686377	ACIDS	-0.2146599
-4.686377	ACKNOWLEDGE	-0.2580728
-4.686377	ACKNOWLEDGED	-0.2586723
-4.686377	ACOUSTIC	-0.2586454
-4.209256	ACQUAINTANCE	-0.2108134
-4.084317	ACQUAINTED	-0.545395
-3.987407	ACQUIESCENCE	-0.2702092
-4.385347	ACQUIRED	-0.252295
-3.644984	ACROSS	-0.470369
-3.686377	ACT	-0.5975848
-4.385347	ACTED	-0.2524674
-4.084317	ACTION	-0.2013058
-4.686377	ACTIVITY	-0.2146599
-4.209256	ACTS	-0.7329677
-4.084317	ACTUAL	-0.5596396
-4.686377	ACTUALLY	-0.2586633
-4.686377	ACTUATED	-0.258556
-4.686377	ACUTE	-0.2146599
-4.209256	ADAPTABLE	-0.6519856
-4.686377	ADD	-0.2548644
-3.644984	ADDED	-0.5561056
-4.686377	ADDRESS	-0.234807
-4.686377	ADJACENT	-0.2146599
-4.686377	ADJECTIVE	-0.2568174
-4.084317	ADMINISTERED	-0.6464112
-4.686377	ADMIRATION	-0.2567006
-4.686377	ADMIRED	-0.2576965
-4.084317	ADMITTED	-0.243801
-4.385347	ADOPTED	-0.256961
-4.385347	ADRIFT	-0.4330999
-4.084317	ADVANCE	-0.1998646
-4.385347	ADVANCED	-0.2431899
-4.686377	ADVANCEMENT	-0.2472204
-3.908226	ADVANTAGE	-0.6356136
-4.084317	ADVANTAGES	-0.5119398
-3.908226	ADVENTURE	-0.608033
-4.686377	ADVENTURES	-0.2146599
-4.686377	ADVENTURETH	-0.2551259
-4.686377	ADVERSE	-0.2586544
-3.732135	ADVICE	-1.156842
-4.209256	ADVISEDLY	-0.6080626
-4.686377	AEROBIC	-0.2586723
-4.084317	AFFAIR	-0.478402
-4.686377	AFFAIRS	-0.2472204
-4.209256	AFFECTED	-0.7338489
-4.686377	AFFIRMED	-0.234807
-4.686377	AFFLICT	-0.2477984
-4.686377	AFFLICTIONS	-0.2538077
-4.686377	AFFORD	-0.2537263
-4.686377	AFFORDS	-0.2493725
-4.686377	AFOOT	-0.2579922
-4.385347	AFRAID	-0.4656605
-4.686377	AFRICA	-0.2526397
-3.209256	AFTER	-0.6422278
-4.084317	AFTER-ROOM	-0.6024345
-3.732135	AFTERNOON	-1.164676
-4.084317	AFTERWARD	-0.2491532
-3.033165	AGAIN	-0.4557541
-3.686377	AGAINST	-0.4404488
-3.732135	AGE	-0.4415498
-4.385347	AGED	-0.2585292
-4.686377	AGENCY	-0.2585202
-4.686377	AGENT	-0.2146599
-4.084317	AGENTS	-0.5473405
-4.686377	AGITATION	-0.2146599
-3.644984	AGO	-0.4011104
-4.686377	AGONY	-0.2472204
-4.385347	AGREE	-0.4738003
-4.686377	AGREEABLE	-0.2586723
-4.385347	AGREED	-0.4330999
-3.841279	AH	-0.3766296
-3.686377	AHEAD	-0.9315134
-4.385347	AID	-0.2462186
-4.686377	AIDS	-0.2495278
-4.385347	AILS	-0.4759932
-4.686377	AIN'T	-0.2571495
-3.644984	AIR	-0.4683186
-4.209256	AJAR	-0.6080626
-4.686377	AL	-0.2586723
-4.686377	ALAN	-0.2586723
-4.385347	ALARM	-0.2019584
-4.686377	ALARMED	-0.2586723
-4.686377	ALBERTA	-0.2146599
-4.686377	ALCHEMY	-0.2146599
-4.209256	ALCOHOL	-0.6080626
-4.385347	ALCOHOL-DRENCHED	-0.4771034
-4.686377	ALKALINE	-0.2586633
-2.394121	ALL	-0.5467994
-4.686377	ALLENTOWN	-0.2146599
-4.686377	ALLER	-0.2586454
-4.686377	ALLIANCE	-0.2572482
-4.084317	ALLOW	-0.5566334
-4.686377	ALLOWANCE	-0.2557835
-3.841279	ALLOWED	-0.5582832
-4.084317	ALLOWS	-0.6225817
-4.686377	ALLOY	-0.2495278
-4.686377	ALLUDED	-0.2495278
-4.084317	ALLY	-0.6024345
-3.255013	ALMOST	-0.4464502
-3.783287	ALONE	-0.3849961
-3.239219	ALONG	-0.7622278
-3.987407	ALOUD	-0.2702092
-3.023619	ALREADY	-0.4473986
-4.686377	ALRIGHT	-0.2586723
-3.014279	ALSO	-0.7109495
-4.385347	ALTHOUGH	-0.2315737
-4.209256	ALTRUISM	-0.6080626
-4.686377	ALTRUISTIC	-0.2585918
-3.364158	ALWAYS	-0.4234535
-3.142309	AM	-0.3969779
-4.686377	AMATEURISH	-0.2477984
-3.841279	AMBITION	-0.4042772
-4.209256	AMBUSH	-0.6406232
-4.686377	AMENDED	-0.2146599
-3.987407	AMERICA	-0.4198357
-4.084317	AMERICAN	-0.2584218
-4.686377	AMNESIA	-0.2586723
-3.482257	AMONG	-1.135947
-4.209256	AMONGST	-0.711692
-3.841279	AMOUNT	-0.3307419
-4.084317	AMPHIBIAN	-0.635573
-4.686377	AMPHIBIOUS	-0.2586633
-4.686377	AMUSED	-0.2567994
-2.496045	AN	-0.4668757
-4.686377	ANAGAZANDERS	-0.2586544
-4.686377	ANALOGY	-0.2477984
-4.385347	ANALYSIS	-0.2133418
-4.385347	ANARCHY	-0.24767
-4.686377	ANATOMY	-0.2146599
-4.686377	ANCHOR	-0.2572034
-3.987407	ANCIENT	-0.2467152
-1.606473	AND	-0.3202092
-4.686377	ANEMONE	-0.2586723
-4.686377	ANGEL	-0.2146599
-4.209256	ANGRY	-0.2067209
-3.841279	ANIMAL	-0.5521383
-3.343954	ANIMALS	-0.263301
-3.783287	ANNE	-0.3470539
-4.686377	ANNOUNCE	-0.2560624
-3.908226	ANNOUNCED	-0.7475941
-4.385347	ANNOY	-0.4759932
-4.209256	ANNOYING	-0.6080626
-4.686377	ANNUAL	-0.2586633
-3.343954	ANOTHER	-0.4024267
-3.385347	ANSWER	-0.3269383
-4.084317	ANSWERED	-0.2077376
-4.686377	ANSWERING	-0.2146599
-3.908226	ANTAGONIST	-0.3036952
-4.385347	ANTICIPATE	-0.4532471
-4.686377	ANTICIPATED	-0.2584218
-4.686377	ANTITHESIS	-0.2472204
-4.686377	ANXIETY	-0.2477984
-4.385347	ANXIOUS	-0.2494547
-3.023619	ANY	-0.387493
-4.385347	ANYBODY	-0.2566198
-4.385347	ANYMORE	-0.4330999
-4.084317	ANYONE	-0.5107238
-3.271404	ANYTHING	-0.6504733
-4.686377	ANYWHERE	-0.2146599
-4.209256	APART	-0.6916327
-4.686377	APOLOGIZE	-0.2578399
-3.987407	APOLOGIZED	-0.3141233
-4.686377	APOTHECARY	-0.2495278
-4.385347	APPARENTLY	-0.2584129
-4.385347	APPEALED	-0.4679678
-4.385347	APPEAR	-0.2484031
-3.686377	APPEARANCE	-0.4145457
-4.686377	APPEARANCES	-0.2472204
-4.686377	APPEARED	-0.2524765
-4.385347	APPEARS	-0.2494456
-4.686377	APPLAUDED	-0.2477984
-4.686377	APPLIANCES	-0.2566018
-4.385347	APPLICATION	-0.4656605
-4.686377	APPLIED	-0.2524765
-4.686377	APPLY	-0.2146599
-4.209256	APPRECIATE	-0.2483206
-4.209256	APPRECIATED	-0.6519588
-4.209256	APPREHENSION	-0.6406232
-4.686377	APPREHENSIONS	-0.2567186
-4.385347	APPROACHED	-0.4770944
-4.686377	APPROACHING	-0.234807
-4.385347	APPROPRIATE	-0.2045184
-4.686377	APPROVED	-0.2572034
-4.686377	APRIL	-0.2586365
-3.987407	APRON	-0.3141859
-4.686377	APT	-0.2495278
-3.987407	ARCH	-0.3109096
-3.987407	ARCHIBALD	-0.3138281
-4.686377	ARCHIVES	-0.2146599
-4.209256	ARCTIC	-0.2586097
-2.253408	ARE	-0.3988169
-4.385347	AREA	-0.2078281
-4.686377	AREN'T	-0.2586723
-4.686377	ARENA	-0.2477984
-4.084317	ARGENTINE	-0.6024345
-3.908226	ARGUE	-0.648736
-4.209256	ARGUED	-0.6080626
-4.686377	ARGUING	-0.2477984
-3.908226	ARGUMENT	-0.6043859
-4.084317	ARGUMENTS	-0.6404144
-3.908226	ARISTOTLE	-0.7506646
-3.343954	ARM	-0.4965205
-4.686377	ARMOR	-0.2525127
-4.209256	ARMS	-0.2018972
-4.686377	ARMY	-0.2146599
-4.686377	AROMATIC	-0.2586723
-4.084317	AROSE	-0.6985137
-3.572434	AROUND	-0.407369
-3.908226	AROUSED	-0.6826751
-4.385347	ARRANGED	-0.2524674
-4.686377	ARRANGEMENT	-0.2472204
-4.209256	ARRAY	-0.6406232
-4.686377	ARRIVAL	-0.2472204
-4.084317	ARRIVE	-0.5095514
-4.084317	ARRIVED	-0.6443855
-3.987407	ARROW	-0.4239396
-4.084317	ARROWS	-0.5155426
-4.686377	ARTHRITIS	-0.2586454
-3.455928	ARTHUR	-0.4348881
-4.686377	ARTICLE	-0.2472204
-4.686377	ARTICLES	-0.2567994
-4.385347	ARTICULATE	-0.4330999
-4.686377	ARTIST	-0.2495278
-4.209256	ARTISTIC	-0.6412011
-4.686377	ARTISTS	-0.2564311
-4.686377	ARTS	-0.2146599
-2.364158	AS	-0.5170063
-4.686377	ASCERTAINED	-0.2572034
-4.385347	ASHES	-0.2575083
-4.209256	ASHORE	-0.6520393
-4.686377	ASIA	-0.2586723
-4.209256	ASIATIC	-0.6917613
-3.783287	ASIDE	-0.3852931
-4.209256	ASK	-0.7296612
-3.783287	ASKED	-0.2442712
-4.209256	ASKING	-0.2540337
-3.841279	ASLEEP	-0.6039759
-4.209256	ASPECT	-0.6896086
-4.686377	ASPECTS	-0.2586097
-4.686377	ASPIRE	-0.2585471
-4.686377	ASSEMBLIES	-0.2567994
-4.084317	ASSEMBLY	-0.1986342
-4.209256	ASSIGNED	-0.7264572
-4.084317	ASSISTANCE	-0.6024345
-4.209256	ASSISTANTS	-0.6412011
-4.686377	ASSOCIATED	-0.2553602
-4.686377	ASSOCIATION	-0.2146599
-4.686377	ASSOCIATIONS	-0.2586723
-4.385347	ASSUMED	-0.2477342
-4.686377	ASSUMING	-0.234807
-4.686377	ASSUMPTION	-0.2548644
-4.686377	ASSUREDLY	-0.2146599
-4.686377	ASTONISHED	-0.2586097
-4.686377	ASTONISHING	-0.2586544
-4.686377	ASTONISHMENT	-0.2477984
-4.686377	ASTRONOMER	-0.2146599
-4.686377	ASTRONOMICAL	-0.258556
-4.686377	ASTRONOMY	-0.2146599
-4.686377	ASUNDER	-0.2583413
-2.357997	AT	-0.6948442
-3.482257	ATE	-0.6663086
-4.385347	ATHLETE	-0.4662384
-4.385347	ATHLETIC	-0.4771034
-4.686377	ATLANTIC	-0.2586365
-4.084317	ATMOSPHERE	-0.4854055
-4.385347	ATOLL	-0.4709528
-4.385347	ATOMIC	-0.2585381
-4.686377	ATOMISM	-0.2536992
-4.686377	ATTACH	-0.2572931
-4.209256	ATTACK	-0.6510007
-4.686377	ATTACKER	-0.2146599
-4.686377	ATTACKING	-0.2586723
-4.686377	ATTAINS	-0.2579384
-4.084317	ATTEMPT	-0.5003835
-3.987407	ATTEMPTED	-0.8197699
-4.686377	ATTEND	-0.2553602
-4.084317	ATTENTION	-0.5049301
-4.385347	ATTITUDE	-0.4760201
-4.686377	ATTRACTION	-0.2477984
-4.084317	ATTRACTIVE	-0.5140342
-4.385347	AUDACIOUS	-0.4769424
-3.987407	AUDIO	-0.5362868
-4.686377	AUGUST	-0.2146599
-3.908226	AUNT	-0.4758037
-4.084317	AURORA	-0.6987375
-4.385347	AUSPICIOUS	-0.4330999
-3.783287	AUSTERE	-0.3307605
-3.987407	AUSTRALIA	-0.8288215
-4.686377	AUTHENTICATION	-0.2146599
-4.385347	AUTHOR	-0.23766
-4.084317	AUTHORITY	-0.1998441
-4.385347	AUTOMATIC	-0.2586544
-4.686377	AUTOMATICALLY	-0.2586723
-4.084317	AUTOMATON	-0.6024345
-3.908226	AVAILABLE	-0.3042859
-3.783287	AVERAGE	-0.8755586
-4.686377	AVERSION	-0.2586723
-4.686377	AWAITED	-0.234807
-4.686377	AWAKE	-0.2566108
-4.385347	AWAKEN	-0.4752485
-4.385347	AWARE	-0.2467519
-3.084317	AWAY	-0.7654305
-3.987407	AWE	-0.3027698
-4.686377	AWFUL	-0.2586097
-4.686377	AWKWARDNESS	-0.2146599
-4.385347	AX	-0.4662384
-4.686377	AXIOMS	-0.2472204
-4.686377	AXIS	-0.2586723
-4.084317	B	-0.515802
-4.209256	BABBLING	-0.6412011
-4.385347	BABOON	-0.213024
-3.908226	BABY	-0.2026099
-4.209256	BACHELOR	-0.6520572
-2.970374	BACK	-0.7203847
-4.385347	BACKGROUND	-0.2140756
-4.686377	BACKGROUNDS	-0.2577593
-4.686377	BACKING	-0.2576248
-4.686377	BACKS	-0.2495278
-4.686377	BACONIAN	-0.2586723
-3.841279	BAD	-0.2145015
-4.686377	BADE	-0.2576965
-4.385347	BAG	-0.2144817
-3.908226	BAIRD	-0.7508435
-4.385347	BAKER	-0.4662384
-4.385347	BALANCE	-0.2443928
-4.385347	BALL	-0.2572303
-4.686377	BALLROOM	-0.2146599
-4.209256	BALLS	-0.6412011
-4.686377	BALSAM	-0.2548644
-4.385347	BALTIC	-0.2534368
-4.686377	BANALITY	-0.2525127
-4.385347	BANANAS	-0.2077879
-4.084317	BANCROFT	-0.6464201
-3.783287	BAND	-0.3685513
-4.385347	BANDS	-0.213927
-4.686377	BANDWIDTH	-0.2586723
-4.686377	BANEFUL	-0.2586633
-4.686377	BANISHETH	-0.2586723
-4.209256	BANK	-0.6917118
-4.686377	BANKRUPTCY	-0.2146599
-4.084317	BANKS	-0.5002183
-4.209256	BAPTIZED	-0.6080626
-4.686377	BARBARA	-0.2586723
-4.686377	BARDS	-0.2585023
-4.686377	BARE	-0.2586097
-3.732135	BARED	-0.4277575
-4.084317	BARELY	-0.6463754
-4.686377	BARGAINS	-0.2582965
-4.209256	BARKED	-0.6080626
-4.686377	BARKING	-0.2586633
-3.732135	BARN	-0.4004941
-4.084317	BARNETT	-0.5112739
-4.385347	BASED	-0.2562153
-4.385347	BASES	-0.2109831
-4.209256	BASIC	-0.258556
-4.385347	BASINS	-0.2576786
-4.686377	BASSET	-0.2146599
-4.084317	BASSETT	-0.6402874
-4.209256	BATH	-0.6814675
-4.385347	BATHE	-0.4532471
-4.385347	BATHING	-0.2586544
-4.686377	BATTLE	-0.2553602
-4.385347	BAVIAAN	-0.2346558
-4.209256	BAY	-0.7265394
-2.341985	BE	-0.3411659
-3.783287	BEACH	-0.8965824
-4.686377	BEADY	-0.258556
-4.686377	BEAMS	-0.2472204
-3.732135	BEAR	-0.7499627
-4.385347	BEARS	-0.2585828
-4.686377	BEASTS	-0.2477984
-4.686377	BEAT	-0.258225
-4.209256	BEATING	-0.6412011
-4.686377	BEATRICE	-0.2146599
-4.686377	BEATS	-0.2585381
-3.908226	BEAU	-0.6053628
-3.510286	BEAUTIFUL	-0.5499659
-3.987407	BEAUTY	-0.4663247
-4.385347	BEAVER	-0.4770318
-3.607196	BECAME	-0.3605458
-3.540249	BECAUSE	-0.329088
-3.644984	BECOME	-0.8222145
-3.987407	BECOMING	-0.3124745
-3.908226	BED	-0.2604336
-4.686377	BEDROOM	-0.2586276
-4.686377	BEDS	-0.2146599
-4.385347	BEEF	-0.2347976
-2.633299	BEEN	-0.4344439
-4.209256	BEER	-0.7357756
-4.686377	BEERS	-0.2146599
-3.118175	BEFORE	-0.496646
-4.209256	BEG	-0.7346833
-3.195015	BEGAN	-1.097387
-4.209256	BEGIN	-0.7288988
-3.908226	BEGINNING	-0.340897
-3.686377	BEGUN	-0.3828976
-4.686377	BEHAVED	-0.2146599
-4.686377	BEHAVIOR	-0.2146599
-3.385347	BEHIND	-0.3969751
-4.686377	BEHOLD	-0.234807
-4.686377	BEIGE	-0.2586723
-4.686377	BEIJING	-0.2146599
-3.385347	BEING	-0.2405658
-3.239219	BELIEVE	-0.5694023
-4.686377	BELIZE	-0.2586454
-4.686377	BELL	-0.2586276
-4.385347	BELLS	-0.2019584
-4.686377	BELONGED	-0.2495278
-4.686377	BELOVED	-0.2556214
-3.841279	BELOW	-0.3191547
-3.841279	BELT	-0.335962
-4.686377	BELTS	-0.2586454
-4.686377	BENCH	-0.2568982
-4.686377	BENCHES	-0.2146599
-4.686377	BEND	-0.2586723
-4.686377	BENEATH	-0.234807
-4.686377	BENEFICIAL	-0.2586454
-4.686377	BENEFIT	-0.2580549
-3.908226	BENT	-0.6803213
-4.686377	BEQUEATHED	-0.2572034
-4.686377	BESET	-0.2577055
-4.385347	BESETTING	-0.4771034
-4.385347	BESIDE	-0.2553782
-3.783287	BESIDES	-0.4968943
-3.686377	BEST	-0.3326324
-4.686377	BETAKEN	-0.2553602
-4.385347	BETRAYAL	-0.4656605
-3.644984	BETTER	-0.6237497
-3.223979	BETWEEN	-0.5317404
-3.239219	BEYOND	-0.6427567
-4.385347	BI	-0.4770944
-3.255013	BIG	-0.5728258
-4.209256	BIG-EYED	-0.6520572
-4.385347	BIG-FACE	-0.4770139
-4.686377	BILL	-0.2583592
-4.209256	BILLINGER	-0.6515561
-4.385347	BILLY	-0.4330999
-4.385347	BINARY	-0.2586186
-4.084317	BIOLOGISTS	-0.4716977
-4.209256	BIRD	-0.6080626
-4.686377	BIRDS	-0.2146599
-4.686377	BISCUITS	-0.2146599
-4.686377	BISHOPS	-0.2567186
-4.385347	BISQUE	-0.2146203
-3.607196	BIT	-0.2883058
-4.385347	BITE	-0.2536811
-4.686377	BITTEN	-0.2586723
-4.686377	BITTEREST	-0.2586186
-4.084317	BIZARRE	-0.635573
-3.540249	BLACK	-0.4599629
-4.686377	BLACKENED	-0.2586723
-3.987407	BLADE	-0.3027698
-3.783287	BLAME	-0.9499925
-4.686377	BLATANT	-0.2586723
-4.686377	BLAZING	-0.258556
-4.686377	BLESS	-0.2538077
-4.686377	BLESSING	-0.2477984
-4.385347	BLEW	-0.476665
-3.987407	BLIND	-0.3109096
-4.686377	BLINDED	-0.2553602
-4.686377	BLOCK	-0.2536992
-4.686377	BLOCKED	-0.2579474
-3.732135	BLOOD	-0.4082068
-4.686377	BLOOMING	-0.2477984
-4.209256	BLOT	-0.651923
-4.686377	BLOTCHY	-0.2477984
-3.987407	BLUE	-0.3946823
-4.686377	BLUNDER	-0.2146599
-4.385347	BOARD	-0.4662384
-4.084317	BOAT	-0.5157573
-4.385347	BOATS	-0.2025998
-3.686377	BOB	-0.329658
-4.686377	BODICE	-0.2580549
-4.686377	BODIED	-0.2586186
-3.987407	BODIES	-0.4226849
-3.482257	BODY	-0.4818184
-4.084317	BOHEMIAN	-0.6463397
-4.209256	BOILED	-0.6514397
-4.209256	BOILING	-0.6520393
-4.686377	BOLES	-0.2146599
-4.385347	BOLING	-0.2143035
-4.686377	BOMBARDMENT	-0.2572034
-4.385347	BONDS	-0.4733044
-4.686377	BONE	-0.2524765
-4.686377	BONES	-0.2586007
-4.686377	BONNY	-0.2586723
-4.686377	BONTE	-0.2586723
-3.686377	BOOK	-0.4130239
-4.209256	BOOKKEEPER	-0.6520572
-4.686377	BOOKS	-0.2566108
-4.686377	BOOTS	-0.2146599
-4.686377	BORE	-0.2571495
-4.385347	BOREALIS	-0.4330999
-3.572434	BORN	-1.110641
-4.686377	BORNE	-0.2579474
-4.686377	BORROW	-0.2537263
-4.385347	BORROWED	-0.21465
-4.686377	BORROWING	-0.2575621
-3.987407	BOSOM	-0.3033478
-4.385347	BOSTON	-0.4330999
-4.686377	BOTANIQUE	-0.2586723
-4.686377	BOTANIST	-0.2477984
-3.455928	BOTH	-0.4946643
-4.385347	BOTTOM	-0.4656605
-3.987407	BOUGHT	-0.8719881
-4.686377	BOULDERS	-0.2477984
-4.686377	BOUND	-0.2538077
-4.209256	BOUNDARIES	-0.7218466
-4.686377	BOUNDING	-0.258216
-4.686377	BOUNDS	-0.2568174
-3.510286	BOW	-0.5413152
-3.987407	BOWED	-0.8291983
-4.084317	BOWL	-0.634995
-4.686377	BOWLS	-0.2586723
-4.084317	BOWS	-0.4709349
-4.084317	BOX	-0.459115
-3.209256	BOY	-0.599901
-3.987407	BOYS	-0.424296
-4.686377	BRACKENED	-0.2586723
-4.686377	BRAID	-0.2537263
-3.841279	BRAIN	-0.4141648
-3.783287	BRANCH	-0.5890472
-3.732135	BRANCHES	-0.3177662
-4.686377	BRANCHLETS	-0.2548644
-4.084317	BRAND	-0.5046064
-4.686377	BRAVELY	-0.2582876
-4.686377	BRAVING	-0.234807
-4.385347	BREAD	-0.2470918
-3.510286	BREAK	-0.6056776
-4.385347	BREAKING	-0.2340317
-4.084317	BREAST	-0.6024345
-4.686377	BREATH	-0.234807
-4.084317	BREATHE	-0.5489383
-4.686377	BREECHES	-0.2146599
-4.385347	BREED	-0.4330999
-3.987407	BRENTWOOD	-0.3139533
-4.385347	BRIBERY	-0.4771034
-4.686377	BRIDAL	-0.2586723
-3.987407	BRIDGE	-0.8230796
-4.686377	BRIEFING	-0.2146599
-4.084317	BRIGHT	-0.5580807
-4.686377	BRIGHTEN	-0.2586723
-4.686377	BRIGHTENING	-0.2582787
-4.209256	BRIGHTNESS	-0.6080626
-4.385347	BRILLIANT	-0.2586633
-4.084317	BRING	-0.2545305
-4.209256	BRINGING	-0.6520572
-4.686377	BRINGS	-0.2569251
-4.209256	BRINKER	-0.6514218
-4.686377	BRITAIN	-0.2146599
-4.686377	BRITTLE	-0.2586544
-4.385347	BROACH	-0.4721664
-4.385347	BROAD	-0.2586544
-4.686377	BROCADE	-0.2146599
-4.686377	BRODIE'S	-0.2586276
-4.686377	BROILED	-0.2586723
-4.686377	BROKE	-0.2579922
-4.385347	BROKEN	-0.2565569
-4.686377	BROKEN-TOOTH	-0.2586544
-4.084317	BROODED	-0.6024345
-4.686377	BROODING	-0.2586454
-4.209256	BROTHER	-0.2497194
-3.271404	BROUGHT	-0.6875112
-4.385347	BROWN	-0.2144421
-3.732135	BROWSER	-0.7065781
-4.385347	BROWSING	-0.4532471
-4.686377	BRYAN	-0.2586723
-4.385347	BUBBLES	-0.2517139
-4.686377	BUCK	-0.2583681
-4.385347	BUCOLIC	-0.4770676
-4.209256	BUGGY	-0.6520393
-4.686377	BUILD	-0.2582965
-4.209256	BUILDING	-0.6080626
-3.987407	BUILT	-0.3141769
-4.385347	BUILT-IN	-0.2586633
-3.841279	BULKHEADS	-0.2981814
-4.385347	BURGESS	-0.2145906
-4.084317	BURIED	-0.5075328
-4.686377	BURKE	-0.2580369
-3.908226	BURN	-0.7068937
-3.841279	BURNED	-0.9654318
-4.385347	BURNERS	-0.4330999
-4.084317	BURNING	-0.5041749
-3.987407	BURNT	-0.3131742
-3.686377	BURST	-0.4968492
-4.686377	BURSTING	-0.2553602
-4.686377	BUSBOYS	-0.258556
-3.732135	BUSH	-0.7470474
-3.407624	BUSINESS	-0.4652008
-4.209256	BUSTLE	-0.6517441
-4.686377	BUSY	-0.2146599
-2.368314	BUT	-0.5098067
-4.385347	BUTCHER	-0.4662384
-4.686377	BUTCHERS	-0.2477984
-4.686377	BUTTER	-0.2586544
-4.686377	BUTTON	-0.2586454
-4.385347	BUY	-0.4330999
-2.468893	BY	-0.4937468
-4.686377	BYTE	-0.2586723
-4.209256	C'S	-0.6080626
-3.510286	CABIN	-1.378386
-4.385347	CAKE	-0.2584934
-4.686377	CAKES	-0.2578847
-4.686377	CALCULATE	-0.2583413
-4.385347	CALCULATED	-0.4330999
-3.987407	CALF	-0.3033478
-3.908226	CALIFORNIA	-0.7730088
-3.510286	CALL	-0.5082673
-3.783287	CALLED	-0.3290436
-4.385347	CALLING	-0.2575172
-4.209256	CALLS	-0.7330307
-4.084317	CALM	-0.4931993
-3.987407	CALMLY	-0.3050771
-3.142309	CAME	-0.5568056
-3.987407	CAMEL	-0.2127757
-4.686377	CAMERON	-0.2585381
-3.540249	CAMP	-0.4630338
-2.762098	CAN	-0.3325695
-3.343954	CAN'T	-0.4410267
-4.385347	CANADA	-0.4771034
-3.908226	CANADIAN	-0.7508256
-4.686377	CANAL	-0.2146599
-4.686377	CANALS	-0.2472204
-4.686377	CANDIDATE	-0.2586365
-4.385347	CANE-GRASS	-0.4770497
-4.385347	CANNIBAL	-0.4771034
-3.987407	CANNOT	-0.4779652
-3.686377	CANOE	-0.376103
-4.686377	CANON	-0.2146599
-4.209256	CANVAS	-0.7357667
-4.385347	CANYONS	-0.4769245
-4.686377	CAPABLE	-0.2472204
-4.385347	CAPE	-0.4771034
-3.686377	CAPITAL	-0.6409002
-4.686377	CAPITALLY	-0.2572841
-4.686377	CAPS	-0.2477984
-3.255013	CAPTAIN	-0.684091
-4.686377	CAPTURES	-0.234807
-3.908226	CAR	-0.7966009
-4.686377	CARAVAN	-0.2585828
-3.908226	CARCASS	-0.7068937
-4.686377	CARDINAL	-0.2146599
-3.732135	CARE	-0.6173887
-4.686377	CARED	-0.2585381
-4.686377	CAREER	-0.2472204
-4.209256	CAREFUL	-0.6790797
-4.084317	CAREFULLY	-0.5155908
-4.686377	CARES	-0.2572034
-4.686377	CAREY	-0.2477984
-4.385347	CARGO	-0.476656
-4.686377	CARNEGIE	-0.2579743
-4.686377	CARPENTER'S	-0.2586723
-4.385347	CARPET	-0.2146401
-3.908226	CARRIED	-0.4643473
-4.686377	CARROTS	-0.2477984
-3.987407	CARRY	-0.9507838
-4.209256	CARRYING	-0.7339117
-4.385347	CARTRIDGE	-0.4770587
-4.209256	CASCADES	-0.6520572
-3.209256	CASE	-0.5427789
-3.732135	CASES	-0.4610248
-4.209256	CASH	-0.6501034
-4.209256	CASHIER	-0.6080626
-4.209256	CASTOR	-0.6519141
-4.084317	CASUALTY	-0.6463307
-4.686377	CATASTROPHISM	-0.2493725
-3.908226	CATCH	-0.4387651
-3.783287	CAUGHT	-0.530108
-3.841279	CAUSE	-0.3272215
-3.732135	CAUSED	-1.211293
-4.209256	CAUSES	-0.6282098
-4.686377	CAUSING	-0.2586544
-4.084317	CAUTION	-0.5101128
-4.084317	CAUTIOUSLY	-0.6024345
-4.686377	CAVES	-0.2146599
-4.686377	CEASE	-0.2575621
-4.686377	CEDE	-0.2568982
-4.686377	CEILING	-0.2146599
-4.686377	CELEBRATED	-0.2586633
-4.686377	CELL	-0.2586723
-4.686377	CENTRAL	-0.2586723
-4.209256	CENTRE	-0.6406232
-4.686377	CENTURIES	-0.258395
-3.783287	CENTURY	-0.5267064
-3.510286	CERTAIN	-0.4940243
-4.084317	CERTAINLY	-0.2551619
-4.209256	CERTITUDE	-0.6406232
-4.084317	CHAIN	-0.6453995
-4.084317	CHAIR	-0.5048908
-4.209256	CHAIRS	-0.2493816
-4.686377	CHALDEES	-0.2477984
-4.686377	CHALLENGE	-0.2551259
-3.908226	CHALLENGED	-0.2339432
-4.385347	CHAMBERS	-0.2077879
-4.385347	CHAMPAGNE	-0.4330999
-4.084317	CHAMPION	-0.6024345
-3.732135	CHANCE	-0.4763443
-4.084317	CHANCES	-0.6024345
-3.644984	CHANGE	-0.3794261
-4.084317	CHANGED	-0.5448865
-4.385347	CHANGES	-0.2045184
-4.686377	CHAOS	-0.2495278
-3.841279	CHAOTIC	-0.6487964
-4.686377	CHAPARRAL	-0.2146599
-3.908226	CHAPTER	-0.7335523
-4.686377	CHAPTERS	-0.2472204
-4.385347	CHARACTERS	-0.4656605
-4.385347	CHARCOAL	-0.4330999
-3.908226	CHARGE	-0.7162989
-4.084317	CHARGED	-0.5047715
-4.209256	CHARLES	-0.21195
-4.686377	CHARLEY	-0.2525127
-4.686377	CHARMED	-0.2477984
-4.686377	CHARMING	-0.2581175
-4.686377	CHARMINGLY	-0.2586633
-4.686377	CHARRED	-0.2586544
-4.084317	CHASED	-0.644978
-4.686377	CHASTISED	-0.2551259
-3.644984	CHATTERING	-0.8006904
-4.385347	CHAUFFEUR	-0.4330999
-4.209256	CHAUNCEY	-0.6520572
-4.686377	CHEAP	-0.2586723
-4.686377	CHEAPEST	-0.2578847
-4.385347	CHECK	-0.2491806
-4.084317	CHECKED	-0.6463665
-4.686377	CHECKING	-0.2557835
-4.686377	CHECKSUM	-0.2582608
-4.084317	CHEER	-0.6457221
-4.686377	CHEERIEST	-0.2586723
-3.732135	CHEMICAL	-0.4848213
-4.385347	CHEMISTRY	-0.2580101
-4.385347	CHEMISTS	-0.2347976
-4.686377	CHERISHED	-0.2551259
-3.908226	CHEROKEE	-0.7508614
-4.209256	CHEWING	-0.6494652
-4.686377	CHIC	-0.2536992
-4.686377	CHIDIOCK	-0.2586723
-4.084317	CHIEF	-0.6964232
-4.209256	CHIEFLY	-0.7357667
-4.385347	CHIEFS	-0.4662384
-3.572434	CHILD	-0.2423979
-4.686377	CHILD'S	-0.2585023
-4.686377	CHILDLESS	-0.2562513
-3.364158	CHILDREN	-0.7272103
-4.084317	CHILL	-0.6461339
-4.385347	CHILLY	-0.4330999
-4.686377	CHIMNEY	-0.2525127
-4.385347	CHIMPANZEE	-0.4733044
-4.686377	CHINA	-0.2477984
-4.686377	CHINE	-0.2586633
-3.908226	CHINESE	-0.3044112
-4.209256	CHINESE-ENGLISHMAN	-0.6520393
-4.209256	CHINOOK	-0.6080626
-4.686377	CHIPS	-0.258216
-4.084317	CHIRP	-0.635573
-4.209256	CHIVALRY	-0.6505523
-3.540249	CHOICE	-0.4783723
-4.385347	CHOKING	-0.4770944
-4.385347	CHOOSE	-0.2585828
-4.686377	CHOPPER	-0.2146599
-3.987407	CHOSEN	-0.3925812
-4.385347	CHUCKLED	-0.4752395
-4.686377	CHURCH	-0.2560624
-4.084317	CHURCHES	-0.5049366
-3.783287	CHURCHILL	-0.5219095
-4.686377	CHURCHYARD	-0.2146599
-4.385347	CIGARETTE	-0.4330999
-4.686377	CIGARETTES	-0.2146599
-4.209256	CIGARS	-0.6412011
-4.686377	CIRCLE	-0.2584576
-4.686377	CIRCUITS	-0.2146599
-4.385347	CIRCULATION	-0.2019584
-4.385347	CIRCUMFERENCE	-0.4330999
-4.686377	CIRCUMSTANCE	-0.2146599
-4.209256	CIRCUMSTANCES	-0.6080626
-4.209256	CITIES	-0.651923
-4.686377	CITRON	-0.2146599
-3.987407	CITY	-0.4236135
-4.686377	CIVIL	-0.2586276
-4.686377	CIVILISED	-0.2584666
-4.686377	CIVILITIES	-0.2472204
-4.385347	CIVILIZATION	-0.4742235
-4.686377	CLAIMS	-0.2472204
-4.686377	CLAMBERED	-0.2579474
-3.987407	CLASS	-0.4822313
-4.686377	CLASSIFICATION	-0.2472204
-4.686377	CLAUDINE	-0.2525127
-4.385347	CLAW	-0.476665
-3.732135	CLEAN	-0.3473027
-4.209256	CLEAR	-0.24778
-4.686377	CLEARER	-0.2586723
-4.385347	CLEARING	-0.2547652
-4.686377	CLEARLY	-0.2586186
-4.686377	CLEVER	-0.2586633
-4.084317	CLICK	-0.6024345
-4.686377	CLIMATE	-0.2566108
-4.686377	CLIMBED	-0.234807
-4.686377	CLIPPA	-0.258019
-4.686377	CLOAK	-0.2146599
-4.084317	CLOSE	-0.2347692
-3.783287	CLOSED	-0.5144318
-4.084317	CLOSELY	-0.5155215
-3.841279	CLOSING	-0.6484922
-4.084317	CLOTH	-0.5133482
-4.686377	CLOTHED	-0.2553602
-3.686377	CLOTHES	-0.4136388
-4.686377	CLOUD	-0.2472204
-4.686377	CLOUDLESS	-0.2586186
-4.686377	CLOUDY	-0.2146599
-3.572434	CLUB	-0.5988945
-4.385347	CLUBBED	-0.4759932
-4.209256	CLUBS	-0.6412011
-4.209256	CLUCKING	-0.6520572
-4.084317	CLUSTERED	-0.64574
-4.686377	CLUSTERS	-0.2585381
-4.686377	CLUTCHED	-0.2586544
-4.385347	CLUTCHING	-0.4532471
-3.783287	COAL	-0.8746271
-4.385347	COALS	-0.2144124
-4.686377	COARSE	-0.2585918
-3.987407	COARSELY	-0.2702092
-3.987407	COAST	-0.5249241
-3.987407	COAT	-0.3033478
-4.686377	COATS	-0.2472204
-4.686377	COBB	-0.2576965
-4.209256	COCKY	-0.6518335
-4.686377	COCOA	-0.2572482
-4.385347	COCOANUTS	-0.4751587
-3.908226	COD	-0.7508614
-4.084317	CODE	-0.4833232
-4.209256	COFFEE	-0.6412011
-4.686377	COFFIN	-0.2586723
-4.385347	COHEN	-0.4330999
-4.686377	COILS	-0.2586723
-4.686377	COIN	-0.2146599
-4.686377	COINCIDENCE	-0.2146599
-4.686377	COINCIDES	-0.2553602
-3.841279	COLD	-0.3305415
-4.686377	COLLECTION	-0.2586633
-4.686377	COLONEL	-0.2586723
-4.686377	COLONY	-0.2586544
-3.987407	COLOR	-0.5363405
-4.084317	COLORED	-0.5157305
-3.987407	COLORS	-0.4881468
-4.385347	COLOSSAL	-0.2586365
-4.686377	COLOUR	-0.2146599
-4.209256	COLOURED	-0.7356504
-4.084317	COLT	-0.6024345
-4.686377	COLUMBIA	-0.2526397
-4.686377	COLUMBINE	-0.2586723
-3.841279	COM	-0.6368452
-4.686377	COMB	-0.2572482
-3.783287	COMBINATION	-0.31597
-4.686377	COMBINATIONS	-0.2586633
-4.686377	COMBINE	-0.234807
-4.686377	COMBINING	-0.2586186
-2.996181	COME	-0.3311449
-4.084317	COMES	-0.5232139
-4.686377	COMFORT	-0.2472204
-4.686377	COMFORTABLE	-0.2586097
-4.686377	COMFORTABLY	-0.2579295
-4.686377	COMICAL	-0.257302
-3.288437	COMING	-0.2846704
-3.607196	COMMA	-0.4741828
-3.841279	COMMAND	-0.5323859
-4.686377	COMMANDED	-0.2146599
-4.686377	COMMANDER	-0.2524765
-4.686377	COMMANDING	-0.2586186
-3.732135	COMMANDS	-0.276816
-4.686377	COMMENCED	-0.2146599
-4.686377	COMMERCIAL	-0.2585471
-4.209256	COMMISSIONER	-0.647102
-4.686377	COMMISSIONERS	-0.2146599
-4.209256	COMMITTED	-0.7171398
-4.686377	COMMITTING	-0.2572931
-3.455928	COMMON	-0.2629961
-4.686377	COMMONALTY	-0.2586544
-4.686377	COMMONEST	-0.2584129
-4.385347	COMMONLY	-0.2562423
-4.209256	COMMONWEALTH	-0.6519767
-4.686377	COMPANIES	-0.2577055
-4.686377	COMPANION	-0.2472204
-4.686377	COMPANION'S	-0.2582787
-4.686377	COMPANIONS	-0.2146599
-3.607196	COMPANY	-0.2450255
-4.686377	COMPARATIVE	-0.2586723
-4.209256	COMPARATIVELY	-0.6505523
-4.385347	COMPARE	-0.2109831
-4.686377	COMPARED	-0.2553602
-4.209256	COMPASS	-0.6080626
-4.385347	COMPELLED	-0.2251305
-4.686377	COMPETENT	-0.2495278
-3.908226	COMPETITION	-0.247742
-4.686377	COMPILING	-0.234807
-4.385347	COMPLAINED	-0.243301
-4.385347	COMPLETE	-0.2524583
-4.084317	COMPLETED	-0.4850043
-4.209256	COMPLETELY	-0.6520125
-4.385347	COMPLEX	-0.2586633
-4.686377	COMPLEXIONS	-0.2562513
-4.084317	COMPLICATED	-0.512859
-4.686377	COMPONENT	-0.2586454
-4.686377	COMPOSE	-0.234807
-4.686377	COMPOSED	-0.2580369
-3.908226	COMPOUND	-0.7784466
-4.686377	COMPOUNDS	-0.2472204
-4.686377	COMPRISE	-0.234807
-4.686377	COMPRISES	-0.234807
-4.686377	COMPUTE	-0.234807
-4.385347	COMPUTER	-0.2585649
-3.841279	COMPUTERS	-0.3401233
-3.783287	COMPUTING	-0.9541084
-4.686377	CONCEIVED	-0.2537263
-4.686377	CONCENTRATE	-0.2566108
-4.686377	CONCERN	-0.2568174
-3.987407	CONCERNED	-0.3111708
-4.686377	CONCERNMENT	-0.2582965
-4.686377	CONCLUSIONS	-0.2575621
-4.686377	CONCRETE	-0.2584845
-4.686377	CONDENSED	-0.2586633
-3.987407	CONDITION	-0.4215495
-4.686377	CONDITIONS	-0.2472204
-4.686377	CONDUCIVE	-0.2495278
-4.209256	CONDUCT	-0.6917613
-4.686377	CONDUCTED	-0.2553602
-4.385347	CONE	-0.2574814
-4.209256	CONES	-0.2527575
-4.209256	CONFERRING	-0.6518335
-4.686377	CONFESS	-0.2548644
-4.209256	CONFESSED	-0.6482671
-4.686377	CONFESSIONS	-0.2548644
-3.841279	CONFIDENCE	-0.9622259
-4.385347	CONFIGURATION	-0.2477159
-4.209256	CONFIRMED	-0.6282098
-4.686377	CONFLICT	-0.2472204
-4.686377	CONFLUX	-0.2472204
-4.385347	CONJUNCTION	-0.2421044
-4.385347	CONNECTED	-0.2125868
-4.686377	CONNEXION	-0.2524765
-4.385347	CONQUER	-0.4761366
-4.084317	CONSCIOUSNESS	-0.4981727
-4.385347	CONSEQUENCE	-0.4656605
-4.385347	CONSEQUENCES	-0.2548012
-3.987407	CONSEQUENT	-0.3141769
-4.686377	CONSERVATION	-0.2472204
-4.686377	CONSERVING	-0.2495278
-4.686377	CONSIDERABLE	-0.2586723
-3.987407	CONSIDERABLY	-0.5297901
-4.385347	CONSIDERATIONS	-0.2575531
-3.783287	CONSIDERED	-0.746304
-4.209256	CONSIDERING	-0.6282098
-4.686377	CONSISTED	-0.2472204
-4.686377	CONSISTING	-0.2472204
-4.686377	CONSISTS	-0.2472204
-4.686377	CONSOLATION	-0.2495278
-4.686377	CONSPICUOUS	-0.2146599
-4.686377	CONSTANCY	-0.2146599
-4.209256	CONSTANT	-0.6917712
-4.686377	CONSTITUENTS	-0.2472204
-4.385347	CONSTITUTE	-0.4755896
-4.686377	CONSTITUTED	-0.2586454
-4.209256	CONSTITUTION	-0.6406232
-4.686377	CONSTITUTIONALLY	-0.2493725
-4.686377	CONSTRUCT	-0.234807
-4.686377	CONSTRUCTED	-0.2580728
-4.686377	CONSTRUCTION	-0.2472204
-4.686377	CONSULT	-0.2493725
-4.385347	CONSUMED	-0.4709165
-3.987407	CONTACT	-0.4026468
-4.385347	CONTAIN	-0.2493633
-4.686377	CONTAINING	-0.2586365
-4.686377	CONTAINMENT	-0.2146599
-4.209256	CONTAINS	-0.2568084
-4.686377	CONTEMPLATED	-0.2572034
-4.385347	CONTEMPORARIES	-0.2571316
-4.385347	CONTENDED	-0.4733044
-4.686377	CONTENDING	-0.2586723
-4.686377	CONTENT	-0.2576965
-4.686377	CONTEXT	-0.2586723
-4.686377	CONTEXTS	-0.2146599
-4.686377	CONTIGUOUS	-0.2586723
-4.084317	CONTINUALLY	-0.6464201
-3.607196	CONTINUE	-0.4394803
-3.607196	CONTINUED	-0.6661978
-4.385347	CONTINUOUS	-0.2586186
-4.385347	CONTRACTED	-0.213024
-4.686377	CONTRADICTORY	-0.2146599
-4.686377	CONTRADISTINCTION	-0.2495278
-4.686377	CONTRARY	-0.2495278
-4.686377	CONTRASTING	-0.2553602
-4.686377	CONTRIVANCES	-0.2146599
-3.841279	CONTROL	-0.3875193
-4.686377	CONTROVERTED	-0.2585202
-4.686377	CONVENTIONAL	-0.2586454
-4.686377	CONVENTIONS	-0.2146599
-3.987407	CONVERSATION	-0.8298322
-3.987407	CONVINCED	-0.5296993
-4.385347	CONVINCING	-0.4770408
-4.385347	COOK	-0.4709528
-4.209256	COOKING	-0.7336962
-4.686377	COOL	-0.2586276
-4.209256	COOLER	-0.6520572
-4.686377	COOLING	-0.2472204
-4.686377	COOPERATING	-0.2146599
-4.209256	COOPERATIVE	-0.6520572
-4.686377	COPESTONE	-0.2536992
-4.209256	COPPER-GREEN	-0.6080626
-4.385347	COPY	-0.2019584
-4.084317	COPYRIGHT	-0.5589594
-4.209256	CORDS	-0.6406232
-4.686377	CORN	-0.2586723
-3.908226	CORNER	-0.247742
-4.686377	CORONA	-0.2146599
-3.908226	CORPORAL	-0.3818437
-4.686377	CORPULENT	-0.2548644
-4.084317	CORRECT	-0.2574634
-4.084317	CORRECTED	-0.6024345
-4.686377	CORRELATION	-0.2472204
-4.686377	CORRESPONDENCE	-0.2584218
-4.385347	CORRY	-0.4771034
-4.686377	COST	-0.2146599
-4.209256	COSTUME	-0.6914545
-4.686377	COSTUMES	-0.2146599
-4.686377	COTTAGES	-0.2584934
-4.686377	COTTON	-0.2586186
-4.084317	COTTONWOODS	-0.6024345
-4.686377	COUCH	-0.2146599
-2.880197	COULD	-0.6472645
-4.686377	COUNCIL	-0.2562423
-3.987407	COUNT	-0.485541
-3.987407	COUNTING	-0.8500302
-3.987407	COUNTRIES	-0.4061094
-3.540249	COUNTRY	-1.052514
-4.385347	COUNTRYMEN	-0.2586633
-3.841279	COUPLE	-0.5799516
-4.686377	COURAGE	-0.2579474
-4.686377	COURIER	-0.2472204
-3.431104	COURSE	-0.5415497
-4.385347	COURT	-0.2525037
-4.686377	COUSIN	-0.2586723
-4.686377	COUSINS	-0.2146599
-4.686377	COVERAGE	-0.2146599
-4.385347	COVERED	-0.4738003
-4.686377	COVERS	-0.2586723
-3.987407	COW	-0.3049219
-4.686377	CPU	-0.2586723
-4.084317	CRACK	-0.6464201
-4.686377	CRACKED	-0.2146599
-3.987407	CRASH	-0.4062877
-4.686377	CRASHED	-0.2581623
-3.987407	CRATER	-0.3027698
-4.686377	CRAVENTY	-0.2146599
-4.385347	CRAVENTY'S	-0.2584666
-4.686377	CRAWL	-0.2585202
-3.908226	CRAWLED	-0.8213742
-4.686377	CRAZY	-0.2146599
-4.686377	CREAK	-0.2495278
-4.686377	CREAMY	-0.2553602
-4.385347	CREATE	-0.2043462
-4.209256	CREATED	-0.6888821
-4.686377	CREATION	-0.2579564
-4.209256	CREATIVE	-0.6519409
-4.686377	CREDIT	-0.2495278
-4.686377	CREDITABLE	-0.2495278
-4.686377	CREDITOR	-0.2536992
-4.686377	CREEPING	-0.2582339
-4.686377	CREPE	-0.2586633
-4.686377	CREPT	-0.2576248
-4.686377	CRESCENT	-0.2472204
-4.686377	CRESS	-0.2586633
-4.209256	CREST	-0.7248738
-4.385347	CREW	-0.4330999
-4.686377	CRIB	-0.234807
-4.084317	CRICKETS	-0.6461786
-3.482257	CRIED	-0.5428216
-4.686377	CRIES	-0.2567186
-4.686377	CRITERIA	-0.2582697
-4.686377	CRITICISM	-0.2536992
-4.686377	CRITICIZED	-0.2537263
-4.686377	CROCODILE	-0.2586097
-4.686377	CROFTS	-0.2495278
-4.209256	CROOKED-LEG	-0.728135
-4.084317	CROPS	-0.6024345
-4.084317	CROSS	-0.5343134
-4.686377	CROSSING	-0.234807
-3.908226	CROUCHED	-0.7400322
-4.686377	CROWDS	-0.2472204
-4.686377	CRUELLY	-0.2586723
-4.686377	CRUISING	-0.2585649
-4.686377	CRUMBS	-0.2556214
-4.686377	CRUSH	-0.2586454
-4.385347	CRUSHED	-0.4761993
-4.686377	CRUSHING	-0.2548644
-4.686377	CRUST	-0.2472204
-3.686377	CRY	-0.6514651
-4.686377	CRYPTIC	-0.2586097
-4.686377	CRYSTAL	-0.2586723
-4.686377	CRYSTALLINE	-0.2586276
-4.385347	CULTURE	-0.4532471
-4.209256	CUNNING	-0.6519319
-4.686377	CUNNINGLY	-0.2586723
-3.783287	CURE	-0.3700235
-4.209256	CURIOUS	-0.2571764
-4.385347	CURIOUSLY	-0.4330999
-3.607196	CURLY	-0.7507004
-4.686377	CURRENT	-0.2585739
-4.209256	CURRENTS	-0.6080626
-4.209256	CURRY	-0.6501034
-4.385347	CURSE	-0.4532471
-3.987407	CURSED	-0.3135863
-4.686377	CURTAINS	-0.2477984
-4.686377	CURTIOSITY	-0.2146599
-4.686377	CURVES	-0.2586723
-4.686377	CUSTOM	-0.2146599
-4.084317	CUT	-0.5062184
-4.686377	CUTTERS	-0.2586723
-4.209256	CUTTING	-0.2537082
-4.686377	CYNTHIA	-0.2586723
-4.686377	DABCHICKS	-0.2586723
-4.385347	DADDY	-0.4330999
-3.987407	DAILY	-0.9447743
-4.686377	DANE	-0.2477984
-4.686377	DANFORTH	-0.2586633
-4.385347	DANGER	-0.2471837
-4.686377	DANTE	-0.2583681
-4.686377	DARE	-0.2575083
-4.686377	DARED	-0.2538077
-4.686377	DARING	-0.2146599
-3.987407	DARK	-0.4243774
-4.686377	DARKER	-0.2146599
-4.686377	DARKLY	-0.2586633
-4.686377	DARKNESS	-0.2586723
-4.209256	DARNED	-0.6080626
-3.987407	DARTED	-0.3080258
-4.686377	DASHBOARD	-0.2586633
-4.209256	DASHED	-0.6500136
-4.209256	DATA	-0.2084408
-4.385347	DATABASE	-0.4330999
-3.987407	DATE	-0.5301803
-4.084317	DAUGHTER	-0.5041933
-4.209256	DAUGHTRY	-0.6520572
-4.385347	DAUGHTRY'S	-0.4768619
-4.084317	DAVE	-0.6464112
-4.084317	DAVID	-0.5143916
-4.686377	DAWN	-0.2472204
-2.978807	DAY	-0.4671186
-3.572434	DAYLIGHT	-0.4066482
-3.987407	DAYLIGHT'S	-0.3140517
-3.431104	DAYS	-0.302716
-4.686377	DAYTIME	-0.2585918
-4.385347	DE	-0.2586633
-3.732135	DEAD	-0.6608564
-4.209256	DEAF	-0.6080626
-3.908226	DEAL	-0.653997
-4.686377	DEALING	-0.2553602
-4.209256	DEAR	-0.7355789
-4.209256	DEAREST	-0.6412011
-3.455928	DEATH	-0.6877183
-4.686377	DEBT	-0.2536992
-4.686377	DEBTER	-0.2557835
-4.686377	DEBTS	-0.2586633
-3.987407	DEBUTANTE	-0.2702092
-4.686377	DECADES	-0.2567725
-4.686377	DECAYING	-0.2586276
-4.385347	DECEITFUL	-0.4770676
-4.686377	DECENT	-0.2586544
-4.084317	DECISION	-0.5101629
-4.686377	DECK	-0.2146599
-3.783287	DECLINE	-0.2741181
-4.686377	DECORATE	-0.2537263
-4.686377	DECORATED	-0.2577593
-4.385347	DECREASE	-0.2226894
-4.686377	DECREASES	-0.2146599
-4.686377	DECREASING	-0.2146599
-4.686377	DEDUCTED	-0.2576248
-4.385347	DEED	-0.4330999
-4.084317	DEEP	-0.5485532
-4.686377	DEEPENED	-0.2146599
-4.209256	DEEPER	-0.7288533
-4.385347	DEEPLY	-0.2521589
-4.385347	DEER	-0.2585828
-4.686377	DEFACED	-0.2553602
-4.686377	DEFEAT	-0.2586723
-4.084317	DEFECT	-0.6457489
-4.686377	DEFECTIVE	-0.2586723
-4.385347	DEFEND	-0.2542054
-4.686377	DEFENDED	-0.2572034
-4.686377	DEFINED	-0.2567994
-4.686377	DEFINITE	-0.2586544
-4.686377	DEFINITELY	-0.234807
-4.686377	DEFINITIONS	-0.2562513
-3.987407	DEGREE	-0.4335299
-4.209256	DEGREES	-0.7353641
-4.686377	DEL	-0.2586723
-4.686377	DELAY	-0.2146599
-4.385347	DELIBAB	-0.4330999
-4.385347	DELIBERATELY	-0.4770587
-4.686377	DELIBERATIONS	-0.2477984
-3.908226	DELICATE	-0.4650539
-4.385347	DELIGHTED	-0.4738003
-4.686377	DELIGHTFUL	-0.2586544
-4.686377	DELIVERED	-0.2568084
-4.686377	DELLS	-0.2477984
-4.209256	DELUGED	-0.6509559
-4.686377	DEMANDING	-0.2493725
-4.686377	DEMOCRITIC	-0.2586723
-4.686377	DEMONSTRATES	-0.2495278
-4.084317	DENIAL	-0.634995
-4.385347	DENNIN'S	-0.4769424
-4.686377	DEODAR	-0.2586544
-4.686377	DEPEND	-0.2566108
-4.686377	DEPENDENCIES	-0.2579295
-4.686377	DEPENDENT	-0.258556
-3.987407	DEPENDS	-0.5359558
-4.209256	DEPEW	-0.6512427
-4.686377	DEPOPULATION	-0.2472204
-4.686377	DEPORTATION	-0.2146599
-4.686377	DEPOSITED	-0.2524765
-4.385347	DEPOT	-0.4330999
-4.686377	DEPRECATED	-0.234807
-4.686377	DEPRECIATE	-0.234807
-4.686377	DEPRIVED	-0.2472204
-4.385347	DEPTH	-0.2019584
-4.209256	DERIVATIVE	-0.7355789
-4.209256	DERIVED	-0.2078884
-4.385347	DESCARTES	-0.2525037
-4.686377	DESCENDED	-0.234807
-4.686377	DESCRIBE	-0.2576965
-4.084317	DESCRIBED	-0.5095786
-4.686377	DESCRIPTION	-0.2472204
-4.209256	DESERT	-0.6520572
-4.385347	DESERTED	-0.4770944
-4.686377	DESERVE	-0.2537263
-4.686377	DESERVED	-0.2146599
-4.385347	DESIGN	-0.2019584
-4.686377	DESIGNER	-0.2146599
-4.686377	DESIGNS	-0.2146599
-3.908226	DESIRE	-0.4500062
-4.686377	DESK	-0.2572034
-4.686377	DESPERATE	-0.2586723
-4.686377	DESSERT	-0.2567725
-4.686377	DESTINED	-0.2557835
-3.732135	DESTROY	-0.429218
-4.084317	DESTROYED	-0.2551619
-4.686377	DESTROYER	-0.2472204
-3.987407	DESTROYING	-0.4429902
-4.084317	DETAIL	-0.5097418
-4.686377	DETAILED	-0.2586723
-4.385347	DETAILS	-0.2145708
-4.686377	DETAINED	-0.2146599
-4.385347	DETERMINE	-0.4532471
-4.084317	DETERMINED	-0.5479197
-4.686377	DETERRENT	-0.2557835
-4.385347	DEVELOP	-0.2524129
-4.385347	DEVELOPED	-0.4678125
-4.209256	DEVELOPMENT	-0.6790797
-3.987407	DEVELOPMENTS	-0.2702092
-4.686377	DEVIATED	-0.257302
-4.209256	DEVICE	-0.6914346
-3.510286	DEVICES	-0.8515886
-3.908226	DEVIL	-0.6078944
-4.385347	DEVISED	-0.4757421
-4.209256	DEVOTED	-0.2470643
-4.084317	DEVOTION	-0.6373024
-4.686377	DEVOURED	-0.2572034
-4.686377	DEW	-0.2586723
-4.209256	DIAGNOSIS	-0.6080626
-4.686377	DIAGRAMS	-0.2477984
-4.209256	DIAL	-0.7343695
-4.084317	DIALING	-0.6024345
-3.686377	DIAMETER	-0.3220491
-4.385347	DICK	-0.245703
-3.987407	DICTIONARY	-0.4923134
-2.78875	DID	-0.8607713
-3.482257	DIDN'T	-0.412593
-3.407624	DIE	-0.6450343
-3.644984	DIED	-0.4217653
-4.686377	DIET	-0.2146599
-3.783287	DIFFERENCE	-0.5496861
-3.482257	DIFFERENT	-0.2810779
-4.686377	DIFFERENTIAL	-0.2586633
-4.686377	DIFFERENTLY	-0.2536992
-4.385347	DIFFICULT	-0.2146005
-4.686377	DIFFICULTIES	-0.2146599
-4.209256	DIFFICULTY	-0.6916525
-4.686377	DIFFUSION	-0.2586454
-3.607196	DIG	-1.330913
-4.209256	DIGITAL	-0.6520572
-4.686377	DIGNIFIED	-0.2586723
-4.686377	DIM	-0.2586365
-4.385347	DIMENSIONS	-0.2019584
-4.385347	DINE	-0.212547
-4.385347	DINING	-0.4752125
-3.686377	DINNER	-0.626931
-3.908226	DIRECT	-0.4311089
-4.686377	DIRECTED	-0.2551259
-3.987407	DIRECTION	-0.4796713
-4.686377	DIRECTLY	-0.2586633
-4.209256	DIRECTORY	-0.6917217
-4.385347	DIRK	-0.4771034
-4.686377	DIRT	-0.2146599
-4.686377	DISADVANTAGEOUS	-0.2495278
-4.686377	DISAGREEABLE	-0.2495278
-4.686377	DISAPPOINT	-0.2544312
-4.084317	DISAPPOINTMENT	-0.6402511
-4.385347	DISCONCERTING	-0.4771034
-4.686377	DISCONTINUITY	-0.2584218
-4.209256	DISCOURAGED	-0.6520572
-4.686377	DISCOVER	-0.234807
-4.686377	DISCOVERED	-0.2524765
-3.841279	DISCOVERY	-0.6645031
-4.686377	DISCRETION	-0.2477984
-4.686377	DISCUSSION	-0.2472204
-3.908226	DISEASE	-0.4601761
-4.686377	DISGUISES	-0.2146599
-4.385347	DISGUST	-0.4330999
-3.908226	DISGUSTED	-0.6485197
-4.686377	DISHEVELED	-0.2585918
-4.385347	DISINCLINED	-0.4679678
-4.686377	DISINTEGRATING	-0.2586723
-4.686377	DISK	-0.2586633
-4.686377	DISLOCATED	-0.2146599
-4.686377	DISMAL	-0.2568174
-4.686377	DISMAY	-0.2548644
-4.385347	DISPLAY	-0.2347125
-4.686377	DISPOSAL	-0.2586633
-4.686377	DISPOSED	-0.2472204
-4.686377	DISPOSITION	-0.2586723
-4.385347	DISPUTE	-0.4771034
-4.686377	DISPUTED	-0.234807
-4.686377	DISSOCIATED	-0.2146599
-4.686377	DISSOCIATIVE	-0.2586454
-4.686377	DISSOLUTION	-0.2579922
-4.209256	DISTANCE	-0.244993
-4.385347	DISTANT	-0.2585023
-4.686377	DISTINCTION	-0.2584218
-4.686377	DISTINGUISHES	-0.2569251
-4.385347	DISTRESS	-0.209954
-4.686377	DISTRESSED	-0.2572034
-4.209256	DISTRIBUTION	-0.2021519
-4.209256	DISTRICT	-0.6998107
-4.209256	DISTRICTS	-0.2091429
-4.385347	DISTURB	-0.4532471
-4.686377	DITCHES	-0.2477984
-4.385347	DIVERGENCE	-0.4656605
-4.686377	DIVERSION	-0.2146599
-4.686377	DIVERSITY	-0.2472204
-4.385347	DIVIDED	-0.2477159
-4.385347	DIVINE	-0.4770855
-3.908226	DIVISION	-0.7394542
-4.686377	DJINN	-0.2586723
-2.614495	DO	-0.8290825
-4.686377	DOANE'S	-0.2586633
-3.841279	DOCTOR	-0.5871663
-4.385347	DOCTRINE	-0.2467703
-3.908226	DOCUMENT	-0.6423206
-3.987407	DOCUMENTS	-0.4855008
-4.686377	DOE	-0.2537263
-3.288437	DOES	-0.5096666
-3.607196	DOESN'T	-0.4090781
-3.482257	DOG	-0.4609724
-4.209256	DOGGONE	-0.6478339
-3.987407	DOGS	-0.4682145
-3.510286	DOING	-0.4323746
-4.686377	DOLITTLE	-0.2586633
-3.987407	DOLLAR	-0.8722575
-3.908226	DOLLARS	-0.7682121
-4.385347	DOLLS	-0.2469816
-3.841279	DOMAIN	-0.5799516
-3.987407	DOMESTIC	-0.3140338
-4.686377	DOMESTICATION	-0.2524765
-4.686377	DOMINGO	-0.2146599
-2.880197	DON'T	-0.6980824
-3.732135	DONE	-0.2733608
-4.209256	DONKEY	-0.6516814
-3.607196	DOOR	-0.3875396
-4.686377	DOSES	-0.2472204
-3.644984	DOT	-0.3975413
-4.686377	DOTTED	-0.2477984
-4.084317	DOUBLE	-0.5053559
-4.686377	DOUBLING	-0.2477984
-4.209256	DOUBLY	-0.6520572
-3.732135	DOUBT	-0.464888
-4.209256	DOUBTLESS	-0.2556844
-4.686377	DOUGLAS	-0.2586723
-4.686377	DOWDY	-0.2146599
-2.922949	DOWN	-0.6042955
-4.084317	DOZEN	-0.5153995
-4.686377	DRAINING	-0.234807
-4.686377	DRAKE	-0.2575621
-3.987407	DRANK	-0.5185614
-4.686377	DRAPED	-0.2553602
-4.686377	DRAPIEZ	-0.2586723
-4.209256	DRAW	-0.711153
-4.084317	DRAWBACK	-0.6373024
-4.385347	DRAWBACKS	-0.4330999
-4.385347	DRAWLED	-0.4330999
-4.686377	DRAWN	-0.2577593
-4.686377	DREADFULLY	-0.2586723
-4.686377	DREAM	-0.2146599
-3.841279	DREAMS	-0.6744723
-4.686377	DREGS	-0.2472204
-3.908226	DRESS	-0.3583622
-3.987407	DRESSED	-0.4000718
-4.385347	DRESSES	-0.4746914
-4.686377	DRESSING	-0.2586723
-4.385347	DREW	-0.4678125
-4.686377	DRIER	-0.2586723
-4.686377	DRIFTS	-0.2572034
-4.385347	DRINKING	-0.2482932
-4.686377	DRINKS	-0.234807
-4.385347	DRIPPING	-0.4738003
-4.385347	DRIVE	-0.2532467
-4.209256	DRIVER	-0.6520572
-4.686377	DRIVING	-0.258225
-4.385347	DROOP	-0.2431899
-4.686377	DROP	-0.257598
-3.572434	DROPPED	-1.124788
-3.783287	DROPS	-0.5317779
-3.908226	DROUGHT	-0.474738
-4.686377	DROWNED	-0.2568084
-4.686377	DROWNING	-0.2146599
-4.686377	DRUMMING	-0.2493725
-3.987407	DRY	-0.5363137
-4.385347	DUALITY	-0.4330999
-4.385347	DUCHESS	-0.2472112
-4.686377	DUCK	-0.2579653
-3.987407	DUCKS	-0.5248966
-4.686377	DUCT	-0.2586633
-4.686377	DUEL	-0.2579564
-4.686377	DUKE	-0.2585649
-4.385347	DULL	-0.2537444
-4.686377	DULLED	-0.2576965
-4.686377	DUMP	-0.2574904
-4.686377	DUMPED	-0.2581623
-4.686377	DUNGEON	-0.2146599
-4.686377	DUNHAM	-0.2579295
-4.385347	DUPLICITY	-0.4330999
-4.686377	DURATION	-0.2472204
-3.686377	DURING	-0.456255
-4.385347	DUST	-0.2125769
-4.209256	DUTY	-0.6797211
-4.686377	DWELL	-0.2582876
-4.209256	DWELLER	-0.6080626
-4.385347	DWELLS	-0.2077879
-4.686377	DWINDLING	-0.2586365
-4.686377	DYING	-0.2146599
-3.195015	EACH	-0.6008876
-4.686377	EARLIEST	-0.2586723
-3.783287	EARLY	-0.5955626
-3.732135	EARNED	-0.3970122
-4.686377	EARNEST	-0.2495278
-3.987407	EARNINGS	-0.3141412
-4.209256	EARS	-0.2414257
-3.239219	EARTH	-0.6044575
-4.686377	EARTHLY	-0.2586633
-4.686377	EARTHS	-0.2146599
-4.686377	EARTHY	-0.2586723
-4.686377	EASE	-0.2564311
-3.607196	EASILY	-0.3317311
-4.084317	EASTERN	-0.6464201
-4.084317	EASY	-0.5156106
-3.987407	EAT	-0.4149758
-4.209256	EATEN	-0.6862943
-4.686377	EATERS	-0.2146599
-3.783287	EATING	-0.4224817
-4.686377	ECCENTRIC	-0.2586723
-4.686377	ECLIPSE	-0.2580549
-4.686377	EDEN	-0.2146599
-3.841279	EDGE	-0.6251402
-4.084317	EDGED	-0.6431349
-4.209256	EDGES	-0.6406232
-4.209256	EDINBURGH	-0.6519498
-4.686377	EDITION	-0.2472204
-4.686377	EDITOR	-0.2472204
-4.209256	EDITORIAL	-0.6520572
-3.908226	EFFECT	-0.6342514
-4.686377	EFFECTED	-0.2146599
-4.385347	EFFECTIVE	-0.4770408
-4.686377	EFFECTS	-0.2472204
-4.385347	EFFICIENTLY	-0.4771034
-3.987407	EFFORT	-0.3050771
-4.385347	EFFORTS	-0.4751587
-4.686377	EGG	-0.2146599
-4.686377	EGGS	-0.2586723
-4.209256	EGGSHELL	-0.6862642
-4.385347	EGO	-0.4330999
-3.482257	EIGHT	-0.8574349
-3.271404	EIGHTEEN	-0.6037949
-3.686377	EIGHTEENTH	-0.5970703
-4.084317	EIGHTY	-0.5153334
-3.908226	EILEEN	-0.628822
-4.385347	EILEEN'S	-0.4770855
-3.732135	EITHER	-0.4109524
-4.686377	ELABORATE	-0.258225
-4.209256	ELABORATED	-0.6500136
-4.209256	ELAM	-0.6520572
-4.084317	ELAPSED	-0.6461697
-4.385347	ELBOW	-0.2586633
-4.686377	ELDEST	-0.2586097
-3.987407	ELDORADO	-0.3141859
-4.686377	ELEANOR	-0.2586723
-4.385347	ELECTRIC	-0.2586633
-4.686377	ELECTRICAL	-0.2553602
-4.385347	ELECTRICITY	-0.4767992
-4.686377	ELEGANT	-0.2146599
-4.686377	ELEMENT	-0.2524765
-4.385347	ELEMENTARY	-0.2145411
-3.732135	ELEMENTS	-0.2249437
-3.908226	ELEPHANT'S	-0.7507988
-4.686377	ELEVATION	-0.2566108
-4.385347	ELEVEN	-0.2146401
-4.209256	ELI	-0.6520482
-3.908226	ELIJAH	-0.7068937
-3.908226	ELLIOT	-0.4297589
-3.987407	ELM	-0.3141233
-4.385347	ELONGATED	-0.4770855
-3.686377	ELSE	-0.6379795
-4.686377	ELSEWHERE	-0.2572034
-4.686377	ELUSIVE	-0.2586723
-4.686377	EMANCIPATED	-0.2586365
-4.686377	EMBODIED	-0.2524765
-4.686377	EMBROIDERED	-0.2477984
-4.686377	EMINENT	-0.2586723
-4.686377	EMITTED	-0.2493725
-3.841279	EMMA	-0.4602961
-4.385347	EMOTION	-0.4761456
-4.385347	EMPIRE	-0.4330999
-4.686377	EMPIRICAL	-0.2586276
-4.385347	EMPIRICIST	-0.4330999
-4.686377	EMPLOY	-0.2560624
-4.385347	EMPLOYED	-0.2077879
-3.841279	EMPLOYERS	-0.2981814
-3.987407	EMPLOYMENT	-0.4796713
-3.987407	EMPTIED	-0.3134878
-4.686377	EMPTY	-0.2586544
-4.686377	ENABLED	-0.2568084
-4.686377	ENACTED	-0.2495278
-4.686377	ENCHANTING	-0.2585739
-4.686377	ENCODES	-0.2493725
-3.987407	ENCOURAGE	-0.3136221
-4.686377	ENCOURAGED	-0.2572034
-4.385347	ENCRYPTED	-0.4330999
-4.686377	ENCUMBERED	-0.2584845
-3.255013	END	-0.9331374
-3.908226	ENDOWMENT	-0.7068937
-4.686377	ENDOWMENTS	-0.2146599
-4.686377	ENDS	-0.2586633
-3.540249	ENDURE	-0.9601064
-3.841279	ENDURED	-0.6033111
-4.686377	ENDURING	-0.2146599
-4.686377	ENEMIES	-0.2146599
-4.209256	ENERGY	-0.201938
-4.686377	ENGAGE	-0.2581354
-3.987407	ENGAGED	-0.9076418
-4.084317	ENGAGEMENTS	-0.6024345
-4.686377	ENGENDERED	-0.2572034
-3.908226	ENGINEER	-0.2536117
-4.686377	ENGLAND'S	-0.2586544
-3.841279	ENGLISH	-0.3936238
-4.686377	ENGROSSED	-0.2524765
-3.732135	ENJOY	-0.4978739
-4.385347	ENJOYED	-0.2558015
-4.385347	ENLARGEMENT	-0.4656605
-3.572434	ENOUGH	-0.3148339
-4.686377	ENQUIRE	-0.2584129
-4.686377	ENRAGED	-0.2567994
-4.686377	ENRICHES	-0.234807
-3.732135	ENTERED	-0.7172465
-4.385347	ENTERING	-0.234079
-4.686377	ENTERPRISE	-0.2586633
-4.686377	ENTERPRISES	-0.2146599
-4.084317	ENTERS	-0.6453547
-4.686377	ENTERTAINED	-0.2477984
-4.686377	ENTHUSIASM	-0.2524765
-4.209256	ENTHUSIAST	-0.6412011
-4.686377	ENTHUSIASTIC	-0.2586723
-4.686377	ENTIRELY	-0.2586633
-4.686377	ENTRIES	-0.2577145
-4.686377	ENVIED	-0.234807
-4.686377	ENVIRONMENT	-0.2557835
-4.686377	EPICS	-0.2569251
-4.686377	EPICYCLES	-0.2525127
-4.209256	EPOCH	-0.6881043
-4.209256	EQUAL	-0.2443835
-3.987407	EQUALLY	-0.5363137
-4.084317	EQUATION	-0.468429
-4.385347	EQUATIONS	-0.4330999
-3.540249	ERNEST	-0.9752274
-4.686377	ERNEST'S	-0.2586097
-4.686377	ERRAND	-0.2146599
-4.209256	ERRATIC	-0.6080626
-4.686377	ERRORS	-0.2146599
-3.841279	ESCAPE	-0.6047782
-4.385347	ESCAPED	-0.2343628
-4.686377	ESCORT	-0.2472204
-3.841279	ESPECIALLY	-0.4008391
-4.385347	ESQUIMAUX	-0.2477892
-4.686377	ESSENTIAL	-0.2477984
-4.686377	ESSENTIALLY	-0.234807
-4.385347	ESTABLISHED	-0.4756434
-4.209256	ESTABLISHMENT	-0.6080626
-4.686377	ESTATE	-0.2146599
-4.686377	ESTEEMED	-0.2585381
-4.686377	ESTIMATION	-0.2472204
-4.385347	ETC	-0.4330999
-4.686377	ETERNAL	-0.2586633
-4.686377	ETERNITY	-0.2586544
-3.908226	ETHEL	-0.7508614
-3.987407	ETHER	-0.4868559
-4.686377	ETHICAL	-0.2477984
-4.084317	ETHIOPIAN	-0.5147488
-4.209256	EURASIAN	-0.6520572
-4.084317	EUROPE	-0.5031921
-4.686377	EUROPEAN	-0.2586633
-3.167863	EVEN	-0.4202443
-3.510286	EVENING	-0.5078288
-4.385347	EVENTS	-0.2078281
-4.686377	EVENTUALITY	-0.2495278
-3.154898	EVER	-0.452506
-4.686377	EVERLASTING	-0.2586723
-3.142309	EVERY	-0.5415434
-4.686377	EVERYDAY	-0.2586723
-3.607196	EVERYTHING	-0.3769844
-3.908226	EVERYWHERE	-0.7763532
-4.385347	EVIDENCES	-0.4656605
-4.686377	EVIDENT	-0.258225
-4.084317	EVIL	-0.251041
-4.084317	EVOLUTION	-0.459115
-4.209256	EXACT	-0.2584844
-4.385347	EXACTLY	-0.2479451
-4.686377	EXCEEDING	-0.2586097
-4.209256	EXCEPT	-0.6427752
-4.209256	EXCEPTION	-0.6080626
-4.686377	EXCEPTIONS	-0.2146599
-4.686377	EXCESS	-0.2536992
-4.686377	EXCHANGE	-0.2586007
-3.841279	EXCHANGED	-0.34146
-4.385347	EXCHANGES	-0.4751587
-4.686377	EXCITE	-0.2575531
-3.841279	EXCITED	-0.9951178
-3.987407	EXCITING	-0.4460925
-3.732135	EXCLAIMED	-0.9559786
-4.084317	EXCLAMATIONS	-0.6464201
-4.686377	EXCLUSIVE	-0.2586723
-4.084317	EXCREMENTS	-0.1971738
-4.084317	EXCUSE	-0.5086614
-4.686377	EXERTION	-0.2525127
-4.385347	EXHAUSTED	-0.4532471
-4.686377	EXHIBIT	-0.257302
-4.686377	EXILE	-0.2477984
-3.686377	EXISTENCE	-0.370651
-4.385347	EXISTS	-0.4330999
-4.686377	EXPECT	-0.2495278
-4.209256	EXPECTANCY	-0.6080626
-4.385347	EXPECTED	-0.2134212
-4.686377	EXPECTING	-0.2568084
-4.385347	EXPEDITION	-0.2523857
-4.686377	EXPENDITURE	-0.2557835
-3.987407	EXPENSIVE	-0.4803127
-3.841279	EXPERIENCE	-0.2498334
-4.686377	EXPERIMENT	-0.2562513
-4.385347	EXPERIMENTAL	-0.2586365
-3.572434	EXPLAIN	-0.9968559
-3.908226	EXPLAINED	-0.6212601
-3.841279	EXPLANATION	-0.6241149
-4.686377	EXPLORATION	-0.2472204
-4.686377	EXPLORE	-0.234807
-4.686377	EXPLORERS	-0.2566018
-4.209256	EXPLOSION	-0.7242131
-4.686377	EXPOSE	-0.2544312
-4.686377	EXPRESS	-0.2572572
-4.385347	EXPRESSIONS	-0.2025998
-4.686377	EXQUISITE	-0.2146599
-4.686377	EXTENDED	-0.2586633
-4.686377	EXTENSION	-0.2586454
-4.209256	EXTENT	-0.2452789
-4.385347	EXTERNAL	-0.2585381
-4.686377	EXTINCT	-0.2586276
-4.686377	EXTINGUISH	-0.2586186
-4.686377	EXTRACT	-0.234807
-4.686377	EXTRAORDINARY	-0.2586723
-4.686377	EXTRAVAGANCE	-0.2146599
-4.084317	EXTREME	-0.5155711
-4.686377	EXTREMELY	-0.2585471
-4.686377	EXTREMEST	-0.2586365
-4.686377	EXUBERANT	-0.2586723
-4.385347	EXUVIAE	-0.2471837
-3.783287	EYE	-0.4566832
-4.686377	EYED	-0.2568084
-3.118175	EYES	-0.5380375
-4.686377	FABRIC	-0.2583413
-3.033165	FACE	-0.7403552
-3.908226	FACED	-0.6498699
-4.209256	FACES	-0.6412011
-4.385347	FACING	-0.4752485
-3.732135	FACT	-0.2802205
-4.686377	FACTIONS	-0.2524765
-4.385347	FACTOR	-0.4330999
-4.385347	FACTOR'S	-0.4770944
-4.686377	FACTORY	-0.2146599
-4.084317	FACTS	-0.4717669
-3.841279	FAILED	-0.4492924
-4.385347	FAILURE	-0.2452882
-4.084317	FAINTLY	-0.6464201
-3.908226	FAIR	-0.2603445
-4.209256	FAIRLY	-0.7357667
-4.209256	FAITH	-0.2040522
-4.686377	FAITHFULLY	-0.2146599
-4.084317	FALL	-0.6463128
-3.987407	FALLEN	-0.4783608
-4.385347	FALLING	-0.2140855
-4.084317	FALLS	-0.6460623
-4.686377	FALSE	-0.2586633
-4.209256	FALTER	-0.6491863
-4.686377	FALTERED	-0.234807
-4.385347	FAMILIES	-0.2553962
-4.084317	FAMILY	-0.2134311
-4.385347	FAMINE	-0.4746824
-4.686377	FANG	-0.2146599
-4.686377	FANGS	-0.2472204
-3.154898	FAR	-0.6629124
-4.209256	FARMER	-0.6520214
-4.084317	FARMING	-0.6402511
-3.987407	FARTHER	-0.5249792
-4.686377	FARTHEST	-0.2146599
-4.686377	FASCINATE	-0.2568084
-4.686377	FASCINATING	-0.2586723
-4.084317	FASHION	-0.231288
-4.686377	FASHIONABLE	-0.2584845
-4.686377	FASHIONED	-0.2586365
-4.209256	FAST	-0.6502202
-4.084317	FASTIDIOUS	-0.6459101
-3.987407	FAT	-0.4896729
-4.209256	FATE	-0.7264846
-3.482257	FATHER	-0.3391105
-3.783287	FATHER'S	-0.514898
-4.385347	FATHOM	-0.4753383
-4.209256	FAULT	-0.6881043
-4.686377	FAVOR	-0.2146599
-4.385347	FAVORITE	-0.2585918
-4.686377	FAVORS	-0.2572482
-4.686377	FAVOUR	-0.2472204
-3.987407	FEAR	-0.4803127
-4.686377	FEARED	-0.2548644
-4.686377	FEARFUL	-0.2586186
-3.987407	FEARING	-0.3104137
-3.987407	FEATHERED	-0.314168
-4.209256	FEATHERS	-0.2546478
-4.686377	FEATHERY	-0.2586723
-4.686377	FEATURE	-0.2579564
-4.385347	FEATURES	-0.4330999
-4.209256	FEEBLY	-0.6080626
-4.686377	FEED	-0.2146599
-3.607196	FEEL	-0.5149178
-4.385347	FEELING	-0.2145609
-3.987407	FEELINGS	-0.4041626
-3.987407	FEELS	-0.3133087
-3.255013	FEET	-0.440385
-3.841279	FELL	-0.3242788
-3.686377	FELLOW	-0.6631794
-4.686377	FELLOWS	-0.2524765
-3.607196	FELT	-0.5381729
-4.686377	FEMALE	-0.2472204
-3.783287	FENCE	-0.9201212
-4.385347	FERGUSON	-0.4330999
-4.686377	FERNS	-0.2477984
-4.686377	FERNY	-0.2586633
-4.686377	FERRY	-0.2586633
-4.385347	FERTILITY	-0.245749
-4.686377	FETCH	-0.234807
-4.686377	FETCHED	-0.2581623
-3.239219	FEW	-0.4075595
-4.686377	FIDGIT	-0.2585739
-4.686377	FIDGIT'S	-0.2586186
-4.084317	FIELD	-0.1972253
-4.385347	FIELDS	-0.2019584
-3.987407	FIFTEEN	-0.8737807
-3.572434	FIFTH	-0.5273532
-3.644984	FIFTY	-0.5354209
-3.572434	FIGHT	-1.218385
-4.084317	FIGHTER	-0.6402511
-3.783287	FIGHTING	-0.9335668
-3.908226	FIGURE	-0.3796666
-4.686377	FIGURING	-0.2525127
-3.732135	FILE	-0.348747
-3.732135	FILL	-0.4222364
-4.686377	FILLED	-0.2553602
-4.385347	FILLING	-0.4721664
-4.209256	FINAL	-0.2146004
-3.732135	FINALITY	-0.9559786
-3.987407	FINALLY	-0.5305792
-3.255013	FIND	-0.4659023
-4.686377	FINDING	-0.2582697
-4.209256	FINDS	-0.6471291
-3.908226	FINE	-0.6901751
-4.686377	FINELY	-0.2586633
-4.385347	FINEST	-0.2586097
-4.084317	FINGER	-0.4662995
-3.783287	FINGERS	-0.4753939
-3.783287	FINISH	-0.5012484
-4.084317	FINISHED	-0.1810227
-4.686377	FIR	-0.2566108
-3.343954	FIRE	-0.5445934
-4.686377	FIRE-MEN	-0.2586633
-4.209256	FIRED	-0.6509559
-4.686377	FIRMLY	-0.2578399
-4.686377	FIRS	-0.2477984
-2.962101	FIRST	-0.3586138
-3.841279	FISH	-0.2115117
-4.385347	FISHED	-0.4771034
-4.385347	FISHER	-0.4770766
-4.686377	FIST	-0.2146599
-4.385347	FISTS	-0.4330999
-4.209256	FIT	-0.6282098
-4.385347	FITTED	-0.2567994
-4.686377	FITTINGLY	-0.2580907
-4.084317	FITZHUGH	-0.6414739
-3.482257	FIVE	-0.4031122
-4.686377	FIVES	-0.2585471
-4.686377	FIX	-0.2560624
-3.841279	FIXED	-0.4140455
-3.987407	FLAGS	-0.312268
-4.686377	FLAILSOME	-0.2586454
-4.686377	FLAME	-0.2586365
-4.385347	FLAMED	-0.4769245
-3.987407	FLAMING	-0.2702092
-3.686377	FLASH	-0.4078104
-4.686377	FLASHED	-0.2579922
-4.385347	FLASHES	-0.4656605
-4.686377	FLASHING	-0.2477984
-4.209256	FLAT	-0.7249105
-4.686377	FLED	-0.2575621
-4.686377	FLEE	-0.2583503
-4.686377	FLEET	-0.2582608
-4.686377	FLESH	-0.2536992
-4.385347	FLESH-POTS	-0.4330999
-4.084317	FLEW	-0.6464201
-4.385347	FLICK	-0.2462186
-4.686377	FLIPPING	-0.2574904
-4.084317	FLOODS	-0.461675
-3.841279	FLOOR	-0.5318462
-4.385347	FLOP	-0.2555404
-4.084317	FLOWER	-0.5042943
-3.987407	FLOWERS	-0.2031692
-4.084317	FLUFFS	-0.634995
-4.385347	FLUID	-0.2477617
-4.686377	FLUNG	-0.2495278
-3.908226	FLUSH	-0.2982873
-4.084317	FLUTTERED	-0.6225817
-4.686377	FLY	-0.2583681
-4.385347	FLYING	-0.4770766
-4.686377	FOE	-0.2582697
-3.987407	FOGGY	-0.8298124
-4.209256	FOILED	-0.6458792
-3.841279	FOLDER	-0.5654923
-4.385347	FOLK	-0.4751587
-3.644984	FOLLOW	-0.4035799
-3.644984	FOLLOWED	-0.4921825
-3.783287	FOLLOWING	-0.5132048
-4.686377	FOLLOWS	-0.2146599
-4.385347	FOND	-0.4656605
-3.908226	FOOD	-0.3805185
-4.385347	FOOL	-0.4710797
-4.084317	FOOLISH	-0.4717867
-4.385347	FOOLISHLY	-0.4771034
-4.209256	FOOLISHNESS	-0.6080626
-3.732135	FOOT	-0.4211331
-4.686377	FOOTING	-0.2146599
-4.209256	FOOTPRINTS	-0.6406232
-4.686377	FOOTSTEPS	-0.2146599
-2.177175	FOR	-0.5753747
-4.084317	FORBIDDEN	-0.6454712
-3.732135	FORCE	-0.7031311
-3.841279	FORCES	-0.3602068
-4.686377	FORCIBLY	-0.2472204
-4.686377	FORD	-0.234807
-3.987407	FORECASTING	-0.3116118
-4.686377	FOREFATHERS	-0.2146599
-4.686377	FOREFINGER	-0.2146599
-4.209256	FOREGO	-0.6520125
-4.686377	FOREHEAD	-0.2586723
-4.385347	FOREIGNERS	-0.2045184
-4.385347	FOREMAN	-0.4662384
-4.686377	FOREMOST	-0.2579922
-4.686377	FOREPAWS	-0.2477984
-4.686377	FORERUNNER	-0.2472204
-4.686377	FORESAW	-0.2477984
-3.732135	FOREST	-0.4793298
-4.209256	FORESTS	-0.1948808
-3.841279	FORETELL	-0.3421401
-3.908226	FOREVER	-0.7068937
-3.732135	FORGET	-0.3161817
-4.686377	FORGIVEN	-0.2586097
-4.385347	FORGOT	-0.2141549
-3.908226	FORGOTTEN	-0.3604628
-3.987407	FORK	-0.2446238
-4.385347	FORKS	-0.2470276
-3.343954	FORM	-0.3954408
-3.908226	FORMAT	-0.8112882
-4.686377	FORMATIONS	-0.2472204
-4.084317	FORMED	-0.459115
-4.686377	FORMERLY	-0.2581891
-4.686377	FORMLESS	-0.2586723
-3.908226	FORMS	-0.3549065
-4.686377	FORMULA	-0.2146599
-3.644984	FORT	-0.320786
-3.732135	FORTH	-0.5082346
-4.385347	FORTUNE	-0.2078281
-3.783287	FORTY	-0.8158472
-4.209256	FORWARD	-0.2251401
-3.364158	FOUND	-0.3019308
-3.908226	FOUNDATION	-0.4191782
-3.987407	FOUNDATIONS	-0.4658725
-4.686377	FOUNTAIN	-0.2146599
-3.385347	FOUR	-0.221857
-4.686377	FOURTEEN	-0.2146599
-3.644984	FOURTH	-0.2971678
-4.686377	FOWL	-0.2579474
-4.385347	FOX	-0.21357
-4.686377	FOXES	-0.2586633
-4.385347	FRAGMENT	-0.4760022
-3.987407	FRAGMENTS	-0.3141859
-4.084317	FRANCISCO	-0.6445562
-4.686377	FRANCOIS	-0.2477984
-4.686377	FRANTIC	-0.2553602
-4.385347	FRAUD	-0.4330999
-4.209256	FREE	-0.2044981
-3.987407	FREED	-0.3131115
-4.686377	FREEDOM	-0.2495278
-4.385347	FREELY	-0.4742235
-4.686377	FREEZING	-0.2524765
-4.385347	FREIGHT	-0.4678125
-4.686377	FRENCH	-0.2586723
-4.686377	FREQUENT	-0.2524765
-4.686377	FREQUENTED	-0.2572034
-3.343954	FRESH	-0.4344026
-4.686377	FRESHLY	-0.2586097
-4.686377	FRESNEL	-0.2584129
-4.686377	FRESNO	-0.2586723
-4.686377	FRICTION	-0.2146599
-3.540249	FRIEND	-0.4776437
-3.841279	FRIENDS	-0.5396999
-4.686377	FRIENDSHIP	-0.2557835
-4.686377	FRIGHT	-0.2477984
-4.686377	FRIGHTENED	-0.2576248
-4.686377	FRIGID	-0.2586633
-4.686377	FRISKING	-0.2477984
-2.589467	FROM	-0.6430395
-4.385347	FROST	-0.2421044
-4.686377	FROW	-0.2562513
-4.686377	FROWNED	-0.2146599
-4.686377	FROWST	-0.2553602
-4.686377	FROZEN	-0.2586454
-4.209256	FRUITS	-0.713164
-4.686377	FUEL	-0.2585649
-4.385347	FULFILLED	-0.4735659
-3.407624	FULL	-0.5347581
-4.686377	FULL-BLOWN	-0.2586633
-4.686377	FUN	-0.2146599
-4.385347	FUNCTION	-0.2553332
-4.686377	FUNDAMENTAL	-0.2586097
-4.686377	FUNK	-0.2146599
-3.908226	FUR	-0.4237154
-4.686377	FURNISH	-0.257302
-4.385347	FURNISHED	-0.2491806
-4.385347	FURNITURE	-0.23766
-4.385347	FURS	-0.2514503
-3.686377	FURTHER	-0.3164071
-4.385347	FUTILE	-0.4709165
-4.385347	FUTURE	-0.4656605
-4.686377	GABRIEL	-0.2584666
-4.385347	GAD	-0.4760649
-4.686377	GAIN	-0.234807
-3.987407	GAINED	-0.4855008
-4.686377	GAINING	-0.2566108
-4.686377	GALLANT	-0.2586276
-4.686377	GALLANTRY	-0.2524765
-4.084317	GALLINA	-0.6463575
-3.482257	GAME	-0.8384408
-4.686377	GAMES	-0.2553602
-4.686377	GANG	-0.2586454
-4.686377	GAPS	-0.2586723
-3.841279	GARB	-0.3307419
-4.385347	GARBAGE	-0.2138278
-3.732135	GARDEN	-0.2279464
-4.686377	GARFISH	-0.2477984
-4.686377	GARRISON	-0.2477984
-4.686377	GARRY	-0.2576248
-4.686377	GASP	-0.2146599
-4.686377	GASPED	-0.2146599
-4.686377	GATES	-0.2472204
-4.686377	GATH	-0.2146599
-4.209256	GAUNT	-0.6520572
-3.455928	GAVE	-0.4898828
-4.686377	GAY	-0.2584845
-4.209256	GAZED	-0.6519856
-4.686377	GEAR	-0.2538077
-4.084317	GEESE	-0.635573
-3.644984	GENERAL	-0.4412391
-4.686377	GENERALISE	-0.234807
-4.686377	GENERALLY	-0.2524765
-4.385347	GENERATE	-0.2249662
-3.987407	GENERATED	-0.4319428
-4.385347	GENERATION	-0.2347881
-4.686377	GENERATIONS	-0.2548644
-4.209256	GENIUS	-0.6080626
-4.686377	GENTLEMAN	-0.2495278
-4.385347	GENTLEMEN	-0.4330999
-4.385347	GENTLY	-0.4771034
-4.209256	GENUINE	-0.7357756
-4.686377	GEOFFREY	-0.2525127
-4.209256	GEOLOGICAL	-0.2585112
-4.686377	GEOLOGY	-0.2584487
-4.686377	GERANIUM	-0.2586723
-4.686377	GERMAN	-0.2577593
-3.195015	GET	-0.51412
-4.385347	GETS	-0.4678125
-3.908226	GETTING	-0.3837731
-4.686377	GHERKINS	-0.2586723
-4.686377	GHOST	-0.2146599
-4.209256	GIANT	-0.6797211
-4.686377	GIANTS	-0.2472204
-4.686377	GIESELER	-0.2586723
-4.385347	GIFTS	-0.2019584
-3.841279	GIGANTIC	-0.6366119
-4.686377	GILDING	-0.234807
-4.686377	GIN	-0.2572482
-4.686377	GINGER	-0.2586544
-4.385347	GIRAFFE	-0.2562693
-3.987407	GIRL	-0.829852
-3.841279	GIRL'S	-0.4602871
-3.732135	GIRLS	-0.4005157
-3.118175	GIVE	-0.8282667
-4.385347	GIVEN	-0.2360428
-4.385347	GIVES	-0.2492903
-4.385347	GIVETH	-0.4678125
-4.385347	GIVING	-0.2568533
-4.385347	GLACIAL	-0.2581981
-4.686377	GLACIER	-0.2548644
-4.385347	GLACIERS	-0.4751587
-4.084317	GLAD	-0.5424184
-4.686377	GLADE	-0.2581444
-4.385347	GLANCED	-0.4752125
-4.686377	GLANCING	-0.2585381
-4.385347	GLASS	-0.2146005
-4.686377	GLASSES	-0.2472204
-4.686377	GLEAMED	-0.234807
-3.987407	GLIMMER	-0.3027698
-4.084317	GLIMPSED	-0.6431349
-4.385347	GLOBE	-0.4330999
-4.209256	GLOOM	-0.6080626
-4.686377	GLOOMY	-0.2585918
-4.686377	GLORIES	-0.2472204
-4.084317	GLORIOUS	-0.6989074
-4.686377	GLORY	-0.2572034
-3.908226	GLOW	-0.4518911
-4.686377	GNAWING	-0.2477984
-2.866833	GO	-0.4576528
-4.686377	GOAL	-0.2536992
-4.686377	GOAT	-0.2146599
-4.209256	GOD	-0.2474131
-4.686377	GOD'S	-0.2586723
-3.644984	GODS	-0.3851218
-4.686377	GODSEND	-0.2495278
-4.686377	GOES	-0.2579922
-2.853868	GOING	-0.9273827
-3.841279	GOLD	-0.2908085
-4.209256	GOLD-GREEN	-0.6412011
-4.686377	GOMORRAH	-0.2146599
-3.195015	GONE	-0.8317828
-2.996181	GOOD	-0.4687212
-4.209256	GOODBYE	-0.6519141
-4.385347	GOODS	-0.4760022
-3.644984	GOOSE	-0.4773198
-4.209256	GOOSE'S	-0.7357399
-4.686377	GORGE	-0.2584218
-4.209256	GOSH	-0.6520572
-3.033165	GOT	-0.5634996
-4.385347	GOUGED	-0.4662384
-4.209256	GOVERNED	-0.1864206
-4.209256	GOVERNMENT	-0.6406232
-4.686377	GOWN	-0.2477984
-4.385347	GRAB	-0.2574993
-4.385347	GRACE	-0.4767903
-4.686377	GRACEFUL	-0.2146599
-4.385347	GRADUALLY	-0.2586365
-4.209256	GRADUATED	-0.6517709
-4.209256	GRAIN	-0.6080626
-4.686377	GRAINS	-0.2146599
-4.686377	GRAMMARS	-0.2146599
-4.686377	GRAND	-0.2585739
-4.686377	GRANDEUR	-0.2472204
-4.686377	GRANITE	-0.2586723
-4.686377	GRANT	-0.2581623
-4.385347	GRANTED	-0.2517956
-4.686377	GRASPED	-0.2146599
-3.908226	GRASS	-0.247742
-4.686377	GRASSES	-0.2477984
-4.385347	GRAVE	-0.2114519
-3.841279	GRAVEL	-0.3420238
-4.686377	GRAVELLY	-0.2585918
-4.209256	GRAY	-0.7316518
-3.005136	GREAT	-0.3634767
-4.084317	GREATER	-0.2559274
-3.987407	GREATEST	-0.247
-4.385347	GREATLY	-0.4771034
-4.686377	GREEDILY	-0.2493725
-4.385347	GREEK	-0.2144223
-3.987407	GREEKS	-0.5354901
-3.540249	GREEN	-0.5429379
-3.987407	GREETING	-0.2702092
-3.106593	GREGSON	-0.5081791
-3.431104	GREW	-0.4403633
-4.686377	GRIEF	-0.2146599
-4.686377	GRIM	-0.2579653
-4.209256	GRIMLY	-0.6412011
-4.084317	GRIPPED	-0.4919069
-4.686377	GROOMED	-0.2551259
-3.572434	GROUND	-0.2051866
-4.686377	GROUP	-0.2146599
-4.686377	GROVE	-0.2586186
-4.385347	GROVES	-0.2453066
-4.084317	GROW	-0.645283
-3.385347	GROWING	-0.4303134
-4.084317	GROWLED	-0.6024345
-4.385347	GROWN	-0.2487783
-4.686377	GROWS	-0.2566108
-4.209256	GROWTH	-0.1962766
-3.783287	GRUB	-0.7261295
-4.209256	GRUB-THIEF	-0.6516814
-4.686377	GRUDGES	-0.2477984
-3.987407	GRUMBLING	-0.5342608
-4.686377	GUAM	-0.2146599
-4.686377	GUARANTEE	-0.2586723
-4.686377	GUARDS	-0.2567186
-4.084317	GUESS	-0.5099866
-4.209256	GUESSED	-0.6460425
-4.686377	GUESTS	-0.2146599
-4.385347	GUIDANCE	-0.2130737
-4.385347	GUIDED	-0.4752485
-4.084317	GUILT	-0.6225817
-4.686377	GULLIBY	-0.2586723
-4.686377	GUN	-0.2146599
-4.686377	GURGLING	-0.2586544
-4.209256	GUY	-0.256485
-4.686377	GWYNN	-0.2146599
-4.084317	GYMNASTICS	-0.6464112
-4.385347	H	-0.2586365
-4.686377	HA	-0.2586723
-4.686377	HABITS	-0.2584576
-2.251808	HAD	-0.6874936
-4.686377	HAGAR	-0.2578399
-3.908226	HAIR	-0.3504139
-4.686377	HAIRS	-0.2524765
-4.385347	HAIRY	-0.2586633
-3.364158	HALF	-0.4596953
-4.209256	HALF-COCK	-0.6482671
-4.084317	HALFWAY	-0.5152025
-4.686377	HALL	-0.2585381
-4.385347	HALLUCINATION	-0.4770855
-4.686377	HALT	-0.2567815
-4.686377	HAM	-0.2586186
-3.364158	HAND	-0.5662779
-3.607196	HAND-HELD	-1.113782
-4.686377	HANDED	-0.2537263
-3.841279	HANDKERCHIEF	-0.4150391
-4.385347	HANDLE	-0.2550357
-3.385347	HANDS	-0.7538102
-4.686377	HANDSOME	-0.2586723
-4.686377	HANDSOMEST	-0.2586544
-4.209256	HANDWRITING	-0.6080626
-4.385347	HANGERS	-0.4771034
-4.686377	HANRAHAN'S	-0.2586633
-4.385347	HANS	-0.4771034
-4.209256	HAPPEN	-0.6916227
-3.306166	HAPPENED	-1.019774
-4.385347	HAPPENING	-0.2109831
-4.385347	HAPPENS	-0.2045184
-4.385347	HAPPINESS	-0.2468989
-3.686377	HAPPY	-0.3568831
-4.686377	HARBOR	-0.2146599
-4.084317	HARD	-0.2462277
-4.686377	HARDER	-0.2579474
-4.385347	HARDEST	-0.2045184
-4.084317	HARDING	-0.6463844
-4.209256	HARDLY	-0.7335074
-4.686377	HARDWARE	-0.234807
-4.686377	HARMONIES	-0.2472204
-4.209256	HARNISH	-0.6506959
-4.385347	HARPOON	-0.4330999
-3.987407	HARRISON	-0.9481781
-4.209256	HARRY	-0.6520482
-4.385347	HARSH	-0.4769066
-2.841279	HAS	-0.6175202
-4.686377	HASN'T	-0.2586723
-4.084317	HASTENED	-0.6877019
-4.385347	HATCHED	-0.2443928
-4.209256	HATCHET	-0.6412011
-4.385347	HATE	-0.2544131
-3.908226	HATRED	-0.7400322
-4.686377	HATS	-0.2146599
-4.686377	HAULED	-0.2579474
-4.686377	HAUNTED	-0.2575531
-2.320889	HAVE	-0.583951
-4.385347	HAVEN'T	-0.2561614
-3.987407	HAVING	-0.469216
-3.783287	HAWAII	-0.4159275
-4.084317	HAWK	-0.6464201
-4.686377	HAY	-0.2586723
-1.859655	HE	-0.7527751
-3.987407	HE'LL	-0.9552304
-3.987407	HE'S	-0.9573472
-3.271404	HEAD	-0.5273494
-4.686377	HEADED	-0.2586723
-4.385347	HEADQUARTERS	-0.2019584
-3.987407	HEADS	-0.3140517
-4.686377	HEALTH	-0.2579474
-4.385347	HEALTHY	-0.2583592
-3.783287	HEAR	-0.4640645
-3.364158	HEARD	-0.3359083
-4.686377	HEARING	-0.2586723
-3.908226	HEART	-0.3440576
-4.686377	HEART'S	-0.2586723
-4.686377	HEARTS	-0.2477984
-4.686377	HEARTY	-0.2586454
-3.572434	HEAT	-0.5874712
-4.686377	HEATHER	-0.2472204
-4.686377	HEATHERY	-0.2586723
-4.385347	HEAVEN	-0.209143
-4.084317	HEAVENS	-0.6444933
-3.841279	HEAVY	-0.3421043
-4.385347	HEBREWS	-0.4721664
-3.987407	HEEL	-0.5356961
-4.686377	HEGEMONY	-0.2472204
-4.686377	HEIR	-0.2146599
-4.209256	HELD	-0.7346475
-4.084317	HELEN	-0.6456146
-4.686377	HELL	-0.2584576
-3.431104	HELP	-0.4670875
-4.686377	HELPED	-0.2575531
-4.686377	HELPING	-0.2568084
-4.686377	HENCE	-0.234807
-4.686377	HENRIETTA	-0.2586097
-2.387524	HER	-0.5068725
-4.686377	HERCULEAN	-0.2586723
-2.893985	HERE	-0.4934525
-4.209256	HERE'S	-0.6518872
-4.686377	HERMAN	-0.2586723
-4.686377	HEROES	-0.2567994
-4.686377	HEROISM	-0.2586723
-4.209256	HERS	-0.2123381
-3.686377	HERSELF	-0.6144913
-4.686377	HESITATE	-0.2495278
-4.385347	HESITATED	-0.2139666
-4.686377	HID	-0.2568084
-3.987407	HIDE	-0.2702092
-4.084317	HIDING	-0.4649445
-3.482257	HIGH	-0.2719997
-4.686377	HIGHER	-0.2579474
-4.686377	HIGHLAND	-0.2586723
-3.908226	HIGHLY	-0.4346294
-4.385347	HILL	-0.4330999
-4.686377	HILLS	-0.2472204
-4.686377	HILLSIDES	-0.2586633
-2.366231	HIM	-0.8148645
-4.686377	HIMALAYA	-0.234807
-2.829045	HIMSELF	-0.4832521
-4.686377	HINT	-0.2146599
-4.385347	HIP	-0.4330999
-4.686377	HIPPOPOTAMUS	-0.2146599
-4.686377	HIRE	-0.2568084
-2.088682	HIS	-0.4770738
-4.686377	HISTORIC	-0.2586723
-3.686377	HISTORY	-0.6202189
-4.385347	HITCH	-0.4768887
-4.385347	HITHERTO	-0.2586454
-4.686377	HITTING	-0.2568084
-3.841279	HOBSON	-0.3408535
-4.209256	HOIST	-0.735722
-3.732135	HOLD	-0.4867606
-4.209256	HOLE	-0.6849092
-4.686377	HOLES	-0.2524765
-4.686377	HOLLAND	-0.2575621
-4.385347	HOLMES	-0.4330999
-3.324649	HOME	-0.7780917
-4.209256	HOMESICK	-0.6491863
-3.987407	HONOLULU	-0.4923332
-4.686377	HONOROF	-0.2586723
-4.686377	HONOUR	-0.2472204
-4.686377	HONOURABLE	-0.2586723
-4.385347	HOP	-0.2586633
-3.686377	HOPE	-0.4853779
-4.385347	HOPED	-0.2483115
-4.686377	HOPEFUL	-0.2586544
-4.686377	HORIZON	-0.2146599
-4.686377	HORIZONTAL	-0.2586723
-4.385347	HORRIBLE	-0.2146203
-4.686377	HORRIFIED	-0.2586097
-4.209256	HORROR	-0.6797211
-3.908226	HORSE	-0.3038026
-4.686377	HORSES	-0.2477984
-4.686377	HOSPITABLY	-0.2586723
-4.686377	HOSTAGE	-0.2146599
-4.686377	HOSTILE	-0.2586723
-3.987407	HOSTILITIES	-0.2702092
-4.084317	HOT	-0.2457398
-4.084317	HOTEL	-0.6024345
-3.987407	HOTLY	-0.2702092
-3.510286	HOUR	-0.4625838
-4.686377	HOURLY	-0.2586186
-3.644984	HOURS	-0.7691066
-3.431104	HOUSE	-0.6366019
-4.385347	HOUSES	-0.4662384
-2.978807	HOW	-0.4492702
-3.572434	HOWEVER	-0.3310187
-4.385347	HOWISON	-0.4761545
-4.686377	HOWSOEVER	-0.2537263
-4.385347	HUDSON'S	-0.4770944
-4.084317	HUGE	-0.5144497
-3.783287	HUGHIE	-0.5903745
-3.987407	HUMAN	-0.4060895
-4.385347	HUMANITY	-0.4330999
-4.686377	HUMBLE	-0.2146599
-4.686377	HUMBLY	-0.2586723
-4.686377	HUMBOLDT	-0.2524765
-4.686377	HUMOURS	-0.2584397
-4.385347	HUMP	-0.2145114
-4.385347	HUMPH	-0.4330999
-3.343954	HUNDRED	-0.6189018
-4.686377	HUNDREDTH	-0.2584397
-4.686377	HUNGER	-0.2146599
-4.385347	HUNGRY	-0.4662384
-4.084317	HUNT	-0.6873347
-4.084317	HUNTED	-0.6462054
-4.385347	HUNTERS	-0.2124874
-3.987407	HUNTING	-0.4785405
-4.385347	HURLED	-0.476477
-4.209256	HURRAH	-0.6491863
-4.385347	HURRIED	-0.2579295
-3.841279	HURRY	-0.5239815
-4.084317	HURT	-0.5563902
-4.385347	HUSBAND	-0.2555764
-4.385347	HUSH	-0.4662384
-4.686377	HUTCHINGS	-0.2146599
-4.385347	HUTCHINSON	-0.4746824
-4.686377	HUXLEY	-0.2584487
-4.686377	HYDROPHOBIA	-0.2553602
-4.209256	HYENA	-0.6917613
-4.686377	HYMN	-0.2146599
-4.686377	HYPOCRITE	-0.2146599
-4.686377	HYPOS	-0.2584039
-4.686377	HYPOTHESES	-0.2146599
-3.732135	HYPOTHESIS	-0.4763023
-4.084317	HYSTERIA	-0.6024345
-1.952378	I	-0.7468564
-3.908226	I'D	-0.8221445
-3.195015	I'LL	-0.6703656
-3.106593	I'M	-0.5669268
-3.987407	ICE	-0.2702092
-4.686377	ICEBERGS	-0.2146599
-3.195015	IDEA	-0.7034363
-4.209256	IDEAL	-0.6080626
-4.686377	IDEALISM	-0.2585918
-4.209256	IDEALS	-0.6080626
-3.732135	IDEAS	-0.6490513
-4.385347	IDENTICAL	-0.2495186
-3.908226	IDENTIFIED	-0.7502708
-2.736987	IF	-0.6235614
-4.209256	IGNORANCE	-0.2115017
-4.686377	IGNORANT	-0.2477984
-4.385347	IGNORING	-0.4761456
-4.209256	ILL	-0.6862642
-4.686377	ILLEGAL	-0.2146599
-4.686377	ILLEGALLY	-0.2586723
-3.987407	ILLUMINATING	-0.3140607
-3.908226	ILLUSION	-0.7447466
-4.686377	ILLUSTRATE	-0.234807
-4.686377	ILLUSTRATED	-0.2572034
-4.686377	ILLUSTRATION	-0.2586633
-4.686377	ILLUSTRIOUS	-0.2586633
-4.686377	IMAGE	-0.2526397
-4.686377	IMAGES	-0.2146599
-3.686377	IMAGINE	-0.6233357
-4.385347	IMAGINING	-0.4330999
-3.987407	IMMACULATE	-0.3141412
-4.385347	IMMEDIATE	-0.2586365
-3.841279	IMMEDIATELY	-0.3604216
-4.686377	IMMENSE	-0.2586544
-4.385347	IMMENSELY	-0.2586633
-4.209256	IMMORTAL	-0.6472105
-4.686377	IMPACT	-0.2536992
-4.686377	IMPALE	-0.234807
-4.686377	IMPARTED	-0.2572034
-4.686377	IMPARTIALITY	-0.2472204
-4.686377	IMPEDED	-0.234807
-4.686377	IMPLEMENT	-0.2493725
-4.209256	IMPLIED	-0.7301053
-4.385347	IMPORT	-0.4330999
-4.209256	IMPORTANCE	-0.2423829
-3.732135	IMPORTANT	-0.3584987
-3.644984	IMPOSSIBLE	-1.24582
-4.686377	IMPRESSING	-0.2585649
-4.385347	IMPRESSION	-0.2104339
-4.686377	IMPRESSIVELY	-0.2585471
-4.686377	IMPRESSIVENESS	-0.2495278
-4.686377	IMPROVED	-0.2586723
-3.908226	IMPROVEMENT	-0.4191477
-4.686377	IMPROVEMENTS	-0.2146599
-4.385347	IMPULSE	-0.2043462
-1.848158	IN	-0.7114454
-4.686377	INADEQUACY	-0.2146599
-4.686377	INAPPROPRIATE	-0.2584129
-4.385347	INCALCULABLE	-0.2584308
-4.084317	INCH	-0.6450229
-4.686377	INCHES	-0.258225
-4.209256	INCIDENT	-0.7334085
-4.209256	INCIDENTAL	-0.6520572
-4.686377	INCLINED	-0.2495278
-4.385347	INCLUDE	-0.4532471
-3.841279	INCOME	-0.341227
-4.686377	INCONSOLABLE	-0.2579026
-4.686377	INCONSPICUOUS	-0.2586544
-4.686377	INCONVENIENT	-0.2146599
-4.686377	INCORPORATING	-0.2536992
-4.385347	INCREASE	-0.245749
-3.908226	INCREASES	-0.6059797
-3.686377	INCREASING	-0.4912113
-4.209256	INCUBATION	-0.6080626
-3.686377	INDEED	-0.1602732
-4.686377	INDEFATIGABLE	-0.2586723
-4.686377	INDEFINITELY	-0.2585739
-4.385347	INDEPENDENT	-0.2586454
-4.686377	INDESTRUCTIBLE	-0.2477984
-4.686377	INDEX	-0.2586454
-3.987407	INDIAN	-0.2142144
-3.644984	INDIANS	-0.346562
-4.686377	INDICATE	-0.234807
-4.686377	INDICATION	-0.2472204
-4.686377	INDIFFERENTLY	-0.2477984
-3.987407	INDIGESTION	-0.8245147
-4.686377	INDIRECTLY	-0.2586723
-4.686377	INDISCRIMINATELY	-0.2585292
-4.686377	INDISPENSABLE	-0.2586723
-4.385347	INDIVIDUALLY	-0.4770855
-4.686377	INDIVIDUALS	-0.2560624
-4.385347	INDUCED	-0.476835
-4.686377	INDUCTION	-0.2568174
-4.686377	INDUSTRY	-0.2586007
-4.686377	INEQUALITIES	-0.2472204
-4.686377	INERTIA	-0.2524765
-4.686377	INEXHAUSTIBLE	-0.2524765
-4.686377	INFANCY	-0.2472204
-4.686377	INFANT	-0.2585739
-4.385347	INFERIOR	-0.2562423
-3.908226	INFERNAL	-0.7508167
-4.209256	INFINITE	-0.7357578
-4.686377	INFINITESIMALLY	-0.2586007
-4.084317	INFLUENCE	-0.5456629
-4.686377	INFLUENCES	-0.2577055
-3.686377	INFORMATION	-0.6055818
-4.686377	INFORMED	-0.2146599
-4.686377	INGENERABLE	-0.2477984
-4.686377	INGRATIATING	-0.2586276
-4.686377	INHABITANTS	-0.2472204
-4.686377	INHERENT	-0.2586544
-4.686377	INHERITANCE	-0.2586723
-4.385347	INITIAL	-0.2586186
-4.686377	INITIATED	-0.2586365
-4.686377	INJURING	-0.2585471
-4.209256	INK	-0.6520572
-4.686377	INN	-0.2146599
-4.686377	INNER	-0.2586633
-4.686377	INNS	-0.2146599
-4.385347	INORGANIC	-0.2585918
-3.908226	INPUT	-0.431892
-4.385347	INPUTTING	-0.4770944
-4.686377	INQUIRED	-0.2585918
-4.686377	INQUIRIES	-0.2567994
-4.686377	INSIDE	-0.2551259
-4.385347	INSIDIOUS	-0.4771034
-4.686377	INSIGHT	-0.2579922
-3.987407	INSINUATE	-0.3141859
-4.209256	INSOLUBLE	-0.2562243
-4.686377	INSTANCE	-0.2536992
-3.908226	INSTANT	-0.4240123
-3.908226	INSTEAD	-0.804882
-3.908226	INSTINCT	-0.7068937
-4.209256	INSTITUTED	-0.6427752
-4.686377	INSTRUCTIONS	-0.2583503
-4.686377	INSTRUMENT	-0.2472204
-4.686377	INSURMOUNTABLE	-0.2586723
-4.686377	INTEGRAL	-0.2146599
-4.686377	INTEGRATED	-0.2586723
-4.209256	INTEGRATING	-0.7357578
-4.209256	INTELLECTUAL	-0.6518694
-3.987407	INTELLIGENT	-0.3138996
-4.686377	INTELLIGIBLE	-0.2146599
-4.686377	INTENDED	-0.2557835
-4.686377	INTENSE	-0.2586186
-4.686377	INTENTION	-0.2495278
-4.209256	INTEREST	-0.2037885
-4.686377	INTERESTED	-0.2524765
-4.686377	INTERESTING	-0.2495278
-4.686377	INTERESTS	-0.2146599
-3.908226	INTERFACE	-0.6505434
-4.686377	INTERFERE	-0.2553602
-4.686377	INTERFERES	-0.2553602
-4.686377	INTERMEDIATE	-0.2586276
-4.385347	INTERMITTENT	-0.4330999
-4.686377	INTERPRETATION	-0.2524765
-4.686377	INTERPRETER	-0.2146599
-4.385347	INTERURBAN	-0.4330999
-3.987407	INTERVALS	-0.3081891
-4.686377	INTESTINAL	-0.2586723
-2.799886	INTO	-0.640696
-4.084317	INTOXICATED	-0.644978
-4.385347	INTRODUCED	-0.2571047
-4.209256	INVADERS	-0.6080626
-4.686377	INVASION	-0.2472204
-4.686377	INVENTED	-0.2477984
-4.686377	INVENTION	-0.2472204
-4.686377	INVESTIGATED	-0.2572034
-4.385347	INVESTIGATION	-0.21465
-4.686377	INVESTIGATIONS	-0.2146599
-4.686377	INVESTIGATOR	-0.2146599
-4.686377	INVESTING	-0.2524765
-4.686377	INVESTMENT	-0.2146599
-4.686377	INVITE	-0.2576965
-4.686377	INVOLUNTARILY	-0.2586723
-4.686377	INVOLVE	-0.2582697
-4.385347	INVOLVED	-0.2077879
-4.385347	INWARDLY	-0.4330999
-4.686377	IOTA	-0.2472204
-4.209256	IRATE	-0.6520572
-4.686377	IRON	-0.2586365
-4.686377	IRONIES	-0.2538077
-4.686377	IRONY	-0.2472204
-4.209256	IRRELEVANT	-0.6080626
-4.209256	IRRITATION	-0.6520125
-4.686377	IRVINE	-0.2525127
-1.942867	IS	-0.5178499
-4.686377	ISAAC	-0.2586723
-4.686377	ISHMAEL	-0.2586723
-4.385347	ISLAND	-0.2019584
-4.385347	ISLANDS	-0.4746914
-4.385347	ISLE	-0.4662384
-4.686377	ISLES	-0.2582965
-4.385347	ISN'T	-0.2586365
-4.686377	ISRAEL	-0.2146599
-4.686377	ISRAELITES	-0.2567186
-3.908226	ISSUE	-0.6364722
-4.385347	ISSUED	-0.4678125
-1.945225	IT	-0.6879507
-3.223979	IT'S	-0.558998
-3.908226	ITALIAN	-0.7508614
-4.686377	ITCH	-0.2557835
-4.209256	ITCHY	-0.6519856
-2.767299	ITS	-0.4226308
-3.987407	ITSELF	-0.4060003
-4.084317	IVORY	-0.6464112
-3.987407	JACK	-0.5363226
-4.209256	JACOB	-0.6520572
-3.783287	JACQUES	-0.4122653
-4.385347	JAGGED	-0.4330999
-4.686377	JAIL	-0.2146599
-4.686377	JAMES	-0.2586723
-4.385347	JANE	-0.257598
-4.209256	JAPANESE	-0.7357399
-4.385347	JARGON	-0.4656605
-3.987407	JASPAR	-0.314168
-4.209256	JAWS	-0.6518515
-4.385347	JAYS	-0.4751587
-4.385347	JEALOUSY	-0.2019584
-3.195015	JEANNE	-0.6270493
-4.686377	JEANNE'S	-0.2586454
-4.209256	JERK	-0.6906119
-4.686377	JERSEY	-0.2146599
-4.209256	JERUSALEM	-0.6080626
-4.686377	JESSE	-0.2146599
-4.385347	JEWELRY	-0.2498655
-4.686377	JIG	-0.2525127
-4.686377	JILL	-0.2586723
-3.644984	JOAN	-0.8022143
-3.686377	JOB	-0.4875369
-4.084317	JOCK	-0.6431349
-4.686377	JOE	-0.2585828
-4.084317	JOHANNES	-0.6458833
-4.385347	JOHN	-0.2585918
-4.209256	JOHNNY	-0.6412011
-4.385347	JOIN	-0.2571764
-4.385347	JOINED	-0.2584308
-4.385347	JOISTS	-0.4769692
-4.686377	JOKING	-0.2575531
-4.084317	JOLIFFE	-0.5155414
-4.686377	JOLLY	-0.2567815
-4.385347	JONES	-0.4770676
-4.385347	JOSE	-0.4771034
-4.385347	JOSHUA	-0.4710797
-4.385347	JOURNEY	-0.2581354
-4.686377	JOURNEYED	-0.2553602
-3.482257	JOY	-0.5261258
-4.686377	JOY-THRILL	-0.2146599
-4.686377	JOYFUL	-0.2586723
-4.385347	JOYOUS	-0.4770229
-4.209256	JOYRIDE	-0.651162
-4.686377	JOYS	-0.2472204
-4.209256	JUDGE	-0.6412011
-4.686377	JUDGED	-0.2146599
-4.209256	JUDGMENT	-0.6520572
-4.686377	JULES	-0.2586723
-4.686377	JUNE	-0.2146599
-4.084317	JUNK	-0.6024345
-4.686377	JUNO	-0.2525127
-3.987407	JUNTA	-0.829852
-3.987407	JURISDICTION	-0.2702092
-4.209256	JURY	-0.6080626
-2.901047	JUST	-0.4362468
-4.686377	JUSTICE	-0.2495278
-4.686377	KANT	-0.2585471
-4.686377	KARA	-0.2586723
-4.686377	KAWEAH	-0.2567725
-3.987407	KEENLY	-0.3141859
-3.572434	KEEP	-0.6360477
-4.385347	KEEPING	-0.2586365
-4.385347	KELLYNCH	-0.4330999
-4.209256	KEPT	-0.2560354
-4.385347	KERNEL	-0.4770766
-3.908226	KEY	-0.4215969
-3.841279	KEYBOARD	-0.5647072
-4.686377	KEYBOARDS	-0.2562513
-4.686377	KEYS	-0.2146599
-4.686377	KICKING	-0.2477984
-4.686377	KIDS	-0.2146599
-4.385347	KILL	-0.2581175
-4.385347	KILLED	-0.4753652
-4.209256	KILLS	-0.650651
-4.385347	KILTARTAN	-0.4770855
-4.686377	KILTARTAN'S	-0.258556
-4.686377	KILTARTAN\342\200\231S	-0.258556
-3.987407	KIND	-0.195357
-3.987407	KINDLY	-0.3141769
-3.841279	KINDS	-0.6158127
-4.686377	KINETIC	-0.2586544
-3.686377	KING	-0.4470415
-4.686377	KING'S	-0.258556
-4.686377	KINGFISHERS	-0.2586723
-4.686377	KINGS'	-0.2586454
-4.686377	KIPLING	-0.234807
-4.686377	KISSED	-0.2568982
-4.686377	KITCHEN	-0.2146599
-3.195015	KNEW	-0.5087703
-4.209256	KNIFE	-0.2570508
-4.686377	KNOB	-0.2524765
-4.209256	KNOCK	-0.7315434
-4.385347	KNOCKED	-0.4752485
-2.722589	KNOW	-0.6868797
-4.385347	KNOWING	-0.252975
-4.084317	KNOWLEDGE	-0.4717966
-3.783287	KNOWN	-0.7605115
-3.686377	KNOWS	-0.4310271
-4.686377	KOLOKOLO	-0.2586544
-4.385347	L	-0.4771034
-4.209256	LABOR	-0.7294798
-4.385347	LABOUR	-0.4330999
-4.084317	LACE	-0.6402874
-4.686377	LACK	-0.2472204
-4.686377	LADEN	-0.2553602
-4.209256	LADY	-0.247202
-4.385347	LAGER	-0.4770944
-3.908226	LAID	-0.6893283
-3.686377	LAKE	-0.6346416
-4.686377	LAMBERTIANA	-0.2146599
-4.686377	LAMP	-0.2477984
-4.209256	LAMPS	-0.6502022
-3.343954	LAND	-0.6503177
-4.686377	LANDED	-0.2586454
-4.686377	LANDSCAPE	-0.2524765
-4.686377	LANE	-0.2568174
-3.841279	LANGUAGE	-0.5770496
-4.686377	LAPTOP	-0.2146599
-3.686377	LARGE	-0.4622127
-4.686377	LARGELY	-0.2566108
-4.686377	LARGER	-0.2586544
-4.686377	LARGEST	-0.2538077
-4.686377	LARKSPURS	-0.2477984
-4.084317	LARSEN	-0.6988717
-3.142309	LAST	-0.3818556
-4.686377	LASTED	-0.2567994
-4.686377	LASTLY	-0.2495278
-4.686377	LATE	-0.2146599
-3.841279	LATER	-0.5161538
-4.385347	LATITUDE	-0.4330999
-4.686377	LATITUDES	-0.2584039
-3.987407	LATTER	-0.2470827
-4.686377	LAUGHABLE	-0.2146599
-3.607196	LAUGHED	-0.3691826
-4.686377	LAUGHING	-0.2477984
-4.084317	LAUGHTER	-0.6481169
-3.987407	LAUNCHED	-0.3135863
-4.686377	LAVA	-0.2586723
-3.540249	LAW	-0.9937482
-4.686377	LAWFUL	-0.2562513
-4.686377	LAWN	-0.2586633
-4.084317	LAWS	-0.5023618
-4.385347	LAWYER	-0.4330999
-3.607196	LAY	-0.586866
-3.908226	LE	-0.7508614
-4.209256	LEAD	-0.7256525
-4.209256	LEADER	-0.6412011
-4.686377	LEADERS	-0.2524765
-4.686377	LEADERSHIP	-0.2146599
-4.385347	LEADS	-0.4679678
-4.686377	LEAGUE	-0.2472204
-4.385347	LEANING	-0.476674
-3.908226	LEAPED	-0.7508435
-4.686377	LEAPT	-0.2582787
-4.686377	LEARN	-0.258225
-4.084317	LEARNED	-0.5062915
-4.686377	LEARNING	-0.2146599
-4.686377	LEARNS	-0.2548644
-3.908226	LEAST	-0.6788034
-3.841279	LEAVE	-1.022147
-4.084317	LEAVES	-0.228709
-4.084317	LEAVING	-0.2574455
-4.686377	LECTURE	-0.2577145
-3.686377	LED	-0.9465758
-4.686377	LEDGE	-0.2524765
-3.540249	LEFT	-0.435164
-4.686377	LEG	-0.2146599
-4.686377	LEGAL	-0.2583592
-4.686377	LEGALLY	-0.2585828
-4.209256	LEGEND	-0.6427752
-4.385347	LEISURE	-0.2477709
-4.686377	LEMONADE	-0.2586723
-3.987407	LENGTH	-0.3027698
-4.686377	LENS	-0.2146599
-4.385347	LEOPARD	-0.2466692
-3.407624	LESS	-0.4928427
-4.686377	LESSENING	-0.2551259
-3.987407	LESSER	-0.3140338
-3.510286	LET	-0.7298696
-3.841279	LET'S	-0.6358242
-3.987407	LETTER	-0.9457403
-4.385347	LETTERS	-0.2077879
-4.686377	LIBERTY	-0.2572482
-4.686377	LIBRARIAN	-0.2578399
-4.686377	LIBRARY	-0.2576248
-3.908226	LIBRIVOX	-0.6519589
-3.987407	LIE	-0.4630977
-3.987407	LIED	-0.4822313
-3.987407	LIES	-0.9508474
-4.686377	LIEU	-0.2472204
-3.841279	LIEUTENANT	-0.3380274
-3.033165	LIFE	-0.6859787
-4.209256	LIFE'S	-0.651923
-4.686377	LIFE-CONSERVING	-0.2586723
-4.686377	LIFE-GIVING	-0.2586723
-4.686377	LIFETIME	-0.2146599
-4.686377	LIFT	-0.2586633
-4.084317	LIFTED	-0.6953335
-3.431104	LIGHT	-0.5516759
-4.385347	LIGHTLY	-0.4656605
-4.686377	LIGHTNING	-0.2586723
-4.209256	LIGHTS	-0.2443188
-2.67354	LIKE	-0.6771573
-4.385347	LIKELY	-0.4679678
-4.385347	LIKES	-0.2421322
-4.385347	LIKEWISE	-0.4746914
-4.686377	LIKING	-0.2146599
-4.686377	LILAC	-0.2586544
-4.686377	LILIES	-0.2562513
-3.987407	LIMIT	-0.8622882
-4.385347	LIMITED	-0.2584934
-4.385347	LIMITS	-0.4656605
-4.385347	LINDERMAN	-0.4722477
-3.987407	LINE	-0.8172099
-4.209256	LINES	-0.6501214
-3.987407	LINGO	-0.3134968
-4.686377	LIP	-0.2146599
-4.385347	LIPPERTY	-0.2586544
-3.572434	LIPS	-1.326431
-4.686377	LIST	-0.2146599
-4.385347	LISTEN	-0.2481008
-3.686377	LISTENED	-0.6616079
-4.686377	LITERATURE	-0.2477984
-4.686377	LITHELY	-0.2586723
-2.887037	LITTLE	-0.4762937
-3.644984	LIVE	-0.994315
-3.540249	LIVED	-0.5015392
-4.385347	LIVELY	-0.2477434
-3.908226	LIVER	-0.7507451
-4.209256	LIVES	-0.2127756
-3.783287	LIVING	-0.5150772
-4.209256	LOADED	-0.6412011
-4.209256	LOCKED	-0.6517262
-4.686377	LOCUSTS	-0.2477984
-4.686377	LODGE	-0.2586276
-4.084317	LOFT	-0.6024345
-4.686377	LOFTY	-0.2586633
-4.209256	LOG	-0.7337231
-4.686377	LOGIC	-0.2576965
-4.385347	LOGICAL	-0.2586097
-4.385347	LOINCLOTH	-0.4770855
-3.987407	LONDON	-0.4923332
-4.686377	LONES	-0.258395
-2.978807	LONG	-0.3165425
-3.540249	LONGER	-0.383954
-4.686377	LONGFELLOW	-0.2146599
-4.686377	LONGHURST	-0.2477984
-3.223979	LOOK	-0.3706988
-3.482257	LOOKED	-0.5122797
-4.686377	LOOKEST	-0.2576248
-3.644984	LOOKING	-0.4584373
-3.644984	LOOKS	-0.3049515
-4.084317	LOOMED	-0.6463575
-4.209256	LOOSE	-0.6080626
-4.686377	LOOSELY	-0.257302
-3.841279	LOP-EAR	-0.4431497
-3.783287	LORD	-0.5281641
-4.686377	LORDS	-0.2146599
-4.686377	LOSE	-0.2586454
-4.084317	LOSING	-0.6463128
-3.783287	LOST	-0.5239475
-3.908226	LOT	-0.2836031
-4.209256	LOTS	-0.6406232
-4.686377	LOTTERY	-0.2146599
-4.686377	LOUIS	-0.2477984
-3.987407	LOUISA	-0.2702092
-3.732135	LOVE	-0.4272824
-4.084317	LOVED	-0.2457121
-4.209256	LOVER	-0.7243325
-3.686377	LOW	-0.5917152
-3.908226	LOWER	-0.6789675
-4.686377	LOWEST	-0.2586633
-4.686377	LOWLANDS	-0.2584308
-4.686377	LOWLY	-0.2581175
-4.686377	LOYALLY	-0.2572034
-4.686377	LUMBER	-0.2584129
-4.385347	LUMINOUS	-0.2586633
-4.209256	LUNATIC	-0.6080626
-4.686377	LUNCH	-0.2575621
-4.686377	LUNCHING	-0.2572482
-4.686377	LUNGS	-0.2477984
-4.686377	LUPINES	-0.2586633
-4.686377	LUSH	-0.2586544
-3.987407	LUST	-0.3113329
-4.686377	LUSTER	-0.2146599
-4.209256	LUXURIANT	-0.7357041
-3.987407	LUXURY	-0.8178513
-4.209256	LYING	-0.7333276
-4.385347	M	-0.4771034
-4.686377	MA'AM	-0.2146599
-3.841279	MAB	-0.6026452
-4.385347	MABEL	-0.4771034
-3.783287	MACDOUGALL	-0.5944807
-4.686377	MACKENZIE	-0.2146599
-4.686377	MAD	-0.2146599
-4.209256	MADAM	-0.2023352
-4.209256	MADAME	-0.2118902
-4.385347	MADDENING	-0.4769782
-2.946014	MADE	-0.4964231
-4.385347	MADGE	-0.21465
-4.385347	MADLY	-0.4738003
-4.209256	MADNESS	-0.6080626
-4.686377	MAELSTROM	-0.2146599
-4.209256	MAGAZINE	-0.6459155
-4.385347	MAGIC	-0.4709165
-4.686377	MAGISTRATE	-0.2586723
-4.686377	MAGNIFICA	-0.2560624
-3.908226	MAGNIFICENT	-0.3043575
-4.686377	MAID	-0.2586454
-4.209256	MAIN	-0.2584218
-4.686377	MAINLY	-0.2493725
-4.686377	MAINTAIN	-0.2493725
-4.084317	MAINTAINED	-0.5045343
-4.385347	MAJESTIC	-0.25653
-3.908226	MAJOR	-0.4344415
-3.306166	MAKE	-0.6678634
-3.644984	MAKES	-0.3215179
-4.686377	MAKETH	-0.2493725
-3.540249	MAKING	-0.392761
-4.686377	MALL	-0.2146599
-3.841279	MALNUTRITION	-0.3402222
-4.385347	MALTREATED	-0.4330999
-2.901047	MAN	-0.5112375
-4.209256	MAN'S	-0.6516725
-4.385347	MANAGE	-0.4679678
-4.209256	MANAGED	-0.6429305
-4.084317	MANAGING	-0.6462323
-4.385347	MANIFESTATION	-0.4656605
-3.987407	MANIFESTED	-0.5059618
-4.686377	MANIFESTLY	-0.2586723
-3.908226	MANNER	-0.4073507
-4.084317	MANNERS	-0.193522
-4.686377	MANTLE	-0.2526397
-4.385347	MANUEL	-0.4746824
-4.686377	MANURE	-0.2146599
-4.385347	MANUSCRIPT	-0.4330999
-3.014279	MANY	-0.4245779
-4.084317	MAP	-0.4949761
-4.686377	MAPS	-0.2586633
-4.686377	MAR	-0.2586276
-4.686377	MARBRE	-0.2576248
-3.783287	MARCH	-0.2483491
-4.686377	MARGINS	-0.2553602
-4.686377	MARINER	-0.258019
-4.686377	MARIPOSA	-0.234807
-4.686377	MARK	-0.2572931
-4.686377	MARKED	-0.2583503
-4.686377	MARKET	-0.2146599
-4.084317	MARRIED	-0.5583858
-4.084317	MARTHA	-0.6024345
-4.084317	MARTIN	-0.6463844
-4.686377	MARTYRDOMS	-0.2579474
-4.686377	MARVELLOUS	-0.2586097
-4.385347	MARY	-0.2566737
-4.686377	MASCULINE	-0.2477984
-3.841279	MASS	-0.2840438
-3.987407	MASSAGE	-0.5329109
-4.209256	MASSES	-0.6790797
-4.686377	MASSIVE	-0.2586723
-4.686377	MASSY	-0.2586454
-4.686377	MASTERED	-0.2551259
-4.209256	MATCH	-0.2077778
-4.209256	MATE	-0.6458792
-3.908226	MATERIAL	-0.3899786
-4.686377	MATHEMATICIAN	-0.2477984
-4.686377	MATHEMATICS	-0.2146599
-3.431104	MATTER	-0.2071049
-4.385347	MATTERS	-0.4330999
-4.209256	MATTHEWSON	-0.6520482
-4.385347	MATURE	-0.4721664
-4.209256	MAUI	-0.6519856
-4.385347	MAULED	-0.4330999
-2.915525	MAY	-0.5223578
-4.209256	MAYBE	-0.249208
-4.686377	MAZARIN	-0.2477984
-4.686377	MCCLURE	-0.2586723
-4.084317	MCCOY	-0.5156142
-4.686377	MCCULLOUGH	-0.2477984
-4.209256	MCFEE'S	-0.6520572
-4.209256	MCVEIGH	-0.6519498
-2.586006	ME	-0.5315881
-4.385347	MEADOW	-0.2117608
-4.686377	MEADOWS	-0.2586723
-4.385347	MEAL	-0.4330999
-3.407624	MEAN	-0.4205334
-3.987407	MEANING	-0.3027698
-4.686377	MEANINGFUL	-0.2586365
-4.686377	MEANINGS	-0.2562513
-4.084317	MEANS	-0.5010481
-4.385347	MEANT	-0.2495003
-4.209256	MEANWHILE	-0.6914743
-4.686377	MEAR	-0.2586723
-4.209256	MEASURE	-0.1881385
-4.385347	MEASURED	-0.4532471
-4.686377	MEASURES	-0.2567006
-4.686377	MEASURING	-0.234807
-3.686377	MEAT	-0.2791368
-4.385347	MECHANICAL	-0.2583503
-4.686377	MEDIA	-0.2586723
-4.209256	MEDICAL	-0.2586275
-4.209256	MEET	-0.7297519
-4.686377	MEETING	-0.2568982
-4.686377	MELANCHOLY	-0.2586186
-4.385347	MELONS	-0.4662384
-4.686377	MELVILLE	-0.2585113
-4.385347	MEMBER	-0.2226894
-4.686377	MEMBERS	-0.2472204
-4.209256	MEMORIES	-0.6080626
-4.686377	MEMORY	-0.2146599
-3.023619	MEN	-0.5219187
-4.385347	MENACE	-0.4679678
-4.686377	MENTAL	-0.2585649
-4.084317	MENTION	-0.1986753
-4.385347	MENTIONED	-0.4756434
-4.385347	MERCED	-0.2146005
-4.084317	MERCEDES	-0.6464112
-4.686377	MERCIFULLY	-0.2586723
-4.686377	MERCY	-0.2146599
-3.841279	MERE	-0.5689854
-3.783287	MERELY	-0.5729182
-4.686377	MERIT	-0.2472204
-4.686377	MERRILY	-0.2146599
-4.385347	MERRY	-0.4771034
-4.209256	MESS	-0.6080626
-4.385347	MESSAGE	-0.2135898
-4.686377	MESSING	-0.2579653
-3.841279	MET	-0.6212507
-4.686377	METAL	-0.2580549
-4.686377	METALS	-0.2146599
-4.686377	METEOROLOGY	-0.234807
-4.686377	METEORS	-0.2477984
-3.987407	METHOD	-0.5210139
-4.209256	METHODS	-0.6406232
-4.686377	MICROPHONE	-0.2146599
-3.987407	MIDDLE	-0.8512943
-4.084317	MIDMORNING	-0.6225817
-4.686377	MIDST	-0.2472204
-4.209256	MIDSTREAM	-0.6520214
-3.142309	MIGHT	-0.3577055
-4.686377	MILD	-0.2586723
-4.686377	MILE	-0.2536992
-3.841279	MILES	-0.5876775
-4.686377	MILK	-0.2477984
-4.686377	MILLINERY	-0.2477984
-4.385347	MILLIONAIRE	-0.4771034
-3.223979	MIND	-0.4802239
-4.686377	MINDED	-0.2572482
-4.686377	MINDS	-0.2472204
-4.686377	MINERS	-0.2567186
-4.209256	MINIATURIZED	-0.6520214
-4.686377	MINING	-0.2477984
-4.686377	MINOR	-0.2586723
-4.686377	MINOS	-0.2146599
-4.686377	MINT	-0.2477984
-3.431104	MINUTE	-0.5428292
-3.686377	MINUTES	-0.3643382
-3.732135	MIRACLE	-0.4208304
-4.686377	MIRANDA	-0.2579564
-4.084317	MIRROR	-0.6024345
-4.686377	MIRTH	-0.2586723
-4.385347	MISDEMEANOR	-0.4662384
-3.908226	MISS	-0.4336892
-4.209256	MISSING	-0.6509649
-4.686377	MISSIONS	-0.2477984
-4.209256	MISTAKE	-0.6790797
-4.686377	MISTAKES	-0.2146599
-4.385347	MISTLETOE	-0.2571944
-3.841279	MIXED	-0.6331552
-4.385347	MIXTURE	-0.2469908
-4.686377	MOB	-0.2583681
-4.385347	MOBILE	-0.4770587
-4.686377	MOBY	-0.2586633
-4.385347	MOCKERY	-0.4330999
-4.209256	MODE	-0.6406232
-4.084317	MODEL	-0.4718065
-4.686377	MODELS	-0.2566018
-4.686377	MODERATION	-0.2146599
-3.686377	MODERN	-0.304315
-4.686377	MODESTY	-0.2495278
-4.686377	MODIFICATION	-0.2524765
-4.686377	MODIFICATIONS	-0.2472204
-4.686377	MODIFYING	-0.2493725
-4.686377	MODULE	-0.2579295
-3.987407	MOIST	-0.2702092
-4.686377	MOISTURE	-0.2572034
-3.841279	MOJOMOVE	-0.3420238
-3.987407	MOLE	-0.2423366
-4.686377	MOLE'S	-0.2584845
-4.686377	MOLECULAR	-0.2586723
-4.686377	MOLECULES	-0.2557835
-4.084317	MOLOKAI	-0.6024345
-3.385347	MOMENT	-0.7481879
-4.686377	MOMENT'S	-0.2586633
-3.987407	MOMENTS	-0.5302256
-3.841279	MOMENTUM	-0.6047881
-4.385347	MONARCH	-0.4770587
-4.686377	MONDAY	-0.2586097
-4.209256	MONEY	-0.2560084
-4.686377	MONO	-0.2477984
-4.686377	MONOLOGUE	-0.2586723
-4.385347	MONOPOLY	-0.2572841
-4.385347	MONOTONOUS	-0.2586633
-4.686377	MONOTONY	-0.2472204
-4.385347	MONTH	-0.4709165
-4.385347	MONTHS	-0.2562243
-4.084317	MONTREAL	-0.635573
-4.686377	MOOD	-0.2146599
-3.732135	MOON	-0.3086092
-4.686377	MOOR	-0.2146599
-4.686377	MOORHENS	-0.2569251
-4.209256	MOOSE-BIRDS	-0.6501214
-4.686377	MORAINE	-0.2472204
-4.385347	MORAINES	-0.21465
-4.686377	MORAL	-0.2586633
-2.569106	MORE	-0.5148809
-4.686377	MOREOVER	-0.2586544
-3.686377	MORNING	-0.5462596
-4.686377	MORNINGS	-0.2146599
-4.385347	MORPHOLOGICAL	-0.2586544
-4.385347	MORPHOLOGY	-0.2145312
-4.686377	MORTIFICATION	-0.2472204
-4.686377	MORTON	-0.2579743
-4.686377	MORVEN	-0.2586723
-3.209256	MOST	-0.4445706
-3.407624	MOTHER	-0.3983595
-3.783287	MOTION	-0.3489859
-4.084317	MOTIVE	-0.459115
-4.686377	MOTIVES	-0.2524765
-4.084317	MOUNTAINEER	-0.6024345
-4.209256	MOUNTAINS	-0.2144322
-3.482257	MOUTH	-0.5218183
-4.686377	MOUTHFUL	-0.2572482
-4.686377	MOVE	-0.2146599
-3.607196	MOVED	-1.032236
-4.686377	MOVEMENT	-0.2472204
-3.686377	MOVEMENTS	-0.6598809
-4.084317	MOVING	-0.5147904
-3.510286	MR	-0.4475218
-3.686377	MRS	-0.6339428
-2.922949	MUCH	-0.3819566
-4.385347	MUG	-0.2571495
-4.686377	MULTIPLE	-0.2472204
-4.686377	MULTIPLICATION	-0.2146599
-4.209256	MULTIPLY	-0.2204591
-3.987407	MURDER	-0.3033478
-4.686377	MURDERED	-0.2584397
-4.209256	MURMURED	-0.6080626
-4.686377	MUSGROVE	-0.2525127
-4.686377	MUSGROVES	-0.2585649
-3.987407	MUSIC	-0.5272042
-4.686377	MUSK	-0.2586633
-4.686377	MUSLIN	-0.2586723
-3.130075	MUST	-0.5596097
-4.686377	MUSTARD	-0.2586723
-3.987407	MUTTER	-0.2702092
-4.686377	MUTTERED	-0.2538077
-4.209256	MUZZLE	-0.6519856
-2.48498	MY	-0.5407826
-4.686377	MYRIADS	-0.2472204
-3.510286	MYSELF	-0.3461359
-3.987407	MYSTERIOUS	-0.5349342
-4.686377	MYTHS	-0.2553602
-4.686377	N	-0.2586723
-4.686377	NAKATA	-0.2567186
-4.084317	NAKATA'S	-0.6464201
-3.540249	NAME	-0.5052198
-4.385347	NAME'S	-0.4771034
-3.686377	NAMED	-0.3769251
-4.686377	NANTUCKET	-0.2536992
-3.987407	NAOMI	-0.2702092
-4.686377	NAPKINS	-0.2572034
-4.209256	NARROW	-0.2585023
-4.686377	NARROWED	-0.2477984
-4.686377	NATE	-0.2586723
-4.084317	NATIVE	-0.512412
-3.908226	NATIVES	-0.6453571
-3.783287	NATURAL	-0.5531797
-3.987407	NATURE	-0.3912911
-3.686377	NAUSEATING	-0.6612412
-4.686377	NAY	-0.2586633
-3.644984	NEAR	-0.6046996
-3.572434	NEARER	-0.3862706
-4.084317	NEAREST	-0.6464112
-3.732135	NEARLY	-0.3882658
-4.686377	NEAT	-0.2586544
-3.908226	NECESSARY	-0.6815687
-4.686377	NECESSITY	-0.2586365
-4.084317	NECK	-0.4597564
-3.223979	NEED	-0.3991471
-3.841279	NEEDED	-0.4117478
-4.686377	NEEDFUL	-0.2586723
-4.385347	NEEDLES	-0.2453066
-4.084317	NEEDS	-0.2481374
-4.686377	NEGOTIATED	-0.2146599
-4.686377	NEIGHBOR	-0.2146599
-4.686377	NEILSON'S	-0.2146599
-4.686377	NEITHER	-0.2525127
-3.987407	NELLY	-0.3049219
-4.686377	NEPHEW	-0.2585292
-4.686377	NERO	-0.2586454
-3.908226	NERVOUS	-0.7508614
-4.686377	NESTA	-0.258019
-4.686377	NET	-0.2146599
-3.023619	NEVER	-0.6459655
-4.385347	NEVERTHELESS	-0.2524039
-3.106593	NEW	-0.5197283
-4.209256	NEWBORN	-0.6520572
-4.686377	NEWPORT	-0.2574904
-3.908226	NEWS	-0.6080033
-4.686377	NEWSPAPERS	-0.2146599
-3.482257	NEXT	-0.3383535
-3.908226	NICE	-0.3914484
-4.209256	NICER	-0.6429305
-4.084317	NICHOLAS	-0.6463486
-4.686377	NIECE	-0.2472204
-3.482257	NIGHT	-0.5084006
-4.385347	NIIHAU	-0.4769334
-4.385347	NIMROD	-0.4768887
-3.987407	NINE	-0.2130142
-3.841279	NINETEEN	-0.3420954
-4.686377	NINETEENTH	-0.2586097
-4.084317	NINTH	-0.5151577
-4.686377	NISUS	-0.2146599
-4.686377	NITROGEN	-0.2477984
-2.453381	NO	-0.5223058
-4.209256	NO-SIR-EE	-0.6080626
-4.084317	NOBLE	-0.256494
-4.686377	NOBLEST	-0.2584845
-3.686377	NOBODY	-0.4851296
-3.686377	NODDED	-0.5829862
-3.783287	NOISE	-0.5252508
-4.686377	NOMINAL	-0.2568174
-4.209256	NONE	-0.2113122
-4.686377	NONENTITY	-0.2146599
-4.686377	NOON	-0.2146599
-4.209256	NOPE	-0.6498339
-3.607196	NOR	-0.390763
-4.686377	NORMALLY	-0.2544312
-4.209256	NORSEMEN	-0.6520125
-3.540249	NORTH	-0.5935353
-3.908226	NORTHERN	-0.4346294
-4.209256	NOSE	-0.2139567
-2.286703	NOT	-0.4301211
-4.385347	NOTATION	-0.209143
-4.686377	NOTATIONAL	-0.2586723
-3.987407	NOTED	-0.3131473
-4.686377	NOTES	-0.2472204
-3.095312	NOTHING	-0.5786076
-4.385347	NOTICE	-0.2137783
-4.209256	NOTICED	-0.6458792
-4.385347	NOTIFICATION	-0.4771034
-4.686377	NOTION	-0.2472204
-4.686377	NOTWITHSTANDING	-0.2581444
-4.686377	NOURISHMENT	-0.2146599
-4.686377	NOUVEAUX	-0.2586007
-4.209256	NOVEL	-0.6427752
-4.385347	NOVELTY	-0.246329
-2.596472	NOW	-0.4106086
-4.385347	NOWHERE	-0.2431899
-3.572434	NUMBER	-0.3050817
-4.686377	NUMBERS	-0.2146599
-4.385347	NUMEROUS	-0.2550538
-4.385347	NURSERY	-0.209143
-4.385347	O	-0.2578399
-3.482257	O'BRIEN	-0.8683776
-4.084317	OAHU	-0.6024345
-4.686377	OAK	-0.2538077
-4.084317	OAKLAND	-0.6450767
-3.987407	OATHS	-0.3121602
-4.084317	OBEDIENCE	-0.6024345
-4.084317	OBEDIENT	-0.6464022
-3.908226	OBEDIENTLY	-0.8095412
-4.385347	OBEY	-0.4330999
-3.607196	OBEYED	-0.425871
-3.686377	OBJECT	-0.4092003
-4.385347	OBJECTION	-0.2494364
-4.686377	OBJECTS	-0.2146599
-4.686377	OBLIGATION	-0.2586633
-4.385347	OBLIGED	-0.4679678
-4.686377	OBSCURE	-0.2477984
-4.686377	OBSCURED	-0.2572034
-4.686377	OBSERVATION	-0.2477984
-4.686377	OBSERVATIONS	-0.2582608
-4.385347	OBSERVE	-0.4761366
-3.987407	OBSERVED	-0.9269312
-3.908226	OBTAIN	-0.2501298
-4.385347	OBVIOUS	-0.2581713
-4.209256	OBVIOUSLY	-0.2523585
-4.209256	OCCASION	-0.7308205
-4.686377	OCCASIONS	-0.2579026
-3.987407	OCCUPANTS	-0.3135416
-4.385347	OCCUPIED	-0.2332455
-4.686377	OCCUR	-0.2524765
-3.540249	OCCURRED	-1.121554
-4.686377	OCCURRENCE	-0.2472204
-4.084317	OCCURRING	-0.6024345
-4.686377	OCCURS	-0.2575621
-4.686377	OCEAN	-0.2146599
-4.385347	OCEANSIDE	-0.4770676
-4.686377	OCTOBER	-0.2586723
-4.686377	ODD	-0.258556
-4.686377	ODDLY	-0.2586723
-1.584287	OF	-0.593488
-2.978807	OFF	-0.6858804
-4.686377	OFFENSE	-0.2146599
-3.908226	OFFER	-0.4355581
-4.686377	OFFERING	-0.2581444
-4.686377	OFFERS	-0.2493725
-3.908226	OFFICE	-0.6467583
-4.686377	OFFICER	-0.2572482
-4.209256	OFFICIAL	-0.735382
-4.385347	OFFSET	-0.4532471
-3.607196	OFTEN	-0.4109925
-4.686377	OFTENTIMES	-0.2567006
-3.607196	OH	-0.3817639
-4.686377	OHIO	-0.2146599
-3.407624	OIL	-0.7373924
-4.084317	OILERS	-0.635573
-4.385347	OK	-0.4330999
-3.095312	OLD	-0.3799171
-4.686377	OLDER	-0.2584934
-3.841279	OLIGARCHY	-0.4593202
-4.084317	OMINOUS	-0.6463844
-4.385347	OMISSIONS	-0.4761545
-2.322765	ON	-0.6861725
-4.084317	ON-SCREEN	-0.5157663
-3.288437	ONCE	-0.4390774
-2.498856	ONE	-0.4327202
-4.686377	ONE'S	-0.2586365
-4.084317	ONE-LEGGED	-0.6461875
-4.385347	ONES	-0.2557655
-4.385347	ONLINE	-0.4770318
-2.777892	ONLY	-0.4349192
-3.987407	ONTO	-0.8720419
-4.686377	ONTOLOGICAL	-0.2586633
-4.385347	OOLONG	-0.4771034
-4.686377	OONA	-0.2477984
-4.686377	OOZE	-0.2146599
-4.209256	OOZING	-0.6520482
-3.306166	OPEN	-0.4010318
-4.084317	OPENED	-0.5336398
-4.686377	OPENING	-0.2584487
-4.686377	OPERATED	-0.2553602
-4.686377	OPERATING	-0.2582876
-4.209256	OPERATION	-0.2068217
-3.987407	OPERATIONS	-0.490071
-3.841279	OPINION	-0.580305
-4.686377	OPIUM	-0.2562513
-4.385347	OPPONENTS	-0.4769603
-4.686377	OPPORTUNITY	-0.2146599
-3.841279	OPPOSITE	-0.5616617
-4.385347	OPPOSITION	-0.4330999
-3.987407	OPPRESSION	-0.2702092
-3.908226	OPPRESSIVE	-0.6059797
-4.385347	OPTION	-0.2141945
-4.686377	OPTIONAL	-0.2146599
-2.482257	OR	-0.3690836
-4.385347	ORANGE	-0.2572303
-4.209256	ORANGE-GREEN	-0.6520572
-4.686377	ORCHARD	-0.2568174
-4.686377	ORCHESTRA	-0.2584397
-4.385347	ORDAINED	-0.4770408
-3.732135	ORDER	-0.7233588
-3.841279	ORDERED	-0.288203
-4.385347	ORDERS	-0.2124874
-4.686377	ORDINARY	-0.2586633
-4.686377	OREGON	-0.2472204
-4.209256	ORG	-0.6917118
-4.209256	ORGANIC	-0.6520035
-4.686377	ORGANISATION	-0.2146599
-4.686377	ORGANISED	-0.2586723
-4.385347	ORGANIZATIONS	-0.2123581
-3.908226	ORGANIZED	-0.7400322
-4.385347	ORIGIN	-0.2378195
-4.686377	ORIGINAL	-0.2586365
-4.385347	ORIGINATE	-0.4738003
-4.686377	ORNAMENT	-0.2146599
-4.686377	ORPHANS	-0.2146599
-4.686377	ORTHODOXY	-0.2586633
-2.893985	OTHER	-0.3249244
-4.084317	OTHER'S	-0.5153995
-3.572434	OTHERS	-0.9777016
-3.987407	OTHERWISE	-0.4016767
-4.385347	OTTER	-0.4330999
-4.385347	OTTERS	-0.2586633
-3.908226	OUGHT	-0.7683843
-2.901047	OUR	-0.4903424
-3.288437	OURSELVES	-0.8622636
-2.614495	OUT	-0.7896584
-4.084317	OUTBURSTS	-0.6444933
-4.084317	OUTER	-0.6463486
-4.686377	OUTLINE	-0.2536992
-4.385347	OUTPUT	-0.21465
-4.209256	OUTRAGEOUS	-0.7357578
-4.385347	OUTRUN	-0.4761366
-4.686377	OUTSET	-0.2568174
-3.987407	OUTSIDE	-0.4923629
-4.209256	OUTSIDERS	-0.6496541
-3.841279	OUTSTRETCHED	-0.342006
-4.686377	OUTWARD	-0.2586723
-4.385347	OUTWARDLY	-0.4710797
-2.987407	OVER	-0.5089375
-4.385347	OVERESTIMATED	-0.4735659
-3.987407	OVERFLOWING	-0.2702092
-4.084317	OVERHEAD	-0.6024345
-4.686377	OVERLAP	-0.2553602
-4.686377	OVERLAPPING	-0.2584308
-4.686377	OVERRATE	-0.234807
-4.084317	OVERSEER	-0.6024345
-4.385347	OVERT	-0.4770944
-3.987407	OVERTURES	-0.2702092
-4.209256	OVERWHELMED	-0.6509559
-4.084317	OW	-0.6371471
-3.987407	OWE	-0.3099806
-4.686377	OWED	-0.2577055
-3.908226	OWL	-0.2535715
-3.908226	OWLS	-0.7489524
-3.239219	OWN	-0.4510736
-4.686377	OWNER	-0.2586633
-4.686377	OWNING	-0.2537263
-4.084317	OYSTER	-0.6464201
-3.987407	OYSTERS	-0.4856817
-4.686377	PACE	-0.2146599
-4.686377	PACKAGES	-0.2562513
-4.209256	PACKARD'S	-0.6520125
-4.209256	PADDLING	-0.6080626
-4.209256	PAGE	-0.6080626
-3.783287	PAID	-0.5542766
-3.908226	PAIN	-0.4282845
-4.385347	PAINS	-0.4768887
-4.686377	PAINT	-0.2586454
-3.987407	PAIR	-0.8624535
-3.908226	PALACE	-0.7508525
-4.686377	PALAEONTOLOGY	-0.2577055
-4.686377	PALISADES	-0.2146599
-4.686377	PALL	-0.2586723
-4.385347	PALM	-0.4330999
-4.385347	PALS	-0.21196
-3.841279	PAN	-0.2981814
-4.686377	PANTING	-0.2586365
-4.209256	PAPER	-0.6080626
-4.686377	PARALLEL	-0.234807
-4.686377	PARASITISM	-0.2146599
-4.084317	PARDON	-0.6482576
-4.686377	PARENTS	-0.2146599
-4.084317	PARIAH	-0.6371471
-4.686377	PARSEE'S	-0.2586633
-3.255013	PART	-1.281134
-3.732135	PARTICULAR	-0.2833625
-4.385347	PARTICULARLY	-0.2582339
-4.385347	PARTIES	-0.2572303
-3.987407	PARTING	-0.3141501
-4.209256	PARTLY	-0.6501034
-3.908226	PARTNERS	-0.2577436
-4.385347	PARTNERSHIP	-0.4738003
-4.209256	PARTS	-0.7243325
